1352 50
， 0.12996814 0.017700927 -0.10891473 -0.09496072 -0.10205323 -0.064112775 0.00048301695 0.17054738 1.5819193 0.2178682 -0.048494056 -0.030316945 0.076464444 -0.108163945 -0.09305618 -0.07132815 0.030624034 -0.017240012 -0.105035104 -0.14855646 0.14544004 -0.08039134 -0.13859667 0.015786115 -0.042812232 0.028686978 0.12103533 -0.074482925 -0.2871496 0.086845525 -0.19383757 0.15313111 0.0392849 -0.06361358 -0.027632603 -8.058514e-05 -0.010777905 0.029755468 -0.0106025 -0.0002629202 0.0048806192 0.019386845 0.027688896 -0.12111512 0.031438034 0.0077389935 0.035763595 -0.0016075217 0.028318193 -0.07869762
子 0.17041896 -0.20285204 -0.14306948 -0.16232371 -0.093795985 -0.2245232 -0.402644 0.1407026 0.5173335 0.23415457 -0.054028247 -0.2845198 -0.15730034 -0.2657465 -0.12436072 -0.0697591 -0.17551993 0.11811913 0.30004254 0.18231755 0.1320057 -0.13335307 -0.25855765 -0.03569622 0.62319344 -0.11389428 0.11800736 0.06358331 0.10790146 0.047677044 0.030540824 -0.43493974 0.0045608752 -0.23219995 -0.17816432 -0.13566135 0.18560001 0.15915976 -0.13223538 -0.13865635 -1.4286294 -0.002989063 0.074414104 0.38629666 -0.033273388 0.009703955 0.105469406 -0.13539658 0.040242057 0.6147659
。 -0.0036272213 -0.09885106 0.20436454 0.1679334 0.15561195 -0.060750436 -0.22874542 -0.1400864 1.7878158 -0.20941797 0.07474862 -0.15412772 -0.04182079 -0.05503942 0.11206595 0.053386305 0.12866364 0.18378013 0.14260677 -0.20002535 -0.056506723 0.041645013 0.044387985 -0.1567532 -0.4611889 -0.1390035 -0.016168347 0.08153905 0.65186614 -0.070690036 -0.040407896 -0.09850596 -0.02805574 -0.04449049 -0.028426943 0.17179975 -0.12593393 -0.17248695 0.09478469 -0.2221786 -0.36851397 -0.2239098 -0.12072479 0.15052643 0.011126019 -0.37742746 -0.07344939 0.012947891 0.020018656 0.35370764
： -0.2961099 0.18649557 0.12715942 -0.16627893 0.10805191 -0.15874842 -0.060756017 -0.646511 1.7074829 -0.3937302 0.15792704 -0.018931493 0.04526542 0.02213444 0.0047035976 -0.17656219 -0.18706787 -0.01310045 0.009152348 0.47119555 -0.05930779 -0.0341346 -0.009164419 -0.18359284 0.22413486 0.043636452 -0.11862129 -0.2713744 -0.6765781 -0.21494627 0.19305928 -0.18388559 0.080866486 0.070668966 0.13991456 0.22682609 0.15961792 -0.2964 0.014478234 -0.16028482 -0.49688146 -0.024980465 -0.15465988 0.3182107 -0.096320584 0.5844382 -0.14019462 0.08431566 -0.14505425 0.26995167
曰 0.1959367 0.16459285 0.04881667 -0.2015859 -0.22385958 -0.22356503 0.10934909 -0.0084292255 0.7962258 0.10229433 0.06541584 -0.05734794 0.2784685 -0.19814983 -0.10736232 -0.15924259 -0.04845698 0.052289646 0.12662537 -0.036284085 -0.07502606 0.025888091 0.2272048 0.14960824 1.670844 -0.09918075 0.16618909 0.15508258 0.5604336 -0.033769995 -0.79248714 -0.052475728 0.050462876 -0.04498639 -0.12914854 -0.2134766 -0.07851902 -0.19714516 0.28817156 -0.48449674 -0.6165033 -0.018458152 -0.036953986 -0.04069528 0.17082617 -0.14128475 0.03414158 -0.19380529 -0.24303746 1.1764925
之 -0.2868924 -0.2580827 -0.12366275 -0.18606487 0.029040862 -0.05379893 -0.25537258 -0.4982625 0.7815698 -0.09690721 -0.054154284 0.24703258 0.019741941 -0.094385475 -0.037130233 -0.03323716 0.065482974 -0.012411025 -0.08967062 0.21200009 -0.027217278 -0.1474678 0.06393192 0.16502468 0.013746896 -0.10146639 -0.04108899 0.22013913 0.5143673 0.21988568 -0.05306163 0.08512698 0.14395507 -0.19301471 -0.1252555 -0.25811547 0.111860536 -0.19793494 -0.11953105 0.12001929 -0.7922194 0.114103936 0.046036493 -0.41990927 0.025732832 0.32793275 -0.029573103 -0.12520179 -0.082129896 -0.48671943
不 0.040087447 -0.004011972 0.2431535 -0.073906496 -0.04237674 0.06982913 -0.18296373 0.24032143 0.8234255 0.14197437 -0.04878287 -0.21513858 -0.24985728 -0.096722424 0.22282647 0.40626532 -8.4051426e-05 -0.012942071 -0.12973744 -0.19414406 0.042246483 0.19023079 0.16286586 -0.20275187 0.94741917 -0.05620095 0.075986005 0.030631233 0.38557753 0.027213525 0.22383392 0.05338104 -0.018730817 0.052018646 0.027791196 -0.07938281 0.028717114 -0.01827468 0.04225915 -0.003542714 0.021819074 -0.13442136 0.2435518 -0.01496638 -0.010653466 0.89014846 -0.19128792 0.35797244 -0.026189787 -0.21949102
也 0.029241597 0.07204778 -0.023113051 0.25979936 -0.025199402 -0.06333502 0.0066070864 0.20960526 0.5940961 -0.0778824 0.1763275 -0.108305216 0.292754 0.10454614 -0.32129177 -0.1104813 -0.03267019 0.13554613 -0.091967 -0.077040695 0.049349155 -0.07596036 0.22245786 -0.19245058 0.39310667 0.012853121 -0.032291006 -0.18926848 0.38543195 -0.1300349 -0.040889576 0.1726061 -0.18651195 0.116647206 0.12263398 0.24703188 0.03169047 -0.1888463 0.06479091 0.25712925 -1.4899282 -0.17705125 0.19745538 -0.25182852 -0.26306003 0.174134 -0.1327901 0.2666702 0.1207742 -0.7689722
而 0.081746526 0.20467077 -0.038085237 -0.10254261 -0.21115395 0.1009221 -0.025980774 -0.0075116325 1.3796475 -0.37275583 0.099644095 -0.14063141 0.33921346 0.012944169 -0.03696447 -0.19797142 -0.3000338 0.28003126 -0.2664088 0.2794304 0.14340986 -0.027269557 0.19725005 0.13981858 0.56778246 0.0021827084 -0.2617882 0.037222777 0.6774018 -0.15429111 0.3148993 -0.2657673 -0.0023837413 0.35368896 -0.45846382 -0.29024056 -0.10967376 -0.08503538 -0.066458605 0.55915487 0.107151896 0.11415568 0.030880708 0.17101647 -0.108153544 0.22162229 0.077176765 -0.14707336 0.40359014 -0.17332546
？ -0.06432518 0.4090329 -0.19622684 -0.43933797 -0.26697332 0.45690766 0.24040969 0.20867753 1.548162 0.20126651 0.0005191542 0.32683587 -0.38782227 0.27628568 -0.0366782 0.042332895 0.24050368 -0.014280417 0.3431744 -0.09447268 0.11462966 -0.12333708 0.032081656 0.054150317 -0.2597786 -0.027148312 -0.080909684 0.15115543 0.09106159 -0.26596266 -0.23876467 0.34479633 0.082898036 0.30857337 -0.26482296 0.18268828 0.50621283 -0.29781747 -0.09314321 -0.058447532 -0.8566661 -0.02954159 -0.009498171 0.6801485 -0.07007402 0.43651634 -0.0011093647 0.044254422 -0.40544197 0.46916854
其 0.35195652 -0.41366565 -0.22457339 0.14679083 -0.1826517 0.33992097 0.35231495 -0.11065673 0.9459076 0.09918782 0.06853226 0.11252207 -0.16610223 0.29744732 0.11907711 0.030770684 -0.12655386 0.18413611 -0.5142427 0.50223166 0.34159935 -0.34953928 0.40072235 -0.32781935 0.6999551 -0.1328416 -0.36997283 0.09889437 0.33654374 0.38744625 -0.04479766 -0.143123 0.14697003 0.16694957 0.3438546 0.33044302 0.14986211 -0.24826175 -0.28007907 -0.11135438 -0.18067952 -0.2864197 0.33741775 0.0007082451 -0.06158891 0.30003762 0.055125564 0.0636347 -0.3740273 -0.18764657
人 -0.2867717 0.2578716 0.22871298 0.15320851 -0.2845121 0.62527925 -0.09727472 0.2541291 0.66156715 0.22855657 0.094784595 0.048425112 0.034051497 -0.17361437 0.4601763 0.17973198 -0.055112157 0.34252846 -0.22181973 0.65594816 0.01334291 -0.10762304 -0.13500078 0.013195118 0.025363306 0.22712155 -0.2034301 0.18606792 -0.15934338 0.23842448 0.083208084 -0.1778505 -0.06690346 -0.08183571 -0.1172186 -0.029320052 0.051812764 0.19153394 -0.09296259 0.32476392 -0.74565625 -0.2289993 0.0064641084 -0.88621527 0.4155862 0.021341916 -0.40519598 -0.050594985 0.004914329 0.65062696
者 0.018325979 -0.30189115 0.09116862 -0.12197935 -0.2590104 0.28996468 0.3108202 0.24464805 0.7649359 -0.08117853 -0.4354165 -0.047121964 -0.1597455 -0.014895428 0.12893768 -0.19002491 0.73235095 0.21291795 0.19859394 -0.001691235 0.34668827 -0.07311609 -0.17673501 -0.09432311 0.60638654 0.38302234 -0.28460145 0.3167136 0.23322296 -0.36461717 0.2181361 0.28304633 0.043087948 -0.120867535 -0.20714481 0.5221112 0.12588818 -0.1363783 0.1256274 0.51695734 -0.7742564 0.39978042 -0.25621176 -0.35097963 -0.08265728 0.017189737 0.08896995 0.11652647 0.17520379 0.004502012
以 -0.13294353 -0.11848042 0.018196637 0.4531224 0.07247654 -0.53377885 -0.023662508 0.14813285 1.1045791 0.35477042 0.33037207 0.18465492 -0.30768353 -0.038609907 0.05012651 -0.1040798 0.18176442 -0.17222533 0.1920433 -0.024745988 -0.17897253 -0.21904187 0.2870799 0.03963503 0.7530315 0.0813343 -0.056555938 -0.44810045 0.2093738 -0.33088958 0.245769 -0.54342914 0.39365068 -0.23298836 -0.19134745 0.0393546 0.29720533 0.42489034 -0.28126803 0.38491762 0.01583553 0.34130237 0.35359886 -0.07302159 -0.4890166 0.18008152 -0.36928317 0.04603943 -0.3120279 0.1150966
有 0.03603009 -0.07025467 0.19816531 0.13605872 -0.3312456 0.1544365 0.049922727 -0.39444754 0.56495124 0.25167674 0.46299914 0.24071798 -0.3013025 0.02053267 0.35425195 -0.09318452 0.33523375 0.21476758 -0.43047646 0.04415165 -0.0025247445 -0.19112627 -0.0040953117 -0.16825399 0.50551856 0.11430636 0.64935064 -0.6079738 0.2063186 -0.48626614 -0.22738145 -0.019923663 0.13309588 -0.18858448 0.10986935 0.03410271 -0.52739686 -0.12800293 -0.23816562 0.03393776 -0.54864705 0.05570542 -0.17149888 -0.097139895 0.2112377 0.060765028 -0.081238426 -0.25547484 -0.20180514 -0.06327177
于 0.00033961487 0.09597092 0.45852864 0.24991223 0.26795694 -0.3765213 0.23784159 0.20800617 1.3367593 -0.49604902 -0.28628847 -0.07410563 -0.20317876 -0.049471434 -0.01575475 -0.06577044 0.40503854 0.013779029 -0.19828227 0.4854286 0.19168879 -0.33099952 -0.001442267 0.5430565 0.86293954 0.09186189 0.21346107 0.028306229 0.038615763 0.04109078 0.12845641 -0.13994732 -0.36769128 0.32270804 -0.026010228 0.078198105 0.010678626 0.288015 0.1410481 -0.5629415 -0.29931182 -0.2838036 -0.10520473 0.14402415 -0.3197024 -0.32899615 -0.2401426 -0.6054383 -0.39672562 -0.49024102
矣 0.61685044 0.26148456 -0.06393223 -0.065482706 -0.08805255 -0.1587905 0.13299993 0.48557422 0.6820944 -0.20786184 0.13781436 -0.19957404 0.1620714 0.092085235 -0.12299283 0.34999317 0.11893072 -0.04755512 -0.57162434 0.35400698 -0.19367662 0.26280233 0.6005826 0.041419737 0.058099136 -0.029882716 -0.39256525 -0.111296795 0.40450758 0.25796768 -0.052564982 -0.5204307 0.63271546 -0.18790446 -0.24283694 0.50073683 -0.14457393 0.31880724 0.359135 0.47679904 -1.2417476 0.6570303 -0.6796805 -0.38812777 -0.17525725 0.32008168 -0.20847443 -0.12839723 -0.5909043 -0.070495516
为 -0.061490264 0.6966165 -0.26844496 0.1526657 -0.14580864 0.35352156 0.19203563 -0.16909668 0.97696036 -0.15772301 -0.039150987 -0.11950022 -0.43457672 -0.027886607 0.30319086 -0.09084432 0.16582242 0.26642433 0.26718086 -0.14418542 -0.4043289 -0.048724093 -0.08037578 -0.021041738 0.5182762 -0.43363005 0.26624727 -0.16636646 0.034526117 0.16563489 -0.25780976 -0.09386206 -0.40260556 -0.5730954 0.30936557 -0.31832924 0.115378335 0.39314884 0.24994825 0.73633933 -0.2421572 -0.1553233 0.19623865 -0.1559888 -0.5539077 0.1911876 0.08554335 -0.24736078 -0.36078826 0.25483084
君 0.29330373 0.05392859 0.21352819 0.27531937 0.073246695 0.53790325 -0.044797886 0.010209771 0.46872 0.26972955 0.6200159 -0.72188455 -0.0133075025 0.057114802 0.38597345 -0.6792781 0.025840364 0.07297697 0.5002941 0.38293904 -0.28498182 -0.2292218 0.17540056 -0.03174099 0.7349737 -0.12509546 0.27321303 -0.18094446 0.3794496 0.57362026 -0.67801166 -0.14945872 -0.40295362 0.11423986 -0.09420798 -0.1473526 0.4276078 0.2905372 -0.18037134 -0.46679702 -0.85189146 -0.2282204 -0.25370538 -0.1083526 0.14290416 0.84505224 0.40090883 -0.32570952 0.053698298 0.39204997
乎 0.16799244 -0.24130072 0.062144306 -0.05736536 -0.22850241 0.2266736 0.11702369 0.2648245 1.0446751 -0.24477004 0.0049001263 0.20914662 -0.52592653 -0.26109764 -0.003934329 0.29267257 -0.07806838 -0.015688336 -0.68725276 -0.22545408 -0.44812438 0.0657861 0.4919994 0.5686168 0.5274597 -0.2990754 0.01827531 -0.18573084 -0.34697992 -0.29074895 0.16009451 -0.100978576 -0.13880616 -0.25283372 -0.5655632 0.68330747 0.15813038 -0.1688026 0.17919731 0.77101177 -1.1345344 -0.15645812 -0.030646112 -0.038675055 0.2779064 -0.3581144 0.5058043 -0.4183917 -0.055099994 0.07830993
可 0.09123824 -0.07187739 0.47388068 0.13420102 0.30206993 -0.31407762 0.4309511 0.22725172 0.70984936 -0.124637745 0.316102 0.1261679 -0.22807057 -0.23035021 0.20569347 -0.23081355 -0.455673 -0.08495976 0.2649791 0.32027647 0.6776403 0.25246558 0.035648264 0.013101677 0.3465366 0.18210633 -0.49491176 -0.34453273 0.27247566 0.10003112 -0.030877827 0.6409046 0.11165326 0.1968701 -0.07738515 -0.545201 -0.39089745 0.13409692 0.093781605 0.511085 -0.75463444 -0.07755074 0.5118475 -0.5879084 0.20971717 0.67784154 -0.0009585204 -0.14112012 0.04122948 0.39054433
如 -0.010642586 0.07384457 -0.42909682 -0.2948841 0.41711542 0.25817493 -0.17555058 0.63310313 0.8349895 -0.25457913 0.5505501 0.1163854 0.23104057 0.38085717 0.4006793 0.041666355 0.01839709 -0.13098386 0.078548335 0.5115404 -0.44699556 -0.33079872 -0.6344433 -0.5537091 1.0356833 -0.031694707 -0.00976761 0.057708196 -0.08820083 -0.15220702 -0.19635074 0.16680828 -0.006537376 0.09039338 -0.06279956 -0.063587725 0.044087492 -0.00494881 -0.18524283 0.24231863 -0.620361 0.39909047 -0.0927019 -0.64199585 -0.38881925 -0.7138782 0.10599431 0.061649952 -0.082424745 -0.004387288
与 0.05509475 0.209746 0.3420845 -0.12022166 -0.05791243 -0.3416349 0.25818992 0.13935465 0.6680443 -0.48006746 -0.008241181 0.18306877 -0.065041326 -0.010774764 0.47285658 -0.3956837 -0.018396208 -0.14777017 0.09011913 -0.4977083 -0.08343175 -0.11070037 -0.5471251 -0.55992055 0.47471383 -0.4562823 0.2477496 -0.48283243 0.24279338 0.35304043 -0.28789073 -0.58870375 -0.065234296 0.48800433 -0.3001801 0.15672669 0.24275377 0.24824144 -0.025711741 0.31323215 -0.7139487 -0.24088544 0.00721382 -0.6872608 -0.10592789 0.51653695 0.35294694 0.35272884 0.47477758 -0.12635593
； 0.09855846 -0.11689685 0.5985084 0.24698734 -0.13912115 0.14617045 0.15593274 0.35766798 1.9119275 -0.02934382 -0.18741529 -0.31365955 -0.58522177 -0.04649474 -0.36535934 -0.096107356 -0.0111611495 0.104897074 -0.042757846 0.6223071 -0.66066945 0.055169534 -0.60348153 -0.4421949 -0.37085497 -0.27698925 -0.3788278 -0.2573757 0.23343964 -0.03912035 0.3058567 0.5823373 -0.023085944 0.13039483 0.0061728726 -0.2852751 -0.06130609 -0.13227832 0.055182375 0.12393126 -0.20202963 0.4562966 0.10556489 0.160781 0.31169322 0.20293091 -0.15347196 -0.27742854 -0.4314557 -0.051868904
言 0.20416264 0.23280182 -0.51738936 0.53706944 0.48701087 -0.32675257 -0.26092225 0.61336213 0.5354303 0.073843785 0.2139453 0.37409103 -0.22283925 -0.3296182 0.16047382 -0.08583107 -0.33463386 0.012372424 -0.099224076 0.40353075 0.27669433 0.6155463 -0.3916118 0.22978853 0.17388304 0.012602015 0.4422127 -0.2065698 0.14487085 0.2669437 -0.1534533 0.07958777 0.2386789 0.7246454 0.49536997 -0.013184134 -0.1378479 -0.15719809 -0.12674855 0.70002025 -0.784806 0.28044257 -0.37484974 0.057258166 -0.06337131 0.5004199 -0.5143167 0.054032043 -0.12230598 0.56718487
无 -0.22051202 -0.7460969 -0.0700643 -0.057225455 0.1901971 -0.11695701 0.26492444 -0.042214036 0.96324414 0.44109878 -0.23932128 -0.123529345 0.19344625 -0.0762652 0.41888228 0.0016761759 -0.069026284 0.48975724 -0.47956285 0.15867124 -0.3329532 -0.15646653 0.25989178 0.3324767 0.55894536 -0.7615214 0.69777685 -0.24250616 0.3826083 -0.4680607 -0.07428335 -0.26790264 -0.23798649 -0.44802612 -0.15312232 0.5794234 0.11891029 0.17238428 -0.068229474 -0.19322054 0.026888706 0.026929654 0.058332726 -0.56375647 -0.24259046 0.9976631 0.06287402 0.28950322 0.5096818 0.268232
则 -0.04748913 -0.43915063 0.06904466 -0.13276838 0.3295334 0.09124121 -0.51369035 0.34166655 1.451196 0.106278874 -0.022527374 0.114249356 -0.18765983 0.24137725 0.07511806 0.07151595 0.021449285 0.16229253 0.5214798 1.1277144 0.112227425 0.5325528 0.10728071 0.54656255 0.4793839 -0.26601604 -0.31634197 -0.17887735 0.095384456 0.13233101 -0.3977282 -0.30441332 -0.15742263 -0.21762075 0.20191655 1.0397565 0.1574554 0.17056589 0.27631873 0.2621172 0.05134859 0.45205274 0.4582071 -0.062188964 -0.30848938 0.16398615 -0.23371646 -0.117316626 0.36004382 -0.40193966
！ 0.15831988 0.34314027 -0.05420311 0.028888782 0.4205228 0.27413967 0.46834427 0.44482282 1.4258449 -0.4689441 0.4553029 0.25097415 -0.3015655 -0.33157846 0.5474069 -0.39978313 -0.22935036 0.11860452 0.09449714 0.10549096 0.09128138 0.1502236 -0.10962454 0.31748098 -0.7321587 0.16539156 0.22612427 -0.1296242 0.21958473 -0.48736244 0.05862298 -0.020583047 0.12288372 -0.22790982 -0.25520143 -0.12846576 0.75228125 0.19136655 0.08068561 -0.19822885 -0.7690562 -0.15064335 0.1462588 0.047319323 -0.16459607 0.23810486 0.004936143 0.045404922 -0.5860428 0.4539328
问 -0.28720647 0.32863668 0.18921995 0.3042972 0.15751217 0.31092143 -0.63842434 0.3132929 0.6681578 -0.07794782 -0.5840891 0.13757156 0.7858335 -0.45792136 -0.117769204 -0.019863348 0.37149277 0.73192716 -0.2116652 0.16228364 -0.01996571 -0.16138634 -0.1712988 0.15084285 1.0166092 -0.17028062 -0.011839745 -0.06266028 0.12957837 0.013662413 -0.19732466 -0.29458207 0.39294446 -0.3964665 0.13666007 0.07872621 0.21673878 0.26776525 0.33212566 -0.044345453 -0.6853684 -0.26545358 -0.07463279 0.42292795 0.31684327 -0.04291546 0.26983455 -0.120494224 -0.6527217 0.42951146
知 -0.30950156 -0.10116917 0.29904985 0.06751933 0.3754959 -0.299921 0.3509878 0.5204021 0.6230948 -0.5598538 0.420478 -0.24325408 0.34498957 0.24808095 0.08539806 0.099124745 0.04724704 -0.54909235 -0.035105985 -0.033048745 0.33498618 -0.18365808 -0.42122474 0.08465694 0.332259 -0.14588253 -0.3258883 -0.3649812 0.6330899 -0.3165126 -0.01502975 0.11079042 -0.20360494 -0.3499735 -0.24121764 0.10164618 0.17859793 -0.037312273 -0.26426315 0.5855495 -0.22512576 -0.5201432 0.47523755 -0.32195196 -0.07355532 0.25616485 0.1412993 -0.020085547 -0.58645946 0.51313406
何 -0.1221426 -0.0061803996 -0.21777523 -0.34146434 0.59847856 -0.21157977 0.32841563 -0.071288355 0.60376775 -0.38752943 0.33762383 -0.009984768 -0.40768492 0.32708693 -0.021702569 0.19011214 0.2050442 -0.39115196 0.056360427 -0.25617608 -0.21118832 0.17685717 0.06835178 -0.10626369 0.5418766 -0.09451799 0.6607399 0.31444657 -0.24821348 -0.04732144 -1.2297797 0.19538301 0.3828416 0.13018127 -0.41425362 0.13272326 0.23571923 0.19127934 -0.08923758 0.32874826 -0.7607835 -0.58186203 0.231838 -0.4149695 0.07911184 0.7068321 0.057894316 0.18536499 -0.2712141 0.40980878
吾 0.37744397 -0.20038068 -0.426417 -0.23589136 0.077571124 -0.1236798 0.1599784 -0.25895613 0.61756533 -0.029968303 -0.14216381 0.85588604 -0.008125195 -0.02579602 0.07046341 -0.3735786 -0.041337494 -0.6616631 -0.20636363 0.21524736 0.40105322 -0.3619041 0.5138173 0.050300673 0.971326 0.001373768 -0.014326397 -0.8715506 0.48463893 0.026855392 0.496385 0.43834293 0.33891934 -0.44729176 0.42562407 0.2854335 -0.11783184 -0.19618094 -0.15689105 0.31651077 -0.28605992 -0.1688523 0.28648198 -0.6622411 0.21236774 0.32468727 0.07404596 -0.12545495 0.29316813 0.72807676
仁 -0.18815736 0.3420741 0.24989115 0.2017709 0.3725508 -0.330112 0.10101339 0.19075002 0.4178385 -0.58228284 -0.43788236 -0.08241032 0.06346279 0.26497096 0.31353945 0.38801888 -0.4497691 0.47612676 -0.34051573 -0.033012677 0.6024793 -0.63204247 -0.08948555 -0.23106752 0.41602597 0.11445539 -0.24236958 -0.22809082 0.381685 0.39502177 -0.15635774 0.31309274 -0.24607787 -0.5222892 -0.04588792 -0.113302976 0.3097178 0.16959234 -0.29132268 0.49137467 -0.91722256 0.07896931 -0.102440916 -0.06566331 0.7404864 0.4666434 0.07729645 -0.19672336 0.1639461 0.32923886
夫 0.23262419 0.10537847 0.74460936 0.006424991 -0.13962087 -0.05635608 -0.2662831 -0.34343266 0.46151 0.5502063 0.2695738 -0.0994593 -0.034743812 0.139678 -0.022367783 -0.18220821 0.40038577 -0.1149001 -0.3553707 0.038604025 -0.02102621 -0.022307552 0.42813808 -0.19072068 0.55988264 0.090564646 -0.36628526 -0.35697198 0.19633277 0.08036764 -0.24135982 0.42784536 -0.44665292 0.21080616 0.29705068 0.10219024 0.39498678 -0.31068176 -0.008971077 -0.25174806 -1.189633 0.2715634 0.06320153 -0.43951654 -0.88218606 -0.19067834 0.33386755 -0.5393031 -0.21485808 0.9943263
、 -0.07714203 -0.102307 -0.35177195 -0.36580735 -0.53754 -0.5367467 0.06539031 0.082792364 1.757158 -0.09775183 0.3485649 -0.0769604 -0.09124101 0.4754933 -0.37575042 -0.24769399 0.3227622 0.22549114 -0.2273784 -0.24310632 -0.6975485 0.60703343 -0.15415765 0.43309596 0.5728736 0.30028763 0.1749624 -0.25884685 0.5764608 0.030507876 0.191325 0.43993667 0.17645581 0.049196973 0.6549272 -0.04910243 0.60431254 -0.12801468 0.37699056 -0.13539004 -0.22711593 -0.31306162 -0.1205295 0.48919746 -0.076785035 -0.016213082 -0.37572283 -0.5284469 0.6176482 0.17693989
道 0.08158648 0.29494485 -0.26057142 -0.08235579 -0.12039844 -0.2559629 -0.31367958 0.37629312 0.61189663 0.23961313 -0.07198997 -0.244357 0.1104081 0.33493504 0.22719285 -0.2254184 0.21900319 -0.3400638 -0.39512733 0.27398214 0.19900858 -0.43124348 -0.31657222 -0.24063444 0.2192804 -0.01314416 -0.082669064 0.32012498 0.32124487 -0.2523016 -0.2633413 0.08542365 -0.060643654 0.15706307 0.25326422 0.19756861 0.097655915 -0.030313088 0.037047286 0.25205353 -0.06969076 -0.21619226 -0.06817682 -0.94973856 0.25522915 0.9625723 0.46079916 -0.7346086 0.054460168 0.37212375
焉 0.10828394 0.15812989 0.013674071 -0.27600667 0.5578273 0.48742083 -0.20594367 -0.01200785 0.70159775 0.645122 -0.045180265 -0.24864618 0.26119936 -0.5013439 0.08032996 -0.039699994 -1.036458 -0.2418725 -0.52490085 -0.07190181 0.052318655 0.2729241 0.6178347 -0.21218927 1.223484 0.034624185 0.03921806 0.16240944 0.84367174 0.09467813 -0.26038033 -0.3787672 0.2673431 0.13654323 0.18412694 0.6489367 0.46688852 0.24629113 0.15079495 0.4369227 -0.6505438 -0.43484697 -0.20040646 -0.33343947 -0.0897401 -0.19866905 -0.39622566 -0.60641325 -0.17739217 -0.3965464
行 -0.1538159 0.1343604 -0.15220128 0.1244896 0.026928067 -0.49579233 0.18214235 0.37953332 0.56872076 0.14085083 -0.36302885 -0.6357236 -0.30121326 -0.17751695 0.9710595 -0.02572449 -0.29588097 0.111567326 -0.1674164 0.00748468 -0.047040213 -0.6087262 0.010327429 0.15281403 0.11407682 -0.08844052 -0.26875618 -0.3283656 0.77508146 -0.28418145 -0.30032355 0.11208187 0.17983529 0.12290866 0.5222236 0.020701546 -0.34473923 -0.3676078 -0.26283932 0.4058301 -0.42552274 0.38180426 -0.036361445 -0.3635863 -0.10684429 0.06882563 0.29230717 -0.21100785 -0.3027929 0.5252239
谓 0.302089 0.07050094 0.34429398 -0.1904109 0.3891613 0.06565353 0.21389495 -0.015189101 1.0378186 0.08148989 0.9626382 0.34998295 0.28379494 -0.14881602 0.4723871 0.037748706 0.7113547 0.4256315 0.12298307 -0.41314197 -0.083761185 -0.16078106 -0.51964355 0.049280055 0.2575103 -0.16799763 -0.4356472 0.44288176 0.28238562 0.119646885 -0.035757624 -0.0061555677 0.5447325 0.17526847 -0.033037428 0.060355987 -0.25742775 0.37958235 0.51573646 0.31858465 -0.94715166 0.22148411 0.3025239 0.089937404 -0.83937794 0.38510725 -0.28128985 -0.6633677 0.10392306 0.6151122
必 -0.15579446 -0.7372786 -0.18512706 0.15615381 0.43449697 0.027451152 -0.37757772 0.9391664 0.74714524 0.085376374 0.18092144 0.5436328 -0.56255186 0.45903882 -0.27876073 0.17337115 -0.14303322 1.0713662 0.053225875 0.47264946 -0.39772308 -0.032869585 -0.040283073 -0.084885895 0.77847123 0.24142304 -0.30375594 -0.12978095 0.29774758 0.3347086 -0.5226561 0.07577723 0.36275715 -0.4840703 -0.14860563 0.05797179 -0.40263748 -0.6793998 -0.06775656 0.37502033 -0.099943645 -0.30981976 -0.31674054 -0.18541001 -0.25958258 0.25383118 0.20606808 0.22990303 0.09647709 0.22966246
礼 -0.015832959 0.42897284 0.02593485 0.5720797 0.11118031 -0.061658584 0.17581086 0.14879256 0.5321272 -0.49461344 0.5714164 -0.10850895 -0.17896767 0.5628087 -0.06643314 0.2925268 -0.25941625 -0.26928836 -0.47189817 0.41190767 0.24222203 0.06240792 -0.31311682 0.14660695 0.70015854 -0.3495712 0.3917955 -0.09601246 0.015362717 0.09785926 -0.4242516 0.82242864 0.45848408 -0.74833596 0.30878457 0.39736775 0.5581338 -0.28764004 0.25209913 0.27822372 -0.5748496 0.4752158 0.275103 -0.060942728 -0.3194965 0.5780883 0.48666802 -0.5127757 0.34887028 0.55664325
孔 0.2974105 0.024690978 -0.19208807 -0.11805602 -0.341586 -0.10695817 -0.14353925 0.29094166 0.6924526 -0.7525274 0.38061726 0.4689211 -0.062741905 -0.3979182 0.16706742 -0.085624754 0.06338254 -0.13947473 -0.036230005 0.17814434 0.25628442 -0.67381364 0.65743554 0.08448233 0.60211706 0.40695393 0.22053307 -0.043304853 0.70004183 0.7152913 -0.11295917 -0.48624048 0.16446006 -0.66523933 -0.639476 -0.052785512 0.330937 0.024204088 -0.041258972 -0.93276864 -1.7033908 0.01924347 -0.09483185 -0.23140596 -0.7044341 0.23171742 0.2760848 -0.041528814 0.16930589 0.399735
斯 -0.5151556 -0.13351256 0.1981732 0.31365475 -0.21598454 0.004563865 -0.56961966 0.9492772 0.66122633 -0.10953128 -0.022469668 -0.46139157 -0.14435554 -0.22450307 -0.22630922 -0.07028296 0.19644964 0.19025978 -0.4549696 0.13402006 0.24370563 -0.09378738 0.18685474 -0.37436602 0.24150874 -0.045537602 -0.47898978 -0.9592309 -0.30346972 0.33552724 -0.6591833 0.12540162 -0.031723168 0.06242437 -0.68875533 0.7031217 -0.35826755 0.32604253 -0.5895611 0.056948148 -0.8744504 0.26493937 0.073576145 -0.22553107 0.36074176 0.63089985 0.49305588 0.14403471 0.14820504 -0.05269925
三 -0.09643594 -0.71421003 0.2812295 -0.58719784 0.5519329 -0.36124393 0.1822928 0.5312439 0.70092446 -0.53290063 0.46048373 -0.32401785 -0.3552068 -0.2741478 -0.3216211 -0.13454029 -0.52343893 -0.36869892 -0.53850996 -0.07959786 0.3345081 -0.21895969 0.62611926 -0.36103806 0.5805988 0.005851599 -0.0471206 -0.15698974 0.6690397 0.16543 -0.26382345 0.12563509 0.3236625 -0.3691761 -0.019304773 -0.3669003 0.05036994 0.10288624 0.4325301 -0.65859234 -0.56110394 0.4732647 -0.62438935 -0.11469053 -0.11712341 0.6645871 0.5831692 -0.029711189 -0.28416282 0.2752741
能 0.39394614 0.13465531 0.60438335 0.44726494 0.18349095 -0.02441265 -0.12951377 0.6792827 1.0194656 0.21838076 -0.1625896 0.37108842 0.56847113 0.6433643 -0.016368343 -0.4016146 -0.376345 -0.06492989 0.43393782 0.53901476 0.2645746 0.24052069 0.17880549 -0.31319958 0.5477282 0.010487703 0.04515101 0.7211681 0.2998399 0.09218834 0.060870465 -0.042736355 -0.3660846 -0.5011159 -0.28485498 0.558403 -0.41302305 -0.10201845 -0.5879313 0.39593163 -0.027082061 0.12593772 0.48304382 -0.0043022665 0.09692218 1.1850691 -0.037676476 -0.23988615 -0.50164235 0.3455284
见 -0.42563397 -0.25496018 -0.08070978 0.67597336 -0.025137074 -0.51638985 0.42669994 0.26773092 0.5386428 -0.08010281 0.39291242 0.106408745 0.19554119 -0.34553692 1.0609041 0.58326346 0.17867523 -0.22411947 -0.103198506 0.045548785 0.07073583 -0.55576473 -0.8644802 -0.037197407 0.6651248 -0.04012731 0.3829261 0.40746945 0.31660798 0.121100605 -0.41240674 -0.0066842283 -0.48468164 -0.025215296 -0.063863814 0.08336922 0.30006066 -0.8206233 0.054827586 -0.014730621 -0.5835336 0.0030212784 -0.30646884 0.042690445 0.6200408 0.5541065 -0.22516707 -0.42405105 0.06662341 0.09748578
学 -1.0805715 0.66712445 0.10070567 -0.06471655 0.07707214 -0.078800924 -0.29579976 0.29256132 0.5735102 0.3549878 0.016705662 0.17793542 0.08088136 -0.034522217 0.8422709 -0.014644129 -0.42937288 -0.25217965 -0.24394412 0.08031323 0.41779396 0.36123925 -0.57568556 -0.515005 0.5709669 -0.34377113 0.44993117 -0.5166925 0.66122454 0.28272665 -0.8757588 0.08310278 -0.14862415 -0.7757599 -0.52449435 -0.13663562 -0.34828025 0.09264003 0.15318966 0.06432028 -0.6883614 0.44114152 0.17601946 0.081559435 -0.12742141 -0.0099716075 0.29956716 -0.31622905 0.15955003 0.4516761
事 -0.52172625 0.6648111 0.2050189 0.6479157 0.22563805 0.3160716 -0.20853113 0.15248838 0.64896977 0.22403845 0.28073424 -0.053178918 -0.26995054 -0.12319768 0.41133773 -0.6186909 0.7471174 -0.15768003 -0.34837487 0.58507544 0.3340818 -0.34107864 -0.03113408 0.13421938 1.0926173 -1.186143 -0.0053779357 0.05005188 0.5483512 0.07659899 0.026576089 0.19995025 -0.064116225 -0.09652642 0.37622178 -0.32887226 0.17639743 -0.012631315 0.20232315 0.74842167 -0.2854157 0.26369834 -0.59677935 0.23087256 0.48283312 0.05338513 -0.053686585 -0.11030215 -0.19554852 0.0042063505
是 -0.1050226 0.37843072 -0.012306491 0.15779161 0.32546428 0.03971596 0.47007644 0.68071586 0.5197285 -0.3496559 -0.026140818 0.19030194 0.021910543 -0.009167945 -0.15690333 0.17177264 0.07078827 -0.022057423 -0.42785367 0.64272267 -0.1955614 -0.13539784 0.05940836 0.08995485 0.28461328 0.35769427 0.39599755 -0.18130314 0.178195 0.81510144 -0.8926801 -0.35939848 0.30197203 0.06887303 -0.93575203 0.25088134 -0.27050397 -0.19416068 -0.43923002 -0.036746994 -0.40195018 -0.7021801 0.4780631 0.0008322365 -0.8140789 0.5914402 -0.46124378 -0.32155868 0.4535503 0.51291883
哉 0.0018369901 -0.04435646 0.28475714 -0.48351973 -0.2655822 -0.052755225 0.44130647 -0.14292565 0.726556 -0.13416678 -0.68694955 0.12100443 -0.22092657 0.7837576 0.705746 0.026168523 0.079540275 0.07844923 -0.10139459 -0.27622762 0.20532368 -0.038620055 0.4382928 0.5746605 0.13545622 -0.29927352 0.3974431 -0.3535743 0.047220856 -0.07722518 -0.071687974 -0.66811705 0.3244468 0.5140691 -0.34182414 -0.049551234 0.02378767 -0.22262299 0.40271327 0.2524919 -1.7483988 -0.08858784 0.33731604 -0.9659626 -0.22596128 -0.23696932 -0.34761843 0.29096332 -0.47311696 0.79133636
闻 0.11962006 0.3713386 0.0063580074 -0.09272081 0.7726223 -0.2549774 0.14976667 0.5622385 0.8501163 0.52391654 0.046358358 0.005127541 0.1990405 -0.039642096 0.86609983 -0.27583382 -0.34289587 -0.10518258 0.19047812 -0.031380206 -0.29341313 -0.3987999 -0.84226495 0.28502664 0.31031454 -0.3011231 0.4020221 0.44419643 0.404384 -0.6250507 -0.60234636 0.30359012 0.07371023 -0.22534773 0.7745891 0.51331556 -0.14573696 0.18705943 0.07853876 -0.17283508 -0.5541657 0.20251383 -0.26161245 -0.19673976 -0.17015314 0.17667043 -0.11011657 -0.6326679 -0.37544304 0.3637078
未 0.28060558 -0.052173577 0.3023014 0.47033957 0.33999562 0.06774043 -0.36809993 0.43138957 0.86340594 0.21110877 -0.2876722 0.6871057 0.21059026 -0.1893595 0.105746605 0.3849855 0.77219296 -0.1317518 -0.29052892 0.5949057 -0.2960677 0.13386345 -0.12733063 -0.75387436 0.6963301 0.30715814 -0.2311441 -0.40546614 0.6435771 -0.13187875 -0.45517072 -0.22716492 0.19376096 0.39896 -0.27865294 0.43191627 0.23181054 -0.11581661 0.77801365 -0.3255834 0.040126443 0.06707254 -0.07173265 -0.14251864 -0.31469703 0.79192525 -0.16949071 -0.05862038 0.55596447 0.5160241
公 -0.17346038 0.16717374 0.030119075 0.18327329 -0.4849734 0.2077508 -0.33026266 0.6197072 0.7502642 -0.27200702 0.82884 -0.5489543 0.40565005 0.33633545 -0.029192502 0.25504932 -0.1033662 0.057176996 0.43431222 0.6001506 0.44014713 -0.26685637 0.30069605 0.28069556 0.25371557 0.6281417 0.54083633 0.108557105 0.021891847 0.05961323 -0.012453479 0.08741646 0.70576227 -0.35045156 0.16088678 -0.029260408 -0.70373744 0.10998513 0.6553435 -0.2738951 -1.4386449 -0.13878176 -0.2752565 -0.047994528 0.2792289 0.5684847 0.2083478 -0.27208003 0.34073582 0.249076
好 0.2611735 0.24046385 -0.42068753 -0.020988772 -0.10572667 -0.21622768 -0.3794267 0.13160582 0.91038096 -0.35248697 -0.40782642 -0.09513479 0.16699497 -0.27670842 -0.6360298 0.36930767 0.4637689 -0.106058694 -0.17427556 0.26209703 0.0945855 0.14956863 -0.016321661 -0.83420295 0.7612881 0.3334891 0.19037546 0.20917949 1.2451029 -0.8363042 -0.050687302 0.38819057 -0.56931376 -0.53253365 -0.70898414 0.15773635 -0.40599516 0.01624936 -0.5628521 0.40175706 -0.19513623 0.18856756 0.14762038 -0.29568687 -0.45576045 0.94241947 0.07769623 -0.024494765 -0.15156691 -0.10648757
我 -0.15926881 -0.032685064 -0.5519469 0.044778995 0.07400643 0.4778409 0.32567105 0.31138113 0.6305233 -0.3475538 0.43736658 -0.23834404 0.28265908 -0.019076353 -0.16594864 -0.6156938 -0.45823374 -0.280299 -0.9432367 0.36610088 0.8574514 0.7683329 -0.0141376825 0.08328543 0.3891271 0.2350771 0.316666 0.20433879 0.20249511 0.28675997 -0.44797656 -0.30753434 0.43890932 -0.53055453 -0.16791911 -0.08664725 0.16759975 -0.376635 -0.3112672 -0.16465814 -0.76362354 0.5405144 0.6282407 -0.571626 0.09570658 0.22714421 0.115160465 -0.19878668 -0.08779646 0.5370149
路 0.46988973 -0.28774875 -0.20303482 0.16612545 -0.19806583 0.51515114 -0.50008476 0.52270406 1.0323703 0.009814141 0.21464987 0.05141885 0.09378883 -0.40243405 0.44708994 -0.4943562 0.03441179 -0.14849243 0.36471283 0.415689 0.21572073 -0.24163873 0.3902197 0.34501693 0.5495903 -0.29354867 -0.1509789 -0.6448118 0.33681324 -0.6388129 -0.28242338 -0.3192666 -0.13397746 -0.72397035 -0.41683713 -0.14857504 -0.40076375 -0.8308333 0.10219798 -0.57419676 -0.61899215 -0.2436979 -0.33535573 0.40375343 0.15310942 0.6669473 0.27902126 -0.56437755 -0.21474294 0.26967487
在 -0.14191248 -0.70015174 0.76487994 -0.19201753 -0.462483 0.11649187 0.6852948 0.12277985 0.88918805 -0.057613336 -0.017081901 0.036400236 0.05682312 -0.4662514 0.34370807 -0.15147287 -0.29767978 -0.63473475 0.5429655 0.23138061 -0.45098278 -0.2128303 -0.12040549 0.082127586 0.7307055 0.1368607 0.518147 -0.20341793 0.8717874 -0.17500131 -1.1119479 0.5223032 0.11742057 0.4674246 0.7169047 0.24731298 -0.07027624 0.62467146 -0.27400503 0.7827009 -0.44009355 -0.85577685 -1.166139 -0.07410931 0.02994948 0.004477256 0.061612293 -0.28361854 -0.6871539 -0.19166228
已 0.73317575 0.17933203 0.795308 0.037628982 0.57459843 0.17993507 0.33388573 0.71745753 0.79308736 -0.082317285 0.6144133 -0.06106728 0.062333796 -0.33074427 0.40087053 0.68667835 -0.029035496 0.31177795 -0.55080986 -0.07916152 -0.4387327 -0.16756873 -0.19149502 0.31959665 -0.2747338 0.5102045 -0.26279956 -0.91531694 1.1239005 -0.2959306 -0.20882553 0.4344333 0.19385546 0.32211012 -0.2202971 0.17473795 0.0916509 0.4006857 0.4702404 0.59981257 -1.0639986 0.10708041 0.08646893 -0.16482085 0.1791782 0.44338816 0.05561064 -0.29743814 -0.21145019 0.77297133
得 -0.16411716 0.42545164 -0.012774969 -0.20808761 0.3143037 -0.13745408 0.09460896 -0.05164228 1.1206682 0.0342124 0.39298445 -0.40445304 -0.20043512 -0.81354135 -0.114638686 -0.18923756 0.10076287 -0.53765184 -0.16571361 0.6665781 -0.13129252 -0.01517421 -0.3806292 -0.28372452 0.12855469 -0.13036238 0.03915763 -0.34421802 0.78186476 0.21323594 0.18292902 0.24624743 -0.3681347 0.19416124 -0.011877797 1.1610037 -0.18842867 0.331295 -0.7861987 0.6026612 0.24638379 0.1705116 -0.081436895 -0.25456822 0.28844023 0.5091812 0.37432435 -0.08586262 -0.27391154 0.33528933
所 -0.06146058 -0.054655872 0.26436204 0.21581133 0.18784289 0.02104668 -0.38464272 0.25574934 1.0772065 -0.6131627 -0.4256511 0.7268629 -0.916257 -0.3330374 -0.17225327 0.07981768 -0.9102896 -0.16425422 0.41870025 -0.09640709 -0.59585637 -0.7541038 -0.35790733 0.094628 0.69580853 0.48373604 0.13939042 0.61591077 0.34364396 0.27558634 -0.1710913 0.001844022 0.7016364 0.34018004 0.015395541 0.6219746 0.5528555 -0.029911136 -0.35255402 0.7958653 -0.36561936 -0.49814218 -0.22344275 -0.33616027 0.19868512 0.62275934 0.011412112 -0.39077443 0.7055781 0.4002967
民 -0.18856874 0.36733112 0.20815547 0.41226345 0.012358856 -0.546215 -0.35053587 0.652687 0.92579854 0.5574918 0.41620722 0.4174784 -0.58856183 0.5649259 0.041645613 0.16373894 -0.09189288 -0.266649 -0.7146258 0.7835367 0.78691953 0.34898642 -0.24721843 -0.664951 0.68903315 -0.21924883 0.19740851 -0.10709595 0.2561407 -0.31795895 0.17980221 -0.34057784 0.008108526 0.015193538 -0.04695544 -0.61226183 0.1759047 -0.23461504 0.19304006 0.49075043 0.024581503 -0.09355321 0.02947178 -0.69383323 0.028652756 -0.0904838 0.32081848 0.10712855 0.04886038 0.5407451
小 -0.03549844 -0.014870641 -0.45785767 0.6727856 0.23670462 0.14799625 0.413146 -0.034860738 0.849547 0.4115916 0.068546176 0.094338976 -0.4460219 -0.58431435 -0.05991722 0.032272533 -0.15530218 -0.18233788 0.05024335 0.2767657 0.39119497 0.5763567 0.40070853 0.034771487 0.8697295 -0.036103055 -0.30616277 -0.12338183 0.3335433 0.08013827 -1.0486662 -0.24015903 0.04585816 0.4368244 0.18301575 0.06888081 0.74259245 -0.011698267 -0.14319843 -0.14047508 -0.3235479 0.07918062 -0.28796414 -0.35101688 -0.6539518 0.38284692 -0.07685371 -0.2958115 -0.3038253 0.30517244
天 -0.28238288 -0.30536428 -0.8382052 0.30706313 -0.65887374 0.2534544 -0.24374864 0.12677903 0.39372268 0.04922718 -0.14656791 0.49315205 -0.1368363 0.15005445 0.22548546 -0.39390972 -0.11360948 0.20805822 -0.0008176081 0.16570145 0.10720771 0.101925805 -0.10707436 0.04030248 0.9640829 -0.6795032 0.36850053 -0.73568976 0.31820858 0.21776552 0.005482939 0.9078389 1.0234125 0.10913598 -0.22693363 -0.14526622 0.05631957 0.8436833 -0.15035316 -0.3445144 -1.0847447 0.0210525 -0.27452374 -0.47767782 0.0034566673 0.5367524 0.40159062 -0.009840547 -0.3262294 0.2937641
乐 0.5067273 0.12264483 0.01726483 0.09087257 0.3078147 0.30606475 -0.011999181 0.11587668 0.6496912 0.13243636 0.22758201 -0.3418022 -0.090640925 -0.055892456 -0.84309995 0.5758526 0.04162201 -0.35533687 0.31994742 0.69914496 0.17232907 0.06550688 -0.09386256 0.17824611 0.7981939 -0.17789851 0.5973022 -0.75368637 -0.027181122 -0.12937096 -0.5792445 0.62343925 -0.46988225 -0.7002403 0.21752447 0.28989023 0.11461522 -0.22003573 -0.5873248 0.8202401 -0.62706465 -0.29883337 0.030781113 0.01709578 -0.010717882 0.16706653 0.35682485 -0.25568402 0.26269728 0.22889087
邦 -0.12274106 -0.09884467 -0.15458666 0.5865878 -0.13203295 -0.098440684 -0.40521994 0.12506376 0.72953826 -0.3162322 0.5141708 -0.3077006 -0.39343518 0.44527632 0.35825497 -0.41765705 -0.3668158 -0.1618685 -0.14043628 0.7860605 -0.07881146 -0.65524805 0.65251076 -0.22259971 0.23073992 -0.20336552 0.4967961 -0.1260717 0.34302032 -0.2968043 -0.69852686 0.2767092 -0.0151394 0.35008037 0.23230456 0.11906654 0.6287662 0.59827566 -0.034638107 0.59797263 -0.43861058 0.68682545 -0.0034499739 -0.12936151 0.6261796 0.04554637 0.09115306 -0.3928431 0.3781344 0.6288254
亦 -0.10107439 -0.1294949 -0.4458753 -0.93798286 0.105765775 0.5329299 -0.64747787 0.6956985 1.0731381 -0.54974383 0.58767545 0.05080666 -0.3742989 0.14219154 0.62902594 0.79726213 -0.05237879 0.4454437 -0.093708135 -0.26213098 0.33620226 -0.51126426 -0.17718759 0.09365539 0.79557574 -0.44783193 -0.47295076 -0.5943443 0.08787638 -0.13515224 -0.364369 -0.32909083 -0.19094637 0.19525714 0.59676737 0.0055175917 0.59525794 0.11282328 -0.2061673 -0.102000095 -0.2558483 0.118534066 -0.12198815 -0.07798955 -0.41434163 0.41716003 0.30592212 0.087192975 0.5204342 0.26459274
使 0.22805291 0.29378593 -0.78753096 0.45321986 -0.14116734 0.11408238 -0.06494438 0.6276677 0.58180416 -0.20118551 0.5223104 -0.28450197 -0.71089834 -0.38926208 0.43585104 -0.8423637 0.6666315 0.25389054 0.05074459 -0.19941561 0.6988604 0.19957882 0.06105632 0.12439382 0.23711999 -0.5062066 -0.2691288 -0.6287333 0.20228341 0.03915194 -0.18899582 -0.68279403 -0.394028 -0.052882317 0.61110336 0.23607774 0.38650906 -0.16843368 -0.0048161796 -0.08806271 -0.70722526 0.24607895 0.64878184 -0.3526789 0.7446555 0.5788543 -0.46209878 -0.36725056 0.40767547 0.60672706
大 0.21629915 0.60401386 -0.47826868 0.5750933 0.3331009 -0.49167702 0.3439589 0.4613478 0.9113204 -0.42561236 0.29787728 -0.001189403 -0.28442928 -0.09458512 -0.2942165 0.05573045 0.08501934 0.99594355 -0.07385589 0.17918639 -0.29572672 -0.17791404 0.29586363 0.58026546 0.81861293 -0.38475004 0.0002013507 0.1324198 -0.17379467 0.64740074 0.44551048 -0.28994277 0.009537544 -0.00032007677 -0.32142025 -0.29729745 0.42834553 0.043366265 -0.41415823 -0.5084317 -0.29313323 0.40051106 -0.27937517 -1.4331532 0.3664034 0.679537 0.058312718 0.055240165 -0.024327656 0.30653682
下 0.00612661 -0.25088975 -0.03415909 -0.18987185 -0.39443016 0.38840705 0.09366263 -0.024493972 1.0534782 -0.17836875 -0.2888633 0.040306542 -0.49835867 0.46652123 -0.008622854 -0.08468238 0.10651781 -0.1747606 -0.63087106 1.05607 0.33950967 0.2743279 -0.65785366 0.09267493 -0.048082817 -0.14645478 -0.20956084 0.09979759 1.3877491 -0.71107924 -0.62539315 -0.13705662 -0.1675303 -0.043220226 -0.5072034 -0.37110457 0.4282517 0.13746828 -0.09233238 -0.47627673 -0.48797408 -0.31482223 0.095025405 -0.5589284 -0.82342845 -0.016062832 -0.5082851 -0.36772382 0.21168879 0.5912638
贡 -0.17442082 -0.029617973 0.4685853 -0.23442096 -0.12980302 -0.23655514 -0.29336783 -0.22615178 1.2471292 -0.16258398 0.14067328 -0.5262028 0.36888987 -0.34239545 0.64312315 0.41661194 -0.4894088 0.023566537 0.42578027 0.21938096 0.31186947 -0.2794857 0.22453101 0.2621883 0.6779296 -0.29560313 0.62774867 0.037152242 0.5098373 -0.4683531 -0.6961206 -0.44225064 -0.26848087 -0.112427525 0.25954375 -0.13036929 0.2905734 -0.9743743 0.14402044 -0.7146328 -1.7310301 -0.068792395 -0.51566637 0.23793814 -0.17033808 0.50866294 -0.5685448 0.16750845 -0.120931156 0.84666353
欲 0.89372593 -0.5693629 0.15266101 0.19343506 -0.51461965 0.089581795 -0.27306405 0.1279925 0.9362896 -0.31636712 -0.100136675 0.23780634 0.52191454 -0.7558632 0.5796131 -0.29843757 0.3573651 -0.33115295 0.5620673 0.57824594 0.1457405 0.5001556 -0.058258615 -0.09937524 0.55801517 -0.1150766 0.28957963 -0.19534154 0.28338364 -0.5760525 -0.07801779 -0.23840697 -0.08362719 0.23787299 -0.6419473 -0.13891143 0.7639347 -0.04961776 0.1843474 0.44017512 -0.07463791 -0.13253486 -0.24024992 -0.6100647 -0.08032964 -0.17182235 -0.013667199 0.7267747 -0.22191444 0.37079498
诸 -0.26455748 0.123867564 0.12772349 -0.36548388 -0.20842719 -0.8487561 -0.50675654 0.46351215 1.156912 -0.051518474 -0.1032435 0.11545997 -0.14104988 0.113051936 0.49453902 -1.0055627 -0.36500332 -0.65833384 -0.3741061 0.30186293 -0.773719 0.36115754 0.4085582 -0.38952962 1.0320674 -0.15368803 -0.7323493 0.36703134 -0.28000095 -0.54355717 -0.19821498 0.16162814 0.17524117 0.122778155 -0.10850467 0.20187268 0.29554158 -0.05161186 0.2772576 -0.5653733 -1.2188512 -0.850087 0.13394898 -0.8232046 0.7589841 -0.34402183 0.90999115 -0.31463534 -0.26629102 -0.29438
从 -0.10303688 0.10787247 0.27425763 0.13993412 -0.5440341 -0.07126806 0.5253613 0.29235074 0.69018674 -0.26813528 -0.24521786 0.6379153 0.11956427 0.36016607 0.46844503 0.2590381 -0.009231277 0.3828636 -0.016198529 0.07359366 0.31266287 0.51621574 -1.0507206 0.51138645 0.43767264 -0.26555717 0.5161707 -0.3465408 0.7168901 0.40999138 0.011862687 -0.5635917 -0.16801275 -0.64269423 0.5842079 0.7511136 0.21781252 -0.62453675 0.28178555 0.25084418 -0.2945462 0.09008369 -0.12272822 -0.6589137 0.48029056 0.8237107 0.61787313 -0.540954 -0.53533864 0.2634687
文 -0.25411993 0.15413752 -0.8944524 -0.2547949 0.39992654 -0.16486777 -0.2099096 0.40786734 0.74223864 0.16696313 -0.04894218 0.36351353 -0.4922324 -0.15100534 0.345084 -0.5815438 0.60690284 0.107796356 0.3290054 0.6364246 0.41241992 -0.67042696 0.12197425 -0.42290753 0.10251885 0.9998999 0.12587035 0.1957308 0.784684 0.14633445 -0.25232154 0.36717448 -0.06674346 -0.71548367 0.07780702 -0.21806236 0.12306136 0.40786383 0.5377597 0.07303392 -0.5568336 -0.306694 0.23479915 -0.1150481 -0.5426292 0.035434514 -0.268937 -0.07775303 -0.9351304 0.62727594
政 0.12915105 0.08837255 -0.4226341 0.58160335 0.23803863 0.25032777 -0.727649 0.24163184 0.5958875 -0.5867312 -0.4944755 -0.4703472 -0.694119 0.5577058 0.2771314 -0.10437887 -0.25412345 -0.27569294 -0.6754871 0.79646796 0.6398285 0.19311072 0.073424 0.38124177 0.44452628 0.1953734 0.0655376 -0.38974985 0.38534948 0.02458762 -0.48072088 0.4138455 -0.29632494 -1.1130389 -0.3034077 -0.28973952 -0.46576044 0.44659898 0.2904878 0.21646327 -1.0927879 -0.19675994 0.031202154 -0.85940474 0.6044448 0.10857137 -0.21793674 -0.24277878 -0.40083778 0.40661684
食 -0.3312671 -0.33583876 -0.2634363 0.3905905 -0.8810942 -0.50893134 -0.1860618 0.7670295 0.6670841 0.18218389 0.43197972 -0.46015593 0.2279675 -0.59056574 0.2657749 0.067556195 -0.1694942 0.16190128 0.38352802 0.38490993 -0.097310714 0.24702929 -0.15799958 -0.59571 0.6072312 0.32878846 0.3937592 0.28572503 0.81139183 0.1259378 -0.27749428 -0.62348545 -0.2844554 -0.28644046 -0.045787934 0.8459371 0.28994834 -0.4391939 -0.71292466 0.30512273 0.037358098 -0.096496426 -0.92857087 -0.11285482 0.38275218 0.8404957 0.7005408 0.3617266 -0.4032685 0.6593017
善 -0.2671805 0.1292578 -0.2208242 0.03602756 -0.25946558 -0.0684421 0.4888629 0.61334145 0.49491832 -0.3476824 -0.696273 -0.04797607 0.69289345 -0.027377464 -0.25164434 -0.340606 0.0031711708 -0.040289078 -0.3448645 0.47811782 -0.08575642 0.58338016 -0.2842777 -0.16160078 0.6101613 0.2768162 -0.0052518705 -1.2861687 0.2688153 0.7446878 -1.0906136 0.031916857 -0.29915854 -0.11074077 -0.3487617 -0.6926844 0.6452262 -0.43654335 -0.32863435 0.25295612 -0.2654356 0.004465214 0.058893472 0.25308973 0.42264584 0.42871052 -0.5481701 0.61051255 -0.9966031 0.6225798
后 0.65185034 0.23317216 -0.094256096 -0.014500209 0.66106635 0.3809734 -0.14154099 0.3109627 0.8385661 -0.13539769 0.10802543 -0.76874655 0.058245808 0.50735897 -0.24079782 0.07613887 0.48174363 -0.37569293 -0.8186876 0.7352844 -0.36437485 0.033795975 0.01713757 0.9983841 0.61558414 -0.5221144 -0.4000917 0.1475869 1.1507246 0.31689736 -0.23371555 0.052774645 0.25343192 0.1783406 0.48595795 -0.0954545 -0.24128753 0.30099058 -0.37411377 0.57461077 -0.45028785 -0.34928775 -0.06292566 0.5291405 -0.1202685 0.5696587 0.86341506 0.30059576 -0.43697318 0.021310112
德 -0.7122966 0.19618061 -0.16738254 0.0052992296 0.16545457 -0.2560721 -0.14761098 0.5124036 0.58378905 0.06407094 -0.31385553 0.024107698 -0.6198368 0.5195007 0.6598391 -0.72964317 0.20296383 -0.34475997 -0.5166139 0.23770922 0.05192171 0.66203624 -0.6958972 -0.09588656 0.5230282 -0.10223148 -0.20945607 0.09281952 0.37583807 0.70616865 0.15811257 -0.27969015 0.71306753 -0.6695586 0.014167237 0.026866188 -0.008767169 -0.41957492 -0.43228003 0.43055376 -0.7643431 0.43503255 0.581733 -0.30312514 -0.097614676 -0.24920063 0.001775881 -0.46519467 0.119049214 0.363347
求 -0.11796547 0.69436455 -0.37022474 0.018093267 0.27236348 0.0035305503 0.17830108 -0.38855606 0.64921874 0.68010074 0.3269829 -0.4903478 0.2937726 0.48073328 0.63276565 0.21219651 0.008189107 0.5014471 0.5209284 0.38915744 0.4630778 0.6998733 -0.3950703 -0.5913334 0.21824096 0.15295377 -0.22011328 -0.18634512 0.5155532 -0.5277005 -0.9737231 -0.29225498 0.33307672 -0.16554719 -0.5447422 0.26630577 0.7182896 0.54140735 -0.16011018 0.35066932 -0.5142394 0.25318694 0.19959918 -0.8103365 0.34159204 0.64664817 0.40908763 -0.26047075 -0.15319836 0.5841905
对 0.2020921 0.4814029 0.048503593 0.013011844 -0.67248756 -0.5768413 -0.5704547 0.015004649 0.763168 -0.32123348 -0.33200788 0.3852932 0.08118013 -0.5207958 1.2566047 0.34782127 0.19732632 -0.14973755 0.30544052 0.39498568 0.26491126 0.71519274 0.028269436 0.19082285 1.4062622 0.16102247 0.32175365 0.20870487 0.1653942 -0.7707406 -0.22902054 -0.74171203 -0.7605112 0.38705075 -0.24930349 0.43095177 -0.0187791 -0.27271506 0.13180758 -0.010619298 -1.606744 0.13331647 -0.01614356 0.6051908 -0.17604497 0.37400475 0.8114316 0.1856531 -0.7727477 0.7705643
恶 0.63078266 -0.34355518 -0.0065674013 -0.19477835 -0.43684113 -0.2311589 0.2879012 0.36665872 0.8065109 0.89658725 -0.5130337 0.28864425 -0.2743202 0.2439242 0.36092106 0.24321423 -0.55160487 0.20817336 0.53855056 0.2037099 0.019963613 0.03468089 -0.28504148 -0.5829738 0.8377249 -0.38097203 -0.18575358 0.027206235 0.24654332 -0.087404065 -0.7757891 0.13713817 -0.5527073 0.13838756 -1.2782099 0.25253022 0.3663706 0.12776665 -0.3896376 0.3385627 -0.30263126 0.75120157 -0.9851484 -0.62217695 -0.22888015 0.4084034 -0.4712475 -0.39159936 -0.2650736 0.34701174
信 -0.73656654 0.3142958 0.17428413 0.32631215 -0.3511586 -0.06431027 -0.11904227 0.3585707 0.4278739 0.03153916 -0.38269815 -0.191979 -0.20818514 0.08084794 0.5810777 -0.39922383 -0.12981614 -0.933695 -0.2581079 0.4698454 -0.14327633 -0.25392792 -0.084374115 -0.004094611 0.5860293 0.5231628 0.13638029 -0.6873864 0.83604485 -0.2982424 -0.54524803 0.8204181 -0.09446382 -0.6006339 -0.5260539 0.24404109 0.08467768 -0.48586065 0.355559 0.449346 -0.46061045 0.30687737 -0.35829777 0.11156132 0.16386099 0.30563024 -0.6619361 -0.08461419 0.34313935 0.40345186
死 0.20673114 0.253575 -1.1275403 0.81131405 0.18906862 0.22407632 -0.35861135 -0.08940181 0.5195628 -0.21791045 -0.40948075 -0.27607602 0.6759261 0.31500077 0.4436958 -0.030710628 -0.15450363 0.18158369 -0.7207795 0.234371 0.12359649 0.090436704 -0.11435379 -0.38956368 0.6854011 -0.12235355 -0.2112429 -1.1187248 0.62517864 -0.1564071 -0.15551636 0.36181512 0.10468028 -0.46103832 -0.021525875 -0.082942955 0.2674904 0.07404709 0.3044347 0.86452866 -0.5236707 -0.6456537 -0.5668298 -0.1992754 -0.23180637 0.20744735 0.4944559 0.00069628266 -0.21731034 0.2759854
然 0.8596546 0.6517437 0.14754991 0.11816838 -0.20778584 -0.4502198 0.75269675 -0.23112646 0.52455187 0.1922876 -0.22617939 -0.51850754 -0.17438997 -0.456728 0.626384 0.7863126 0.01720375 0.38377506 -0.30829233 0.63178366 -0.02289658 -0.48684686 -0.24392806 0.022119485 0.61810654 -0.123082444 -0.123385385 0.17869902 0.35664487 -0.4269825 -0.61296666 -0.066642046 0.056095127 -0.29729292 -0.21309346 -0.5870698 0.15877755 -0.3035717 0.18513888 0.17924882 -0.79043335 -0.12000671 0.30827603 -0.5211973 0.63895047 -0.27509633 0.2760774 -0.022480331 -0.1811761 0.2827646
《 0.057540327 0.49735838 -0.20607193 -0.25206906 0.708701 -0.27845854 -0.2342048 0.14464973 0.780004 0.07772527 0.6037061 0.14515401 -0.30219063 -0.08094151 -0.6178706 0.032600157 0.07705904 -0.22301017 0.26711196 1.7085592 -0.32632425 0.21502946 0.30760002 -0.37168187 0.8604995 -0.07055071 1.1876776 -0.11000143 0.41250688 0.3637076 0.38651443 0.08594857 0.12644064 -0.13725725 -0.8691499 0.1367717 -0.31826952 -0.29214102 0.18440154 -0.5679679 -0.96660024 -0.0064011035 0.87658393 -0.54025906 0.05634905 0.06339374 0.29136735 -0.2747107 0.31127796 0.49406397
》 0.64564395 0.026117519 -0.26443622 -0.2750555 1.0412477 -0.16293164 0.25189784 0.0075198025 0.6284737 -0.049604926 0.5388702 -0.075108804 -0.3505055 -0.081855476 0.033980396 1.0168779 0.5296488 -0.39554316 -0.10987383 1.1237112 0.4219427 0.3331325 0.18187705 -0.16820554 0.28925985 -0.2158201 0.7179429 -0.8317048 0.12890327 -0.22515577 0.43756422 0.13030204 -0.30993196 0.08404333 -0.10574975 0.4504802 0.42279282 -0.15994945 0.59370494 0.10289756 -1.5140724 0.08558857 0.517303 -0.22596073 0.036297735 -0.04903699 0.32910785 -0.28871197 0.16167799 0.71569926
由 -0.083779685 -0.050965503 0.24361558 0.26965126 0.72123253 -0.5202734 0.96892726 1.0156493 0.725613 0.411283 0.016804522 0.7420853 0.5000173 -0.11338059 0.2717929 -0.24849847 0.19071613 -0.46930584 0.28206939 0.11782263 -0.18510984 0.5956217 -0.4430164 -0.792472 0.5289911 -0.14254875 0.025030317 -0.67084706 0.6886315 0.073496655 -0.08202639 -0.27209842 0.38531256 0.014714109 0.07448944 -0.2471719 0.5405968 -0.3233513 -0.36863318 0.8326225 -0.46299323 -0.70607 -0.098948605 -0.40428153 -0.20641086 0.08220023 0.18447761 -0.31847122 -0.92633057 0.32973045
仲 -0.3296492 0.38836253 0.12163645 0.13959493 -0.112509 -0.685565 -0.28992605 0.06772583 0.7138174 -0.44602802 -0.27610365 -0.4532377 -0.20321435 0.14597818 -0.33383486 0.3805863 0.21663283 0.59169286 0.85264087 1.2780942 -0.124753684 0.527161 0.21510088 -0.1947854 0.9116732 0.84020776 -0.16145816 -0.57555026 0.35853347 1.0272156 -0.07965926 0.15956803 0.5822043 0.23973106 0.8792452 0.23591119 0.33731788 -0.34889057 0.4810678 0.054422595 -0.22107822 0.047179863 0.34904033 -0.731193 -0.4494168 0.2533192 0.4254091 -0.10575117 -0.4194877 0.8976049
非 0.23996325 0.715338 0.32582426 -0.21055184 0.66249895 -0.21990834 -0.045398615 0.8515798 0.6463617 0.6271647 0.07865586 0.43752855 0.1027008 0.04949069 0.28107384 -0.5132344 -0.31849596 0.14745787 -0.4498362 0.97832036 -0.49914134 0.1847016 -0.39586595 -0.4068837 0.7587621 0.6176996 0.22260045 -0.06595881 0.09083285 -0.5392993 -0.11277016 0.33022067 0.24049887 -0.95827454 -0.17704888 0.28347898 0.37820092 0.26184237 0.04399991 -0.7351788 -0.5392564 -0.67396486 0.30401355 -0.6284914 0.11093849 0.013473932 -0.19385017 0.7073242 -0.54079 -0.2773689
出 -0.40012842 0.26947567 -0.24130033 -0.26858577 0.20424066 -0.49055603 0.25056463 0.0027837064 0.5599092 0.12036903 -0.3285889 0.17614138 0.41849017 -1.2483766 0.54108834 0.31728885 0.3779803 -0.6096356 0.29203823 0.2967941 0.93395317 0.3531936 -0.07391793 -0.686183 0.67574286 0.32115585 0.037062436 -0.033812433 0.27608022 0.25389886 0.079967305 0.115494795 -0.33602428 -0.86310494 -0.29330623 -0.32670543 0.24796359 0.47797203 0.5844839 0.44771728 -0.7754199 0.11347407 -0.43052807 -0.28642517 -0.15987688 0.24481268 0.19610806 -0.4206932 0.044049695 0.46541584
过 0.16509637 -0.4685944 0.113930546 0.26172343 0.27338102 -0.59382993 0.2441064 0.5248216 0.6577435 0.07802494 -0.58229584 0.51253074 0.1147031 0.4981972 0.5525408 -0.3428242 0.69620657 0.017376088 -0.012218767 0.35284093 0.4988266 0.25202346 -0.87315184 -0.09571315 0.6131618 -0.14545621 -0.10795917 -0.19495127 0.45701846 0.052275006 0.07447709 0.5527158 -0.7062887 0.40070388 -0.5233768 -0.15124068 -0.4010373 0.9202752 -0.2735422 0.10089632 -1.2883216 -0.35130802 0.06124695 -0.13702437 -0.06942638 -0.017898683 -0.11412553 -0.28922582 0.027235564 0.6990721
一 -0.16892809 -0.1563778 0.1689757 0.5570256 0.07591844 -0.5244927 0.049760602 0.19480444 0.8422033 0.54030645 0.07831792 0.7619065 -0.30155784 0.442569 0.27009892 -0.0057363063 -0.5465135 -0.11874093 -0.33033037 0.60952985 -0.63218904 -1.2735647 0.6397385 0.4077708 0.518678 -0.41783464 -0.06432708 -0.17257433 0.20886013 1.1566713 -0.70273376 0.14204733 -0.46312258 -0.62031204 -0.6234834 0.13881801 -0.35866275 -0.1367855 0.8878465 0.009886945 -0.57975566 -0.22639473 -0.31974012 -0.11245505 -0.28603053 0.70400834 -0.024935598 0.021757867 0.079471074 0.30892682
虽 -0.89315677 -0.09249516 -0.46268156 -0.2277442 -0.101021476 -0.75721943 -0.2577946 0.79569244 0.77969915 0.05374923 -0.51214105 -0.93855166 0.5506608 0.5335168 0.37821335 1.3916968 -0.42731935 -0.2773638 0.5446521 0.7422724 0.04127889 -0.269046 0.21809918 -0.820089 0.9081687 -0.10485312 0.19930515 0.2905214 0.0412854 0.00857364 -0.041377954 -0.09106257 -0.24085401 0.28279212 0.74316937 -0.19292204 0.77153367 -0.27409908 -0.84518087 0.22705905 -0.5713195 -0.112048484 -0.3935935 -0.32608414 0.4082751 0.40301305 -0.8651077 -0.6335865 0.26576966 0.74783415
足 0.39770874 -0.43254185 0.19289804 -0.40741864 -0.052176833 -0.01705064 0.14007953 0.12939122 0.9531951 0.23297141 0.5116002 0.35595697 -0.28318867 0.6718802 0.13034576 -0.6469244 -0.4644885 -0.08993818 0.5379242 0.23903243 0.5789222 0.4540971 -0.40268183 0.37756282 1.1820687 0.28727913 0.2526105 -0.4857295 0.4475925 0.42559484 -0.11033079 0.5848734 -0.38021085 -0.08782208 -0.064413145 -0.35325205 0.3447919 -0.2151108 0.042933036 0.47263268 -0.54804987 0.034067918 0.4057671 -0.7374842 0.1198186 -0.21806543 -0.14397883 0.51515305 0.40972874 0.16860868
居 0.17136748 -0.25571254 0.16767679 0.9025352 -0.88018435 -0.124248534 -0.7324626 0.15642972 0.6508183 -0.2847282 0.24250485 0.056971364 0.56411225 -0.80290085 0.16500339 0.26119402 0.06861004 -0.5588078 -0.20472738 0.79547745 -1.269954 -0.20437853 0.15656354 0.3833029 0.95697033 0.17356943 0.36576524 0.15427381 0.085702136 0.22179298 -0.65794253 0.5848904 0.60611635 -0.60291237 0.40913084 -0.576789 0.4952128 0.092241324 0.33084783 0.29866046 -0.31260842 0.21480569 0.09020373 -0.8574801 -0.30698544 0.11887057 -0.21719773 0.46701282 0.46982577 0.79246545
尔 -0.44527385 -0.5362946 0.2701433 -0.96975625 0.22346471 0.11540919 0.5005569 0.82329977 0.48517358 -0.36612186 0.20420371 0.27761576 0.42825794 -0.20065781 -0.056437593 -0.4202844 -0.39907286 1.0815341 -1.064861 0.7007104 0.09424446 -1.0664493 0.300998 0.025841715 0.17142889 -0.31386825 0.14331803 0.05055371 0.3322344 -0.19357584 0.27630478 0.3470131 0.45493442 0.37200296 0.0716265 0.4661871 -0.08180621 -0.28636593 -0.5583773 1.0366237 -1.2332159 0.19085534 0.4706252 0.81503344 -0.0005829152 0.45175087 -0.10408333 0.07906476 0.2520651 0.74345654
夏 0.4632489 0.31930012 -0.31786042 0.27370372 0.41834632 0.038470488 -0.3856917 0.011362068 0.97058666 -0.12688203 0.5098837 -0.63200283 0.10144497 -0.08159199 -0.06162534 0.6350065 0.48261228 -0.0744638 0.6058426 0.8580273 -0.17164797 -0.16496967 0.0044947006 0.4088708 0.39005658 -0.15922923 0.5494766 -0.28112248 0.4631058 -0.56257796 -0.8652789 -0.39963776 0.5827582 -0.41775787 -0.064547576 0.10732245 -0.37294015 -0.06750403 -0.17058055 -0.6082112 -0.4528789 -0.5430255 0.16040377 0.29372644 -0.33188638 0.54977566 0.73844504 -0.58085173 -0.6107509 1.080367
父 -0.5420623 -0.7749836 -0.6400269 0.08878769 0.18998116 0.2164724 -0.008039278 -0.1376769 0.81238574 -0.96069515 0.11038986 -0.18042217 -0.24953696 0.26536706 0.081275865 -0.11602785 0.7906407 0.029529063 0.4708664 1.4378312 0.22551908 -0.08562616 0.0048676017 -0.52966714 0.6951978 -0.04972628 0.6044427 -0.35991028 0.595311 1.0824057 -0.077611454 -0.35270482 0.50409126 0.36582342 -0.040195778 -0.22565922 0.005843614 0.75928795 -0.11291215 0.85173255 -0.3698243 -0.7525138 -0.114889964 -0.3611552 0.9747784 0.27262864 0.15293938 0.14251891 -0.6335394 0.3277832
及 0.48763657 -0.50378996 -0.67742056 0.5362102 0.5191742 -0.28502616 0.42037296 -0.074237436 1.1118445 0.044252325 -0.2797031 -0.7396575 0.0060223266 -0.71330756 0.42613798 0.4330014 0.24373266 -0.41258433 0.25754878 0.1352506 0.2681233 -0.19169214 -0.60785544 -0.8224154 0.3670234 0.49894857 -0.7166834 -0.21206951 0.33643448 0.2504982 -0.14492299 0.5954319 0.044248763 0.3247946 0.42131376 -0.1927619 -0.11085427 -0.35405344 0.36771876 1.0189177 -1.0415571 0.3421172 0.42071697 -0.53020704 -0.45742658 0.122059174 -0.3195105 -0.3951691 -0.12754586 0.21449603
己 -0.19516419 -1.1102506 -0.3636429 0.21568914 -0.015031628 0.73666674 -0.46780953 0.54924154 1.0039346 -0.3625424 0.45959345 -0.44978705 -0.082308024 0.43448058 0.33722332 -0.51382333 -0.89055544 0.8256493 -0.5705345 0.2528699 0.016742434 0.7016916 0.38057172 -0.8958299 0.5445131 0.109056346 -0.06283071 0.24512954 0.17193413 -0.37393638 -0.39463142 0.1533166 -0.0076340544 -0.5845187 0.57695013 -0.3354669 0.4635663 -0.3750795 -0.60573864 0.65903306 -0.99522215 -0.85567224 0.96903706 0.13998757 -0.55568105 0.5366504 -0.6073601 -0.27302286 0.2786863 0.2649033
予 -0.13907047 -0.60280085 -0.39480293 -0.390787 0.2888649 -0.46841732 -0.33922285 0.27040762 0.67458105 0.06283243 -0.06651003 0.26153284 -0.012747453 0.4364515 0.47727424 -0.516296 0.42867324 0.48530656 -1.0562899 0.16177824 0.6076332 0.06371091 0.0692065 -0.23624311 0.3199242 0.2679939 0.34504414 -0.03618802 -0.09853403 0.047319498 -0.23538394 0.5033369 0.035058044 0.36173147 0.15697615 -0.50167257 0.68538153 0.28795764 -0.8905854 0.23073246 -0.59578454 -0.20424557 0.58142775 0.08014819 0.5652263 0.8334992 0.54697305 0.06777019 -0.09202077 0.90992755
色 0.80670154 0.040078286 -0.37840044 0.3575751 0.90995175 -0.3775568 -0.40159562 0.5141164 0.8762542 0.42011333 0.43703222 0.51594967 0.9548497 0.31486255 1.2015631 0.26130834 0.32412085 0.2801568 -0.5818038 0.38302284 -0.52496743 0.8801043 0.21500526 -0.6855775 1.0262107 -0.15935022 1.0686954 0.11071954 1.058569 0.5125228 0.3537399 0.36018866 0.26920244 -0.31792706 0.021476937 -0.42226776 0.36373165 0.2803869 -0.67817587 0.2690319 -0.61552143 0.16403624 -1.0539417 0.61892337 0.07987952 0.044181257 -0.047946826 -0.35310665 0.27261195 -0.7782766
友 0.25443503 0.27935526 0.28573704 0.29302377 -0.20644198 -0.40517133 -0.19916332 0.95014334 0.6785804 -0.20232835 -0.7402774 -0.38996 0.5850652 0.043642588 0.6974772 -0.5534665 0.4189152 -0.6043945 0.2167655 0.62907606 -0.5252547 0.6450453 -0.3318895 0.58866274 0.707872 0.8234176 0.41519967 -0.9561132 0.13262776 -0.2315367 0.36944392 0.008559382 0.13536985 -0.6127931 0.49522483 -0.22171833 -0.20951824 -0.6707483 -0.03586911 0.23553196 -0.5606761 -0.0053332224 -0.6915146 -0.2304757 -0.39510536 0.58937436 0.3519865 -0.09595427 -0.053810176 0.1447493
成 -0.1887117 -0.029425986 -0.39470935 -0.073702276 0.04504933 0.0989681 -0.84278727 -0.63615197 0.642416 -0.56240386 0.26228708 0.4204312 0.32170397 -0.29120916 0.06000562 0.18463519 -0.6850985 -0.0060391524 0.0037225827 0.35794467 0.9336892 0.047283355 0.016483685 0.08728681 0.44782898 -0.42682174 0.10985451 -0.049320146 0.23738658 0.079334915 -0.53767824 0.320925 -0.779074 -0.16463996 0.11468333 0.09823785 0.15508139 0.8342861 -0.3303003 0.459977 -0.3648562 -0.2658005 -0.19460365 -0.10698312 -0.30611125 1.2889438 -0.23034923 -0.28487653 -1.763923 0.83603173
远 0.31729755 0.011700794 1.058804 0.37054947 -0.014939288 0.2383882 0.044294734 0.6719348 0.8580609 0.02327406 0.0052693095 0.4293541 -0.41557482 -0.18351668 -0.6526619 -0.09347938 -0.011066852 0.201793 -0.12232024 0.15051368 0.502832 -0.23163301 0.028260402 1.1460781 0.19118871 -0.48905185 0.0075967535 -0.65077084 0.1421816 0.17259619 -0.33140603 0.2983186 0.30585042 0.0029157577 -0.17532808 -0.19397238 -0.3033681 0.11119382 -0.50241816 0.8851825 -0.663033 0.013054634 -0.7732346 -1.1798393 -0.119065635 -0.1250884 0.33489498 0.2941101 -0.22482689 0.3799066
上 -0.15588455 -0.16390578 -0.16292016 0.24237545 -0.40518975 0.78151137 0.02729205 0.09071717 0.65081805 -0.10452429 0.14739504 0.5514218 0.23585528 0.4521071 0.58617806 0.575318 0.30089214 0.27923557 -0.01872481 0.28349784 0.28114808 0.92230797 -0.040674504 -0.5220115 0.1278393 -0.4972124 0.015144033 -0.563985 0.4728254 0.826961 0.24828723 0.625814 -0.34408677 -0.1278328 -0.31775552 -0.04472382 0.02048352 0.20806584 -0.082390234 -0.23662986 -1.2173595 0.17113777 -0.06016283 0.02936165 0.41127637 0.69634384 -0.059145816 0.23451906 -0.0050080786 0.83185285
立 -0.16606303 -0.14707166 -0.004959846 -0.23123488 -0.1486031 0.028728368 -0.42220932 0.586942 0.5735814 0.43212855 0.36128265 0.04308972 -0.7271391 -0.66237736 -0.10885031 -0.06932033 -0.6714639 -0.04043732 -0.59790456 0.14195023 0.7158351 -0.39579964 -0.12334115 -0.9423199 0.0967818 -0.34034884 0.8053599 0.38694373 0.84701294 0.58676153 0.14182663 0.3129347 -0.08927157 0.29484183 0.08434287 -0.05180839 -0.058171783 0.30440044 -0.06060018 0.5174044 -1.1882418 -0.1793989 0.62149 -0.9203714 -0.09826595 0.5828831 0.49058715 0.31864697 -0.27371922 0.07916212
今 0.52557236 0.33647156 0.7423036 0.62011933 -0.46557036 -0.044845816 0.19347225 0.7803667 0.499219 -0.7310618 -0.44236052 -0.10704369 0.044013582 -0.026343366 0.69822913 -0.02085839 0.5960981 0.07380181 -0.058686864 1.2274164 -0.5044515 0.5981063 -0.44260973 -0.90218776 0.1432097 -0.01434739 0.28337985 0.43196803 0.5096991 0.37941307 -0.53615344 -0.31134155 -0.27402854 -0.15384242 0.76761997 0.08087641 0.0831277 0.103089444 -0.926999 0.07812827 -0.8627897 -0.3632039 0.006906511 -0.70013493 -0.3874832 1.0985553 -0.23278648 0.25220746 0.39384353 0.8171473
张 0.43241176 0.23116967 -0.82950807 -0.08599905 -0.18377665 0.4187401 -0.41183567 0.3092637 1.3704664 0.019747576 -0.09452364 -0.7435998 0.13174184 0.45727223 0.06081352 -0.18539639 0.10277704 -0.34447724 0.55983776 0.6499084 0.2994855 0.15242231 0.57651806 0.09325153 -0.030772649 -0.05122425 1.0591227 -0.34817016 0.5762815 -0.29905242 -0.33798498 0.14272748 -0.28918058 -0.09167361 -0.104823284 -0.3178599 0.5075145 -0.6105736 0.7184825 -0.86101496 -1.256746 -0.060223237 -0.2656279 0.015772251 -0.27906984 -0.009189273 0.22149163 0.2313856 -0.15280071 1.0452126
中 0.4332495 0.17224538 0.03789369 0.23816797 -0.1910771 -0.6358758 0.42633393 -0.065683044 0.96178985 -0.17390394 -0.65577006 -0.3985251 -0.4814579 -0.44582993 0.6307211 0.37053823 -0.23131342 -0.7750268 0.050718933 0.9320056 -0.49283305 0.004261569 0.30775195 -0.32899287 0.5813359 0.048520267 -1.0221049 -0.7606193 0.677471 0.6663931 -1.1463901 -0.13301004 0.11088763 0.24680203 0.26087603 -0.42111576 -0.80626285 0.47675475 -0.32141688 0.427848 -0.3437182 -0.14965212 -0.4161609 -0.38639668 0.6273425 0.46363792 -0.80361086 -0.5811571 0.06952917 0.31173345
季 0.058805868 0.28696358 -0.23556216 -0.9011883 -0.019594433 -0.35903624 -0.43784392 0.34625953 0.5836739 -0.19841294 0.27908477 -0.10801595 -0.6157493 0.10503481 0.14622654 -0.05504368 0.2561452 0.08632311 0.45411125 0.5803862 -0.32026517 0.27701962 0.7281336 0.41601855 0.59902185 0.4888348 0.37334254 -0.81210697 0.6656777 0.35097742 0.40555683 -1.0343469 0.36676478 -0.47109276 0.3964412 -0.029090144 -0.42168158 -0.10323647 -0.22778077 0.011202286 -1.4523802 -0.22595242 -0.02268545 -0.19599798 0.1399361 0.15667543 0.41196015 -0.26467696 -0.016607068 0.8453062
臣 -0.48842135 -0.2447657 0.5320983 0.048489466 -0.07807397 0.47031683 0.027848756 0.76620126 1.0196698 0.03016072 0.2736724 -0.46409002 -0.791205 0.716396 -0.052094784 -0.21247397 0.35044906 -0.04941585 -0.049632393 0.5626856 0.77220994 0.19138761 -0.52411973 0.82134545 0.15652403 -0.12097979 -0.42282963 -0.6675664 0.82225484 0.6668692 0.3570148 -0.0024608949 -0.04487671 0.26115102 0.2388432 -0.16817921 0.17674401 0.28557727 -0.5745301 0.6341388 -0.5093011 -0.08188814 -0.60968536 -0.25248766 0.093125194 0.12551866 0.18432942 -0.652342 0.5424945 0.4528689
贤 0.03191507 0.23005077 0.0055881334 0.15546972 -0.5874572 0.6083465 0.20097478 0.47608712 0.63735145 -0.7282611 -0.3528516 0.48649383 0.46987054 -0.10404201 -0.40632552 -0.49818546 0.6767487 -1.1424272 -0.472532 -0.09515131 0.09403529 -0.12962924 -0.1361045 -0.43541688 0.58730495 -0.7321533 0.63635015 -0.16823246 0.5803167 0.55682814 0.8965779 -0.24839534 -0.4004152 0.3875646 -0.010097597 -0.27185795 0.20266612 -0.081197314 -0.08979538 0.7619316 -1.0518161 -0.22971497 0.09294474 0.3570556 0.08931521 0.7581243 -0.2292276 0.20264606 -0.60561216 1.4823968
思 0.40403736 -0.1681588 0.56744266 0.22591053 0.3337185 -0.32840708 -0.77651644 -0.14071316 0.8923683 -0.0834214 0.56470704 -0.8632869 0.21892533 0.33917388 0.64020896 -0.40644366 -0.18552941 0.0970569 -0.270972 0.41909596 -0.40540987 -0.94966906 -0.49618825 0.39147145 0.9831947 0.95183444 0.81213754 0.11054192 0.12482976 0.26371086 -0.3325119 0.31653354 -0.8692445 -0.06661496 -1.2449305 -0.3299189 0.33008808 0.5562166 0.7665442 0.67140245 0.13065419 0.22162133 -0.17648269 0.14493123 0.033473864 0.6121946 -0.25554103 0.050176855 0.25856385 0.102530956
齐 -0.05625955 0.4735031 -0.35117096 -0.8112934 -0.34501418 -0.84065217 -0.5134098 0.70714986 0.6425245 0.23252204 0.03081262 0.19013253 -0.16511646 -0.23831923 -0.5722336 -0.4767548 1.1729286 -0.5795257 0.6971389 0.4472305 -0.19915697 -0.64147544 0.8193824 -0.2795862 0.31437054 0.33712786 0.59159285 -0.40464357 0.4784883 0.4903166 -0.4777122 0.23865482 -0.019836567 0.30881286 0.839192 0.27498084 -0.024556832 0.7471849 -0.94156504 1.2355111 -1.244117 -0.2804561 -0.24423032 0.45251954 0.77408135 -0.20466341 0.47869354 0.34432834 0.25619233 0.4506377
义 0.20834197 -0.3687954 -0.25324586 0.44037458 0.2838892 0.00039710794 -0.99804366 0.108781695 0.70837414 0.19811936 -0.3537663 0.102892146 -0.2784223 -0.46935228 0.43020907 -0.04172755 -0.031889446 -0.42908075 0.13783886 0.68655175 0.09853268 -0.010890333 -0.1854798 -0.005497395 0.21475226 0.18701014 0.18024057 0.20803295 0.89917654 0.6964902 -0.22430034 0.70763695 -0.17100501 -0.290187 -0.44427308 0.5625657 0.4679546 -0.55487233 -0.5280996 0.49206135 -0.3059523 0.05274429 0.09117453 0.40791258 -0.6248524 0.98767024 0.93897915 -0.32398626 -0.255124 0.25996295
正 0.4130929 0.36396217 -0.3533455 -0.48672947 -0.3078361 -0.82379293 0.103854075 0.18468207 0.6614407 -0.381776 0.13688883 -0.0009099387 -0.66392154 -0.27042323 1.5354301 -0.074110664 0.2748357 -0.01611464 0.23425889 -0.14244425 0.13454138 0.007250742 0.39361665 -0.2877861 0.82728606 -0.6022688 -0.38737202 0.44740024 0.18108127 -0.28978005 -0.93535405 0.7243983 -0.1568797 -0.17961803 0.403045 0.1467313 -0.017633453 0.27657068 0.06825807 0.85139734 -0.59665644 -0.47075024 0.27046275 0.38225645 0.7617416 0.19328603 -0.80140054 0.45356926 0.11901695 0.2373645
命 0.39643794 -0.4901924 -0.040118545 -0.020334464 0.6870933 -0.036194813 0.2465956 -0.15703754 0.8565235 0.6699708 -1.0416348 -0.28817832 -0.52322495 0.2006813 0.36330456 -0.5819903 0.6251074 0.3039972 -0.6576603 0.6208536 0.53766704 0.88735306 -0.34198114 0.1712605 0.20633867 -0.42067996 -0.10423685 -0.38732252 -0.19015566 -0.20235159 -0.6593032 0.34909356 -0.3696911 0.11646423 0.2989348 -0.5223636 0.40946203 0.117757775 -0.6540185 0.28585988 -1.4475415 -0.058118127 0.31588882 0.114934616 -0.21872476 0.25689656 0.47036657 -0.8413411 0.35267088 0.27993113
曾 0.40146658 -0.029290052 -0.06132603 1.1852484e-05 -0.5508334 -0.16675499 -0.51690894 0.64376915 0.61767924 -0.6994786 0.64237654 0.040620364 0.105651304 -0.25350136 0.021776028 -0.87631416 0.51759297 0.04212028 0.708719 0.0638788 0.07495923 -0.6645595 1.1111056 0.23976153 0.21734278 0.16874371 0.42553473 -0.4903303 0.3637525 0.3533434 -0.38948068 -0.2519814 -0.20290197 -0.18983114 0.46301317 0.2557624 0.12502506 -0.40826187 0.09702274 0.03258264 -2.0448241 -0.57770526 -0.11849863 -0.4954731 -0.9118792 0.17515598 0.027292894 0.24560104 0.5334649 1.2232803
伯 0.4575312 0.8789514 -0.02928146 -0.5297787 -0.11617534 -0.62281007 0.34923068 -0.352176 0.70312595 -0.42305845 0.83322096 0.5699046 -0.25571913 0.13613279 0.3688331 -0.2998578 0.7429727 0.22473 0.08111402 0.8950312 0.011180866 0.43134376 0.5959442 0.7295883 0.67234933 0.14916341 0.6265537 0.1766219 0.81795275 0.6724269 0.27481464 0.9203085 -0.49110392 -0.8326831 0.41579732 -0.76248366 -0.42017642 0.66325027 0.37403607 -0.2733017 -1.433817 -0.43909627 0.11350664 0.3840714 0.18377629 0.41137964 -0.20873399 -0.39875427 0.4842321 0.31912202
门 0.009364347 0.05468161 0.5428168 0.41754755 -0.07171235 -0.8315671 -0.6542587 0.48076645 0.5705619 0.5946612 -0.08938052 -0.070775986 -0.99844265 -0.29758614 -0.3276591 0.09968065 0.3540672 -0.49354374 -0.2590839 0.41035587 0.43831193 1.0363145 -0.30112195 -0.20186631 0.5135479 -0.3744526 -0.5274904 0.30088267 0.28979972 0.07027239 -0.8513614 -0.6990939 -0.61640555 -0.30198893 0.2471725 -0.09147549 -0.06202974 -0.1971566 0.5303832 0.21385534 -1.5530691 -0.42689025 -0.19206583 -0.363772 0.19302832 0.2574912 -0.32124338 0.4793524 -0.47041643 -0.15184861
敢 1.0297372 1.0765702 0.4769682 -0.27870515 -0.040526107 0.68713725 -0.028173275 -0.033488773 0.94260967 -0.71076757 0.2378979 0.3689391 0.89352125 0.65414983 0.8724268 -0.41825458 -0.24234253 0.13737576 -0.16479973 0.6362533 0.34527212 -0.0036785256 0.1214536 0.2314546 1.4709162 -0.28199676 -0.13637498 -0.44327083 0.47744283 -0.9207004 -0.73348457 -0.3503141 0.17343222 -0.33930126 0.36216357 -0.66212887 0.20908481 -0.41303793 -0.43121967 0.719725 -0.20565014 0.2038564 -0.1687826 0.17373371 0.22757049 0.6244459 0.5206515 0.1981364 0.35897854 0.19647115
犹 -0.020756409 -0.54211366 -0.30986363 0.6981631 0.6376463 -0.31731778 -0.289547 0.459512 0.897934 -0.8210973 -0.20018189 0.11733204 -1.0027792 -0.7334686 -0.29678243 0.40291482 0.014453722 -0.46080765 0.1095715 -0.31650698 0.52508444 -0.3565647 0.030085824 -0.73081875 1.2453921 0.22147003 0.54973286 -0.54455453 0.44886467 -0.06808895 -0.64987016 -0.8214205 -0.13389254 0.6754918 0.121992126 0.20654906 0.22923432 -0.3745573 0.73518586 -0.07770173 -0.19931829 0.20017579 -0.38929838 -0.7391947 0.20789589 0.71442956 -0.5610484 0.046989508 -0.6938187 -0.18985203
生 -0.60448164 0.3615321 -0.07276978 -0.5779609 1.0683576 -0.15458263 0.7205573 0.30950773 0.60548913 -0.38714647 -0.6357266 -0.7867278 0.011705959 -0.61944795 -0.092904836 -0.51595837 0.6304088 0.13948819 0.27777314 0.12215025 -0.29511625 -0.48344558 -0.36841655 -0.31226355 0.22183657 -0.19165245 -0.49906445 -0.7934634 0.6117423 -0.47111574 -1.1450771 -0.03890108 0.36117572 -0.34856498 0.26148373 0.12398663 0.24780424 -0.098592624 0.37404868 0.13838807 -0.5142818 0.001096578 0.12282361 -0.4298242 -0.1342634 0.63262105 0.7371255 -0.2066809 0.018292472 0.060036182
日 -0.1939012 -0.45527625 0.7595461 0.68366194 0.39891714 -0.0014131726 -0.6727985 0.6417666 0.9144926 0.20943147 1.261359 0.11405152 0.04020424 -0.7310292 0.65197927 0.38629073 0.8496473 -0.3310661 -0.69093776 0.009409737 0.36500677 -0.022183051 0.39166665 -0.5361807 1.3065752 0.29828537 0.1304064 0.023279129 -0.3771866 -0.22902873 0.22330086 0.35993302 -0.48168784 -0.9066794 0.97187763 0.08915927 0.4225426 -0.09143505 -0.5457317 0.29119086 -0.5235359 0.36599317 0.21014158 -0.16125858 0.11731309 0.56293666 0.24290702 -0.5756291 0.45759562 0.48472223
敬 -0.22837476 -0.25546196 0.20945333 0.03139057 -0.10138456 0.2737375 -0.22241688 0.73759633 0.63590854 -0.6520949 0.5248229 -1.0954571 0.37144393 -0.46142447 1.0315491 -0.28581315 -0.120384365 -0.45585456 0.8411197 0.9609126 0.8427647 0.032288183 0.20839235 0.5751575 0.21388328 -0.3018648 0.9131894 -0.32436416 0.61706644 0.7345141 0.07372572 0.50775164 -0.43757755 -0.01356413 -0.40011737 0.26464418 0.31049374 -0.43266833 0.8419946 0.26490992 0.012984659 -0.30863586 -0.40172562 -0.29806307 -0.50313723 0.66724914 -0.14423575 0.3991154 -0.80462575 0.10891353
难 -0.47946894 0.17461234 0.7500069 -0.12479349 0.5627503 0.8698707 -1.2922543 -0.06244636 0.80140936 0.584838 -0.40358603 -0.22696318 -0.037438538 0.2796026 0.40121993 -0.22360972 0.41319352 -0.071677536 -0.15723014 0.28850296 0.84209234 -1.0488515 0.3753636 0.2620573 -0.45612642 -0.37244093 0.25309038 -0.5283907 0.7100266 -0.028525995 -0.39467093 0.439475 -0.042745173 0.662469 -0.22480978 0.68673396 0.25431928 0.0430365 -0.13817856 0.89496243 -1.357102 0.41015658 -0.5011672 -0.17843129 0.22777455 0.55687183 -0.34528998 0.02116574 0.13238169 0.052002706
直 -0.9551324 0.2299219 -0.7220097 -0.8270367 0.17375988 0.21930762 0.029810399 1.230018 0.4061674 -0.17028695 -0.4161686 -0.427725 -0.6003453 0.47603196 0.42506397 -0.5369648 -0.2832599 0.2320773 -0.6933157 0.48303375 -0.07000233 0.31873628 0.077955484 -0.73474914 0.67721057 -0.12501441 0.17093326 -0.69233763 0.69335854 0.4293391 0.036720894 0.25330633 -0.3133612 -0.36807585 -0.6229762 -0.15898427 -0.17484014 0.089895956 -0.41834936 0.12863578 -0.60371494 0.2803374 -0.41621134 -0.45793167 -0.2351129 -0.033455994 -0.051699445 -0.25218797 -0.61756206 0.40477714
丧 0.092433 -0.8475949 -0.5481205 0.24203876 0.19101772 0.032539133 -0.07265394 0.28188336 0.44874778 0.26658553 -0.40792894 0.15888184 -0.19277364 0.12896149 0.24645397 -0.8754268 -0.100463785 0.24351007 -0.61315316 0.6629727 0.29964855 -0.909147 -0.4931113 0.08947698 1.0854263 0.24068148 0.96827173 -0.48728684 0.45011777 -0.5618639 0.07106663 0.34829432 -0.6105548 -0.063843094 -0.91412884 -0.22635283 0.369166 -0.6457708 0.4315968 0.71519357 -0.0218606 -0.21905313 -0.55783963 -1.007888 -0.18615022 0.06252682 0.5407976 -0.23150809 -1.0787523 0.07661612
说 0.52648854 0.33844975 -0.20328419 0.34397805 0.36887226 0.7138974 -0.6605782 0.19087903 0.8138021 0.3829912 -0.052572526 -0.10423645 -0.15802799 -0.5374063 0.3687765 -0.5568033 -0.43362504 -0.8122188 0.6363093 0.09299576 0.5273398 -0.3236291 -0.5158946 -0.058603406 0.40473154 -0.82645106 0.5069124 -0.5716532 0.8657069 0.5464155 -0.5516533 0.018777382 -0.12069393 -0.4989453 -0.50803053 0.14465193 -0.08843386 0.07586874 -0.4317644 0.5212563 -0.8747941 -0.016161172 -0.44122759 -0.12513077 0.384826 0.17223908 -0.4919486 -0.019672478 0.2619354 0.15871677
自 -0.061544593 -0.7181363 -0.33354577 -0.42139155 -0.4078786 0.48932213 0.6606193 0.042814888 0.604524 -0.79316366 -0.462893 -0.67140883 0.4342007 -0.168306 0.70889735 -0.03303081 0.23763537 0.68888026 -0.36312693 0.09990091 -0.68981445 0.05955806 0.72066796 -0.13322079 0.50993395 0.48648545 0.58153903 -0.43639812 0.21344788 -0.3891242 -0.574665 -0.638996 -0.4636694 0.7807958 0.44254962 0.22984096 -0.34805453 0.31915206 -0.42430514 -0.41843385 -0.9605401 0.30165496 0.0022166406 -0.6963349 -0.21962844 0.57217467 -0.44517267 -0.41518486 -0.5347205 0.51652366
用 -0.072164156 0.4292488 0.4381943 -0.30467936 0.02371053 -0.1153372 -0.29860228 0.63351995 1.3622388 -0.6892919 -0.61208546 0.6252909 -0.101204894 0.5283826 0.007571521 0.47179517 0.11442539 -0.43164912 -0.34887436 -0.31227362 0.46346816 -0.70996815 -0.49794295 -0.102134906 1.2845862 -0.5908858 -0.10676666 0.4023439 0.13902168 -0.45917445 -0.78026617 0.9347746 0.52059263 -0.25934583 0.7703111 0.37642956 -0.62766886 0.37506044 -0.23644558 0.46945706 0.19597925 -0.5276634 0.110675305 -0.10770519 -0.34342644 0.08343745 -0.5644996 0.30802009 0.12054759 0.9887629
周 0.09875049 -0.117977895 -0.52450466 -0.41537958 -0.0003262675 0.17450696 -0.4765549 0.40409923 0.74078196 0.48103228 0.17909613 0.52582365 -0.34524536 -0.32023934 -0.71766794 -0.3582793 0.55510676 -0.33814582 -0.08597807 0.7283871 0.7932656 -0.12376823 -0.0074086566 -0.23710889 0.6702234 -0.5753926 0.6795003 0.30868238 1.1855189 0.11203505 0.34631175 -0.034898624 -0.93617254 -0.24661618 0.1299636 -0.20048009 0.070421785 0.060461693 0.9169841 0.31863236 -0.35948232 -0.05302199 -0.29995987 0.43666437 0.53564984 0.545989 -0.96130776 -0.66583514 -0.36247233 0.7382326
颜 1.3114407 0.49150568 -0.34483162 -1.2087649 -0.017279046 -0.9550498 -0.7976837 0.74783236 0.64984614 -0.41053706 0.24294606 0.8708116 0.17223005 0.31201404 -0.60117567 -0.08141685 -0.82869136 0.54362464 0.12888703 -0.064392865 -0.4259997 -0.17285447 0.09880902 -0.86874735 1.1714643 -0.12636532 0.06312987 0.0392108 0.47998664 0.08861683 -0.59996015 0.06754484 0.1909479 -0.0033469615 0.65515405 0.1788053 0.35323992 0.019689703 0.18315959 0.33584982 -1.3732386 -0.09835764 -0.88190204 -0.10449805 0.5338327 0.76188475 0.4777161 -0.15303971 0.059549946 0.29159984
年 -0.28399876 -0.43248385 0.505935 -0.6935205 0.29101926 -0.00426808 0.42377275 0.68805873 1.0789417 0.79313177 -0.2958596 -0.40181944 -0.34061757 -0.3111445 -0.32165813 -0.4077465 0.42051747 -0.25765014 -0.025777755 1.0683819 0.52876115 -0.19215097 -0.6341649 -0.3560391 1.1378268 1.253578 0.054637037 0.033089288 0.2267384 -0.36106363 -0.59696096 -0.7979013 0.09529912 -0.3281803 -0.019430816 -0.29038084 0.73933417 -0.041420825 0.0166283 0.5578133 -0.14926125 0.54302 -0.55621576 -0.3908041 -0.13968295 0.34418413 -0.35362828 -0.8520051 -0.24333653 0.8877478
告 0.2705229 -0.37892997 -0.075439736 0.12013668 -0.41294742 0.54330385 -0.40484455 0.7643477 0.9451044 0.18207112 -0.115438536 -0.3753573 -0.20603438 -0.25043812 1.1044283 0.19341202 -0.19803798 0.20138411 0.010858689 0.34880677 0.81039435 1.0646836 -0.47537184 -0.45108408 0.16190957 1.3378663 0.6999368 0.15080431 0.34599853 0.36444804 -0.7927199 -0.12803753 0.41976 -0.8567177 -0.2734777 -0.1421302 -0.30718717 0.35783818 -0.2070243 -0.32187048 -0.3680465 0.037150003 -0.67455095 -0.076081395 -0.41704783 0.73863876 0.22694527 0.3463273 -0.405012 1.1604825
十 -0.77771306 0.10133239 0.16905457 -0.7515615 0.6228723 0.18431348 0.37844247 1.0566474 0.7552701 0.86576045 0.099194735 -0.4023588 -0.66997397 -0.8027573 0.24984607 0.038468592 1.4123373 0.32961386 -0.8464633 0.7550769 -0.76132643 0.091851495 0.61850107 0.47436428 0.73983765 0.70228934 -0.507317 -0.89191276 0.19540589 0.25057083 0.066075884 0.34059733 -0.32899505 -0.059628446 0.010483408 0.004758542 0.14064224 -0.7811501 -0.31165284 -0.06958502 -0.21370457 -0.5277513 -0.8153719 -0.6857896 0.3071774 0.9685699 -0.58226484 -0.6521876 0.35211062 0.4842941
怨 0.43232122 0.20579857 0.26418763 -0.31887925 -0.5160067 0.35471204 0.111949414 0.09630442 0.61922634 0.37150407 0.035608225 0.006547892 -0.041159905 0.2587984 0.69166934 0.09995777 -0.08729692 -0.7554472 -0.57992125 0.10472067 -0.23193201 -0.46875605 0.23571563 0.54869056 -0.02781965 0.2423525 0.6048108 -0.753555 0.8117566 0.45778894 -0.45634612 -0.1543138 -0.076236255 -0.022402132 -0.48208776 0.13658571 -0.62616956 -0.5369349 -1.016359 1.2467332 -0.8836915 0.43250453 0.80366117 -0.25071383 -0.046765167 0.17666216 0.8179915 -0.727187 0.012848411 0.43475276
达 -0.49844763 0.1670942 -0.24598354 0.27941176 -0.65533215 -0.768958 -0.1287398 0.76131845 0.6721145 -0.6791847 0.4632607 -0.56530035 0.7162058 -0.29575548 0.13960223 0.18554199 -0.4977516 -0.2710893 0.08183191 0.33413562 0.159078 0.65122455 -0.10366839 -0.06959547 -0.30990493 0.10387057 0.14495084 -0.8704447 0.4665421 -0.54414016 -0.5222337 0.9555749 -0.29363468 -0.49316323 0.14020915 -0.42801994 0.5416793 0.4498733 -0.40732014 0.17016798 -0.8253195 0.13397253 -0.3962208 -0.66145283 0.18286581 0.5414575 -0.44785625 0.35599497 0.1520322 0.34232932
孝 0.038060248 0.5094868 0.32834494 0.65109 -0.10680146 -0.25220874 0.23748887 0.35609016 0.7610721 -0.11497946 -0.31429037 0.18446931 0.04127701 0.7757704 -0.1770243 -0.17722028 -0.40957096 -0.21998778 -0.19027388 0.5110188 0.8933765 -0.038488373 0.79644567 -0.40240094 0.010957152 0.046805963 0.21999717 0.5930468 0.39484242 0.45923805 -0.66290534 -0.040027495 0.51607543 -0.80446035 -0.09415001 -0.112129614 -0.2696615 0.45008218 -0.28144312 0.44036993 -1.1126599 0.10465174 0.14335367 -0.44799843 0.20150086 0.027628766 -0.18800463 -0.17134339 -0.9895879 0.94523364
弟 -0.5642198 -0.012312898 0.056974147 -0.7016069 0.057713248 0.31557134 -0.041077722 0.45555362 1.1385783 0.7338088 0.091265015 -0.021004615 0.45205247 -0.14715077 0.5500644 -0.17293203 0.33159348 -0.00057172886 1.0362678 0.20036969 0.2512828 -0.22845793 0.5669676 -1.0012856 0.79029393 -0.45049107 0.084836 0.5323523 0.862972 1.1821731 -1.209701 0.4270825 0.66111755 -0.22083554 0.20720291 0.5029137 -0.82888573 0.5124157 0.782413 -0.17180629 -0.63280565 -0.08569323 -0.4959075 -0.50601107 0.1505749 -0.45050177 0.005191893 -0.21948884 -0.2831639 0.6203933
至 -0.1258324 0.013435904 0.21444376 0.107498504 0.12567662 -0.97274214 -0.6991575 -0.2500701 0.8061815 -0.43617454 0.24253361 0.35567778 -0.10588208 -1.1191988 0.08021821 0.46348038 0.50258136 0.074681364 -0.23660181 0.29540226 0.6083203 -0.055121236 -0.3462765 0.15243037 0.44392073 0.49427778 -0.6096602 -0.123189665 0.93853635 -0.15395002 0.083909266 0.13420303 0.22066581 -0.9135709 0.21995494 0.48270476 -0.45524302 -0.2856905 -0.25315583 0.22530402 -0.27286348 -0.18601462 -0.082401216 -0.59772354 -0.22280174 0.099122785 0.76776415 0.34532824 -0.22597258 0.8115446
先 0.63468534 0.072943 -0.25889167 -0.089172795 0.26899505 0.018263865 -0.6099376 -0.012262171 0.7193438 -0.103187054 0.23132429 0.6979798 -0.0070367623 0.7040801 0.31462556 -1.1446438 -0.12481841 0.6771945 -0.66179144 -0.7478213 -0.110647455 -0.0648369 0.071274154 0.17974342 1.0954319 0.56632364 -0.19336468 -0.33841446 0.30694222 0.19604422 -0.7733002 -0.61794776 -0.24575843 -0.07787641 0.50589067 -0.34343383 -0.6199523 0.8658163 0.19228384 0.2189744 -1.066687 -0.08929772 -0.39228103 -0.29770344 -0.16707432 1.0458937 -0.25974947 0.4282673 -0.6819775 -0.082926266
师 -0.3448591 0.60134864 0.2899439 -0.512202 0.08378314 -0.5497841 1.1744213 -0.4827409 0.6461608 -0.3464044 -0.16104569 0.068737596 -0.1051951 0.9124242 0.43351528 0.18552652 1.0555614 -0.22540559 0.1653778 0.5810669 0.561445 -0.7427808 -0.22316565 0.047087763 0.35454223 -0.07968599 -0.2969319 0.34966514 1.5564322 1.2096146 -0.17139743 0.13684654 0.416763 -0.01897778 0.40330133 1.0346658 0.3624455 -0.1022231 0.35384 0.10826821 -0.8526622 -0.006723866 0.50454193 -0.47054803 -0.19655901 -0.103286795 0.53570163 -0.12889232 0.30179268 1.0594065
女 -0.50198776 -0.026066896 -0.50336576 -0.026554864 0.30410618 0.3180194 0.7999423 -0.14570203 0.96120167 -0.40035704 0.31101462 0.20623913 -0.40098238 -0.52956885 0.23796654 0.3820371 -0.6362227 0.5862497 -0.32600448 0.4176772 -0.22346048 -0.20362759 0.17128377 -0.844746 0.9506232 0.17999303 -0.375604 -0.31381702 0.78343445 0.54897654 0.08268528 -0.08071186 0.9496187 -0.3649154 0.22418065 -0.023792243 1.1219492 0.7786807 -0.6742716 -0.9748218 -0.69518983 0.0993313 0.9409672 -0.21856657 -0.23989575 0.2786733 0.93366605 -0.7613562 0.91820353 0.5019388
多 0.6254922 0.29828578 -0.5995534 0.10019082 0.18405409 0.6157291 -0.49295548 -0.09821989 0.6564846 -0.523919 -0.9670717 -1.3485717 -0.6892763 0.122543596 -0.04842451 -0.32065952 -0.41836685 -0.7665164 0.66913587 0.3916124 -0.33909193 0.16974868 0.49565372 -0.060344547 1.5391345 -0.8397081 0.7365073 0.04581936 0.92086095 0.538776 -0.24482574 0.6303614 -0.12281348 0.025003266 -0.5946968 0.7229404 0.08964597 -0.99151874 0.15496999 0.33089235 0.118124664 0.29929325 0.24377137 -0.46200854 -0.08446996 0.26013637 -0.011506899 0.0006549598 -0.4014774 0.41509715
忠 0.21075468 0.92570406 0.47449535 -0.8940833 -0.7053413 -1.1880844 -0.089236915 0.617343 0.61767244 0.15073308 0.15535504 -0.07286603 -0.24881427 0.34099203 0.006180875 -0.22869454 -0.82848805 -0.6806848 -0.5394921 0.7840125 -0.31329602 -0.26472086 1.7165126 -0.61514807 0.29167408 -0.16665833 0.10816091 0.073724054 1.0573319 0.0031020532 0.34281328 0.746024 0.020490944 -0.46110246 -0.54551196 0.51539797 -0.11413684 -0.037164092 -0.42089432 0.7522422 -0.25152302 1.0463758 0.19602393 -0.40666094 -0.5231629 0.16721073 0.15446545 0.024665004 -0.20624115 1.0582458
四 -1.0217443 -0.36856046 0.49797103 -0.6657997 -0.33586168 -0.9752241 -0.3248353 0.14789814 0.6590798 0.55881727 0.6670272 -0.21969607 0.029269775 -0.35719976 -0.15643795 0.40107775 -0.38830873 -0.078619584 -1.349531 0.5960211 -0.22725756 -0.24948408 0.36125073 0.034437403 0.6648619 -0.03223889 0.030314222 0.46314412 0.25689742 0.22781171 -0.3258034 -0.03994801 0.23731537 -0.9180426 -0.22514386 -0.33822706 -0.38748643 0.22145952 -0.6068861 -0.116702616 -0.9832137 1.0903289 -0.025818828 -0.6679845 0.009813302 0.5979027 0.38298213 0.16408889 -0.034681257 0.616617
疾 0.86056066 -0.79033625 0.063326806 -0.35065743 0.55011195 -0.6940695 -0.033549443 0.684411 0.63169223 -0.41025174 -0.08077309 -0.10688813 -1.2179939 -0.547544 0.31992996 -1.0135764 -0.20515765 0.49532792 0.75206435 0.7400669 0.037100345 0.28873605 -0.10134805 -0.11251857 -0.18640535 0.26615563 0.42573708 0.6862034 0.25426102 -0.09942887 -0.19570872 0.5870804 -0.60519755 -0.20066297 -0.05592303 0.021573678 -0.39866787 0.48120576 0.33808216 0.26559222 -1.1156471 -0.26983032 -0.29159686 -0.7793434 -0.36607045 0.24480852 0.17996159 -0.8143238 0.36541513 0.6714113
服 -0.16127245 0.11076353 0.5118084 -0.16169429 -0.7883633 0.13497305 -0.14409654 -0.044413056 0.5797521 -0.39413828 0.73895836 -0.35177848 -0.09059596 -0.19599591 1.0680523 0.094470784 -0.98308647 -0.31383467 -0.051533766 -0.14844416 0.61057657 0.4089491 -0.5348878 0.46434447 0.9768462 0.34362358 0.48893467 -0.15704004 0.6110534 0.55322576 -0.26608735 0.22751693 -0.9861154 -0.2579294 -0.26633528 0.51984876 -0.16742983 0.35457492 0.46728227 -0.15353423 -0.84202635 0.21716398 -0.49390107 -0.29781258 0.32634315 0.57453394 0.5455551 0.11648171 -0.11702639 0.10882167
氏 -0.26665115 -0.88089687 -0.060694516 -0.7636482 0.19361013 -0.35009894 0.4919619 0.44861585 0.9541971 0.19450593 -0.21863095 -0.76942855 0.37373474 0.15891531 -0.072528526 0.2824199 -0.057804804 1.1191565 0.9681869 0.7877026 -0.25691694 0.03193771 -0.940507 0.6023802 0.7390421 -0.12590271 -0.31558287 -1.1934777 0.5275957 -0.2065659 -0.10733354 -0.1011739 0.60179734 -0.065278165 0.0042387093 -0.25114593 -0.7469622 0.7431795 0.21865171 -0.089715146 -0.41364342 -1.4498807 -0.3918732 -0.1288281 0.1774388 0.7586294 -0.31898782 -0.74625516 -0.520077 0.7854728
冉 -0.41265225 -0.42852277 0.21539521 -0.38726303 -0.4479461 -0.64175016 -0.19191396 0.69862825 0.4116906 -0.6967142 0.62536955 0.23990251 -0.48718885 0.18985036 0.3249628 -0.6423943 0.23260848 -0.65472245 0.92466563 0.38107964 -0.27150017 0.099587835 1.5483341 -0.97361404 0.9198404 -0.40265852 0.009877976 -0.9896651 0.60776055 -0.7940591 -0.4045356 -0.13079129 -0.19169325 -0.4003429 -0.28047666 -0.49808204 0.9180345 0.34168074 0.33311152 -0.3655429 -1.7944049 -0.550067 -1.0922066 -0.11166429 -0.051475864 0.6817542 0.0048424504 -0.4015802 0.009214721 0.56132674
将 -0.3642237 0.6317714 -0.05372493 -0.10012299 -0.38986808 0.11097516 0.32925493 0.9888964 1.3919331 -0.54202586 -0.46512517 -0.4133927 -0.1752938 -0.100964315 0.1455637 0.26932052 0.35985067 -1.3625278 -0.60695684 -0.26443008 0.2426895 -0.79228336 -0.03178911 0.90687823 0.14279531 0.26049748 -0.57112384 -0.34361583 0.5845276 0.43164104 -0.64697707 -0.54575264 -0.024062378 -0.11813827 0.40041143 -0.12210288 -0.030069623 0.76205885 0.40997633 -0.6749032 -0.5919845 0.42113525 0.14074592 -0.71288526 -0.6413328 0.5040122 -0.10024285 -0.34735963 -0.7308247 0.2890957
士 1.1078798 0.5129001 0.5153283 -0.20536329 0.8068909 -0.28328222 -0.8551099 -0.42118558 0.66813564 -0.98531216 0.18049715 0.51171374 -0.5637183 0.12123222 0.0924432 0.82073724 0.8257293 0.4778575 -0.101454556 0.48107466 -0.056977842 0.6119637 -0.34652367 -0.96372575 0.9277821 -0.6294195 -0.029822357 -0.5439835 0.6115419 0.47377333 -0.6533085 0.43017825 -0.37419832 0.19000557 -0.38829163 0.037471775 -0.027941346 0.5852077 -0.93068296 0.44984174 -0.92309374 0.34929186 0.10690919 0.0776981 0.3041506 -0.36083326 0.0918662 0.16310099 -0.3649373 0.23246698
丘 0.21011886 -0.3991523 0.17509948 0.24989638 -0.055536717 0.05756916 0.14773148 0.7827505 0.7757815 0.287296 0.23838827 0.3924655 0.6553846 0.4291753 -0.25668797 0.19198018 0.6534976 -0.21904124 0.0963404 0.17850319 0.52279925 -0.70378053 -1.633888 -0.33059716 0.9268627 0.56813264 0.68968415 -0.2647157 0.32821143 0.5916882 -0.72744143 0.4634722 0.29969978 -0.032027487 0.23152722 -0.5130402 -0.63609844 0.15050708 -0.9484512 0.12433694 -1.1806324 -0.15684076 0.09016091 0.1417583 -0.11146932 0.096770756 -0.37084284 0.11178373 -0.12506339 0.8138694
身 0.62231314 -0.28452784 -0.18731983 0.5885302 0.5789479 -0.070750296 -0.76822937 0.4721662 0.80939746 -0.046335038 0.044348035 -0.34724525 -0.8435648 0.11525613 0.93779945 0.42255548 -0.16747707 -0.24669214 -0.42592347 0.77070874 -0.18793805 -0.11549813 0.23406927 -0.22607043 0.6786726 0.12745441 -0.76240796 -0.3580323 0.3307083 -0.51064765 -0.34592676 0.9504111 0.69678074 -0.31021345 0.31618118 0.90616846 -0.22508228 0.4201985 -0.9461002 0.3608086 -0.3228248 -0.79316556 0.027599638 -0.059970103 0.7424606 1.1650865 -0.35977417 0.005951159 -0.47216713 0.8658457
入 0.01979617 0.4292979 -0.15419976 -0.03211406 -0.4719687 -0.63219243 -0.15713298 0.36790374 0.44911364 0.67768645 1.377915 -0.22610492 0.12566637 -0.70490044 0.48610103 0.16660792 0.62073034 0.11755978 0.14484414 0.053317532 1.0964646 0.1375148 -0.5849494 0.5927378 0.7589823 0.14934024 -0.7969725 -0.013317159 0.5791032 0.5558234 0.101741746 0.76176196 -0.27232912 -0.61083436 0.007420829 0.5415169 0.10513771 -1.1510488 0.62071025 0.27872208 -0.891658 -0.105457895 0.67347616 -0.26773366 0.13438082 0.059246056 0.72510165 0.52668184 -0.5382001 0.5925401
志 0.580526 0.27814737 -0.11502646 0.5679189 0.26034507 0.07643612 0.09286095 0.20540062 0.60420585 -0.4699009 -0.31975067 0.19246267 -0.23184736 -0.6773409 0.9797275 0.25388366 0.259571 -0.43810627 -0.29798025 0.5263967 -0.006029164 -0.32975638 -0.20615686 -0.82089376 0.58460385 0.26080924 0.52727157 0.32693303 0.49855348 0.94643676 -0.027285635 -0.02767052 0.035920873 0.52631235 0.03420367 0.20357205 -0.32873288 -0.3979935 0.1595144 0.78723645 -0.7645288 -0.31982478 -0.28965893 0.121117875 0.21590818 0.26515493 -0.12912011 0.30446798 0.46830744 0.40981463
耻 0.21230437 -0.25434333 0.11406347 0.3132427 -0.056220707 0.798805 -0.51184815 0.6683053 0.7002335 -0.4168788 -0.073023304 -0.84184027 0.40458974 -0.20877747 0.51049215 -0.08822493 0.124455936 -0.21428457 0.044596646 -0.12836295 0.4812736 -0.43008634 -0.40354374 0.01317158 0.44959256 -0.24431749 0.38357884 0.23451188 0.3039939 -0.7189458 -0.30180955 0.48885545 0.19212894 -0.51810896 -0.21304876 0.046193834 -0.314345 0.122970276 -1.1802907 0.25580174 -0.73058856 -0.469804 -0.9571051 -0.59870875 0.07487032 0.38602018 -0.44970644 -0.104753934 0.44464847 0.67628706
失 0.5836958 -0.52413166 0.04880417 0.27165622 -0.51459754 -1.440172 -0.5741389 -0.43565872 1.1154535 -0.91775215 -0.44867972 -0.70473844 -0.5826727 -0.7767902 0.5318824 0.18663047 0.6254814 -0.21285367 -0.3218805 0.27693823 0.7831225 -0.6420573 0.28465933 0.1628726 0.6148613 -0.1357643 0.11067239 -0.10279961 0.7003854 -0.54024965 -0.5277317 0.06883019 0.23522891 0.22798051 -0.61628866 0.18041116 -0.05147767 0.046206694 -0.33815935 1.7103405 -0.004056214 -0.08100407 0.46184942 -1.5514884 0.30691716 -0.025919475 -0.47189832 -0.072747536 -0.34845632 0.6723998
安 0.4258967 -0.0855193 0.40023795 -0.54855996 -0.26522732 0.040500734 0.25295588 -0.52653825 0.6158274 -0.049801093 0.063609526 0.04457897 -0.20243508 -0.464904 -0.5100474 0.10112873 -0.51112777 -0.6630408 -0.38389805 -0.08748667 1.0147177 0.22519262 0.3027789 -0.6965212 0.334323 -0.28469795 0.4653402 -0.6255391 0.94280165 -0.028589182 -0.6183836 -0.399822 -0.5052633 -1.1651306 0.064722836 1.1866843 0.7421013 0.9795733 -0.03862767 1.058975 -0.15282683 -0.19600391 -0.5675729 -0.70422 -0.34809422 1.1667007 0.29796088 -0.19276294 -0.0417598 0.9598301
富 0.038045973 0.483088 0.110735275 -1.6134427 0.3624946 0.00035017944 -0.17929764 0.6961621 0.27217847 -0.62326 -0.20628062 -0.41625962 0.22329144 -0.61564994 0.5418333 0.15388073 0.30371207 -0.41286302 -1.4775255 0.44414473 0.16889213 -0.46696156 -0.089686565 0.14595433 -0.04468591 -0.18268478 0.713066 -0.5401262 0.8178279 0.662071 0.31486684 -0.23466268 0.23762016 0.534436 0.47404286 0.12742998 -0.17950842 0.7746087 0.023491865 0.4495117 -1.229606 -0.9003551 -0.60363716 -0.2330429 -0.3927447 0.35093066 -0.9429877 -0.007053091 0.09683845 1.5943328
赐 1.2802237 0.18199031 1.036708 0.20170146 1.197955 0.055735186 -0.91241753 0.28248963 0.8805979 0.47423774 -0.079294346 -0.51090753 -0.056390416 0.5673204 0.20015055 -1.0473522 -0.8864473 0.024467234 0.24120101 0.47630933 -0.24775264 -0.09734584 -1.168309 -1.010146 1.0394336 -0.51551247 -0.032265853 -0.4951956 0.7431667 0.5752304 -0.6966442 0.4756204 0.21767743 -0.08202778 0.47561097 -0.017659986 0.6563479 -0.40020913 -0.6899183 0.03282441 -0.70090616 -0.15167397 0.19376294 -0.030297842 0.28546238 0.17165847 -0.18128231 -0.33017796 -0.5015351 0.97034204
患 0.38700855 -0.19894768 -0.037131757 0.41847533 0.357532 0.45605785 0.4871745 -0.16064182 0.9730891 -0.5790134 0.08548495 1.0189276 -0.9972515 -0.87369347 1.2642661 -0.013285823 -0.20907152 0.53364855 -0.5224424 0.68429726 0.80000305 -0.42995983 -0.034360316 0.45778364 0.76124954 -1.010932 0.09158573 0.34607974 0.85920435 0.06707126 -0.7619061 -0.23501994 -0.44706663 -0.087725244 0.38653183 -0.45625547 0.3972649 -0.93161833 -0.56633455 1.0754058 -0.11977956 0.15687782 -0.8241223 0.08289399 -0.15222049 0.12818027 -0.13782258 0.40873697 0.07306511 0.376117
百 0.26772663 -0.8929914 0.20273013 -0.17644684 0.37339684 -0.25646308 0.7476668 -0.06633924 0.78503144 0.071277976 0.19689491 -0.92279917 0.0069066957 -0.6785075 0.5492499 0.3685951 0.57104063 0.15492609 0.06334252 0.5766599 -0.58299106 -0.11233437 0.76171 -0.26168284 1.2360417 1.2717447 0.73902714 -0.13134082 -0.046187583 -0.14277491 -1.0747095 0.17689249 0.09157116 -0.885648 -0.1803756 -0.4492783 0.16802132 -0.6389953 -0.22526035 -0.13185039 -0.94027364 0.93042266 -0.12443901 -0.6159074 0.8930075 0.14848997 0.1366846 0.25207537 0.18990615 0.1311564
回 1.1923763 0.28210723 -0.29678184 -1.0568261 0.53641593 -0.12911138 0.5284392 0.44982734 0.5759476 0.021863328 0.5419515 0.39675492 -0.029681547 0.09862182 1.0438647 -0.63558424 0.2674107 -0.10996398 -0.56703556 -0.2634891 -0.13712151 0.702639 -0.54063433 -0.7908702 0.8326055 0.36938995 0.07920219 -0.36720473 -0.021980472 0.4446815 -0.91351247 0.19557968 0.54712784 0.46210086 -0.7581502 -0.85367346 0.29483232 -0.55714595 -0.31564566 0.6790572 -1.5971472 -0.024079012 -0.35776728 -0.61618686 0.24694322 -0.46974704 -0.3494156 0.4807693 -0.012600079 0.5709618
宰 0.667133 -0.20267613 0.59366465 0.8870289 -0.2472873 0.17775348 0.09510807 0.15308899 0.61816776 -0.7073151 -0.46852383 -0.25267988 -0.48848522 0.6738971 -0.07362855 -0.15178534 1.7022139 0.010124096 -0.25625804 0.6672867 0.6182874 -0.25779012 0.22999945 -0.3678581 0.56908864 -0.16540506 0.93945855 -0.7676992 -0.039640024 0.42100787 -0.08817206 -0.23674871 -0.061267197 -1.1864867 1.005458 0.053056892 1.1808046 0.43609336 1.3829045 0.420102 -1.6577328 -0.39145485 0.55524 -0.05307747 -0.88242614 0.052582704 -0.04293288 0.49119177 -0.2107125 0.5729323
朝 0.23123163 -0.03519633 -0.10216328 -0.2839325 -0.10113911 -0.167697 -1.3109001 0.1158566 0.69681704 0.86468136 0.107380696 -0.6682934 1.0837548 0.01070659 -0.042562675 -0.61001235 0.0063074846 0.14436975 -0.40984678 0.9289377 0.17751423 0.025735596 -0.101024844 0.4182999 0.78894925 -0.24739672 0.44911048 0.16424781 0.16709335 -0.12136282 -0.11516663 -0.18757494 0.8417385 -0.09116861 0.4049615 0.31232902 -0.9849048 0.30905747 -0.228987 0.7669565 -0.3724233 -0.6330588 -0.13594788 0.16822004 0.16849798 0.4602063 0.23080373 -0.31559238 0.10035123 0.74888253
莫 -0.14530237 0.51665336 0.33469018 0.746081 0.21873052 0.18053518 -0.015120786 0.41342217 0.8094726 -0.31513155 -0.16365744 0.20298487 -0.13507907 0.008999694 -0.08954218 -0.40365276 0.43155754 -0.05089891 -0.26777816 0.79487556 -0.41625172 0.30805817 -0.7018965 -0.12764627 1.0037848 -0.3024479 0.45049867 -0.1828441 0.21636479 -0.9786004 -0.03217431 -0.28943613 0.22915037 0.001548552 0.14265084 0.7025466 0.6151721 -0.2974513 0.33659357 1.0703771 -0.21960829 0.2641697 0.66885394 -1.1162351 0.17060262 0.8272177 -0.25429538 1.0216272 0.5014467 0.51585704
若 0.031227687 0.89722526 -0.5119672 -0.7010291 -0.1213695 -0.47060004 -0.08441389 -0.07499608 1.0256699 0.08250438 -0.020236466 0.6340428 -0.032152355 0.13043338 -0.34582782 -0.7271352 -0.008137754 0.006338652 -0.48979038 0.6018186 -0.5003361 -0.18137933 -0.03572052 0.47428793 0.44960034 0.4954651 -0.6726533 -0.22526687 0.14201313 -0.67367136 -0.24882954 -0.4553636 -0.2683931 0.12635286 0.3071617 -0.456433 0.013426248 -0.79506016 0.3147955 -0.032869343 -0.45063385 -0.1571341 0.5601532 -0.4488507 -0.15480304 0.6511434 -1.0985647 -0.2132579 0.30471987 1.7596895
云 1.0698793 0.028301349 0.06689716 -0.62563723 0.84739745 -0.027704557 0.119967744 0.7864747 0.7979297 -0.7673957 0.3313729 0.60326356 -0.01878049 0.168963 -0.75386375 0.7502613 -0.01769542 -0.42524987 -0.120217726 0.18947542 0.14074643 -0.5402296 -0.32225832 0.84436065 1.2549293 -0.43708694 0.6534455 0.39027208 0.5818215 -0.049272366 -0.636319 0.38290384 0.421339 -0.27090985 -0.15122075 -0.17272224 0.63748217 0.3801068 -0.031530313 -0.10829982 -0.5923508 0.37018898 1.040649 -0.14807238 -0.2592565 -0.34518594 -0.012026712 -0.4944199 0.14148799 0.48576766
孙 0.04724595 -0.24976419 0.11920862 -0.5641849 -0.32140383 -0.3259139 -0.5300993 -0.19752745 0.89783 -0.15349405 0.074324474 -0.32328203 0.11081821 0.35567063 0.34508753 -0.91980386 -0.12190866 0.40586102 1.4389157 0.6385158 0.7681782 0.031475917 -0.1235109 0.60130626 0.59274715 0.12529291 -0.46506107 0.6935753 0.9723911 0.3801556 -0.34584352 -0.044867303 0.7761765 -0.7388036 0.38893172 -0.42918912 -0.3141924 -0.27326047 1.1981554 0.76847345 -0.36464 -0.48595956 0.037326287 -0.20130633 -0.12567627 0.1660547 -0.40945897 -0.07152003 -0.37649146 0.81497604
或 0.20037127 0.17020798 -0.28255352 1.2074722 0.22534628 -0.37400222 0.06532236 0.3113354 0.49229738 -0.8855369 -0.41537765 -0.019588685 0.09373584 0.48852235 -0.28313065 -0.20782657 -0.9912617 -0.11435636 -0.43633315 0.052995246 0.6742327 0.33641696 -0.4901172 -0.43551096 0.61237514 -0.7063106 -0.21002573 -0.34431013 -0.05782811 -0.51579374 -0.71693623 -0.29558975 0.34891796 -0.565365 0.37915903 -0.23707649 -0.33132088 -0.67750484 0.020155337 0.19137906 -2.397928 -0.14972457 0.6671175 0.4739291 -0.90253156 0.11991414 -0.06197822 -0.24105076 -0.18540855 1.1505283
勇 -0.29663244 0.2792209 -0.39481887 0.1713418 0.14964367 -0.20506412 -0.2899131 0.82756835 0.8008184 0.09684228 0.7103129 0.3807419 -0.8451123 0.22388253 0.22039111 0.0945653 -0.20557246 0.31170535 -0.41213873 0.59502673 0.2694856 0.06942165 -0.26182324 -0.31694275 0.102625124 -0.247447 0.52675784 -0.21458931 0.8742175 -0.0132011315 -0.35553128 0.6459172 -0.27690685 0.16618258 -1.3134125 0.2378067 0.31964648 -0.26702735 -0.8052084 0.5091299 -0.4195373 0.833076 -1.370954 0.020566696 -0.31990775 1.0375706 -0.036470108 -0.52786154 0.33338785 -0.02662393
孰 0.09886658 0.6758025 0.8035844 -0.05324888 1.3263644 0.44706762 0.057481762 0.24594642 0.5369502 -0.83398 -0.3457152 -0.12063157 -0.2393829 -0.043953065 0.9325598 -0.20703265 -0.060453847 0.0097229825 1.1678513 -0.20769265 0.7282276 -0.5613855 0.1510377 -0.23545118 0.94135696 -0.58410525 0.7242778 -0.016866272 0.5871023 0.08204678 -0.67453605 -0.5218866 0.46174678 0.014631883 0.44730586 -0.7603148 0.5688671 -0.9578753 -0.2313008 0.6918252 -1.2851386 -0.1069515 0.70415395 0.2532899 -0.1787341 0.60443604 0.16094615 0.58570325 0.51384395 0.19503811
