1352 50
， -0.8893851 -0.011690084 -0.065995954 0.2267802 0.017036127 0.0044673816 -0.027573729 0.00014985862 0.078517005 0.07267709 0.07294033 -0.014243476 0.054851357 -0.046854664 -0.07876633 -0.037529636 0.094639555 0.0040661106 0.0820262 0.09286377 -0.052722007 -0.025416702 -0.09317863 0.03882928 0.0011976288 0.12088923 0.13819772 0.028915761 -0.061537575 -0.07424086 0.09580237 0.11348753 -0.055965602 0.096203625 -0.05780257 -0.021284606 -0.12551522 -0.04451339 0.0068837292 0.018117338 0.0025684587 -0.08852197 -0.014335609 0.038261306 0.0022718934 0.028530907 0.061052267 -0.046154723 -0.060771406 -0.082266934
子 -0.07986124 -0.044314347 0.09862717 0.19845857 -0.057122845 0.022877049 -0.055385895 -0.002744632 0.106877476 0.05473687 0.03734532 -0.0031717808 0.21126178 0.05017443 0.12326561 0.033029925 1.1434051 -0.16405219 -0.024668898 -0.03555656 -0.06235305 -0.020895539 -0.005817312 -0.14890003 0.035850924 -0.13526823 -0.09195991 -0.031415038 -0.0054498133 -0.04678459 -0.0897999 0.03707349 0.021744773 -0.11384343 0.029123863 0.045905106 0.35319835 -0.014520051 0.0842807 -0.08340892 0.09325528 0.061712872 -0.06362087 -0.0640034 0.023110932 0.033598274 0.0156072825 0.01679957 -0.025866218 -0.074444994
。 -0.411154 0.0047298535 -0.02767293 -0.13833915 -0.10806665 0.12676634 0.07508915 0.07878038 0.13571021 0.025213044 0.118770964 0.005946095 0.089150734 0.13865565 0.015472378 -0.047709744 0.7738991 0.03492273 0.12284185 0.09987556 0.023720762 0.044645797 -0.007235535 0.18836688 -0.102953255 -0.13013357 -0.10065073 0.00983349 -0.00881613 -0.1873648 0.17367272 -0.10612204 0.19662239 -0.01017175 -0.1466569 -0.18964979 0.22266312 -0.004947278 0.004551979 0.5683101 -0.015725894 -0.1059496 0.024028698 0.030409975 0.00795994 -0.050332703 0.0789662 0.11269164 0.18928903 -0.023659885
： -0.14736865 0.0075956597 0.02604933 -0.08732491 -0.071492806 -0.013792098 0.032834765 0.020487899 -0.10613962 0.06913498 -0.025687002 0.07080889 -0.19820207 -0.032856297 -0.057206202 -0.08400566 1.0914006 0.009753601 0.11334438 -0.067574054 -0.037223306 0.086254895 -0.09046927 -0.0060359496 0.0180264 0.05937716 -0.1526427 0.103106275 0.10106451 -0.050830383 0.0015419283 -0.0013040939 -0.07410093 -0.02517228 -0.13103402 -0.062277935 -0.28700015 0.07533822 -0.017640492 -0.26765576 0.0027668434 0.022469588 -0.01492967 -0.08391391 0.097850144 0.015677312 0.08154177 0.056299876 0.058575757 0.034805514
曰 -0.07554336 0.045367207 -0.0075202305 -0.120311305 0.0022109547 -0.14873722 0.08473162 0.009811433 0.03885425 -0.074445486 0.035120204 0.002883663 -0.044127733 0.07227417 0.007205639 -0.10789972 1.2223239 0.008423304 0.02807814 0.03863911 -0.0743203 0.08542618 -0.042627174 -0.09808183 0.014474618 0.10264351 -0.07812199 0.043238252 0.13129126 -0.06385911 0.019652909 0.10411031 -0.14079912 -0.06869511 -0.03162898 -0.005955394 -0.1424748 0.08099354 -0.119297065 -0.12967594 0.01565399 0.033023335 -0.025453202 -0.03335696 0.032434337 -0.06934646 -0.05529212 0.11001311 0.028849462 0.04261192
之 -0.64086676 0.10609979 -0.058737315 0.08773146 -0.23588647 -0.04594388 0.0021688882 -0.04999673 -0.20368904 -0.008189759 0.04165086 0.09298429 -0.047320824 0.18755402 0.023352617 0.011459089 0.36156315 -0.2894601 -0.062489405 -0.085615255 0.05092984 -0.12842555 0.023109632 -0.17668608 0.12753138 0.29181287 -0.020223541 -0.21772313 0.18424499 0.05696501 -0.03446757 -0.18222114 0.22366655 0.08428843 0.035378773 0.15913954 0.100494124 0.17717366 0.15649803 -0.09113969 -0.3332731 -0.09708568 0.101827525 0.13328491 -0.21534252 -0.19147633 -0.09012555 -0.023162598 0.0011337472 0.17804708
不 -0.9293719 -0.083841294 0.27819163 -0.019737668 -0.025277723 -0.10414791 0.024180304 -0.12503754 0.22705978 -0.123715304 -0.06483304 -0.04678425 -0.0680264 -0.17510834 0.18156755 -0.29238155 0.038428493 -0.0153284175 -0.1647817 0.032158207 0.060337644 0.16610657 -0.025052467 -0.18772572 -0.028546711 -0.12568557 -0.22724885 0.16792367 0.15194623 0.07702639 0.008267039 -0.2649517 -0.076466136 -0.119480975 0.14415546 -0.17204374 0.11326288 -0.0812432 -0.036844365 -0.15528882 0.26230365 0.08121342 -0.115628675 -0.16574669 0.04354211 0.0142808035 0.05495681 0.18036382 0.31558624 -0.049911313
也 -0.579415 0.17023852 0.034739435 -0.11555409 -0.036274172 -0.074096546 0.04961122 -0.050538547 0.13953334 0.0711103 -0.0590665 0.040628027 -0.16858126 0.030478474 -0.05020203 0.17777823 0.4247235 -0.10806498 -0.028309094 -0.16056873 0.083513334 0.32151577 0.05777734 0.10134839 -0.1757747 0.25449243 -0.38483503 0.07398399 -0.30344096 -0.1152657 -0.11755785 0.009990242 -0.13014826 0.1553119 0.16220865 0.02922251 0.34465775 0.11229575 -0.09911579 0.10770197 -0.1474716 0.08219907 -0.026170067 -0.079069994 -0.10664235 -0.1617466 -0.31070974 -0.15749829 -0.02778329 0.14007302
而 -0.9717736 0.3656696 -0.09667881 -0.07749746 0.00096395635 -0.06619106 0.07691801 -0.0046677664 0.011251286 -0.09747397 -0.061400197 -0.09048966 0.2202675 -0.016526043 -0.017738555 0.3437254 0.1399209 0.07632649 -0.0044977176 -0.018411065 -0.030990344 -0.038205322 0.17114882 0.10620701 0.15789384 -0.44599158 -0.18206932 -0.31321794 0.51953816 0.105977714 -0.09384131 -0.006800517 -0.030284233 -0.1178203 0.23879611 -0.11442522 0.015424381 -0.03422255 -0.112962484 -0.05902675 -0.0012808763 -0.0577124 0.12638612 0.039973956 0.09028323 0.2292551 0.14685574 -0.11498958 0.20304063 -0.12301098
？ -0.3434074 0.1431438 0.015632737 0.28451097 0.19473629 -0.1282601 0.17619726 0.24313422 -0.21265286 -0.13300754 -0.22915925 -0.16490489 0.2539809 -0.6368463 -0.324371 -0.28042457 1.0447011 0.078933425 -0.006452649 -0.23069286 -0.019452019 -0.1579212 0.12803817 -0.18553248 0.053086966 -0.10319593 -0.03842562 0.1416505 -0.1208218 0.2265018 0.32350782 0.08380882 -0.012831755 0.25681403 0.15230167 -0.039493844 -0.120810635 -0.25013253 0.019682959 0.37249306 -0.108116955 0.025781527 -0.08070482 -0.09818948 -0.025855733 0.20565198 -0.19534476 0.16864182 -0.1750104 -0.0077207643
其 -0.7990793 0.426958 -0.22564022 -0.19969548 0.037577495 -0.120375015 0.085971035 0.05634983 0.19602579 -0.1377952 -0.3070668 0.02569331 -0.30906367 0.17489453 -0.26354244 -0.1255119 0.1331548 -0.19548553 -0.025040708 -0.21500379 0.13540061 0.16838884 -0.096084446 -0.049967047 0.060613994 -0.1987863 0.19226782 -0.22176269 0.027231703 -0.097505055 0.023233948 -0.016939435 -0.110890746 0.010774379 0.04181209 -0.05574119 0.37957945 0.07682102 0.07300483 -0.059798293 0.12836742 0.18980211 -0.13954678 -0.06852946 0.05530433 0.055277307 -0.14983459 0.12143745 -0.40068272 -0.038452093
人 -0.68905276 -0.19728756 -0.40349716 -0.37794542 0.049552858 0.08295711 -0.26385766 -0.059007842 -0.1349349 -0.21320818 0.19720612 -0.3726705 -0.100602224 -0.24134712 -0.066883795 0.007384043 0.39859217 -0.05925278 -0.07709254 -0.0029836223 -0.24006203 0.114930466 -0.07304367 -0.26850438 0.026929531 0.015157773 -0.08864259 -0.34307307 -0.12825812 -0.20373483 -0.123799294 -0.02028605 -0.0044454434 -0.23166184 0.08537676 0.14151852 0.12492322 -0.11928784 -0.03778158 0.11664748 -0.20563121 0.10463825 -0.110185795 0.3402174 -0.07632011 -0.20255232 -0.1762575 -0.085071795 0.09193243 -0.26830688
者 -0.701818 0.033632055 0.18198496 -0.632623 -0.04173559 0.12155852 0.051855627 0.047867008 -0.19716194 -0.19829652 -0.17650603 0.059544794 0.047014736 -0.14591594 -0.15342568 -0.12410016 0.382703 0.16442157 0.26778618 0.18683885 0.020063756 0.2763096 0.11247462 0.00042531258 -0.057234686 -0.037228804 0.06667163 0.16935848 0.31084865 0.21759553 -0.038533516 -0.07772639 0.1580456 -0.06818142 0.3224648 0.09889797 -0.016104529 0.041892618 0.41117212 0.10921993 0.13716683 -0.5375044 -0.25489444 -0.105338834 -0.09029541 -0.1852208 -0.1286345 -0.16833918 -0.32907164 0.023272295
以 -0.85470533 -0.4242517 -0.043438856 0.09906713 0.28900087 0.12452699 -0.069306344 0.16652969 -0.039487414 -0.2756164 -0.15174845 0.24594294 0.077827424 0.36194602 0.04441493 -0.41145346 0.30687353 0.13338427 0.017801635 0.008258036 -0.36719027 -0.09633137 0.0007431104 0.1977379 0.26079497 -0.010963315 -0.21947119 0.098212175 -0.17377393 0.04384435 -0.22516526 -0.16440763 -0.15803787 0.07254819 -0.18805447 0.20755163 0.28848732 0.03356603 0.11215197 -0.4017181 -0.3467313 0.046643183 0.030409642 -0.25480464 0.050721824 0.0014766145 0.20339938 0.08905835 -0.2621953 0.1883851
有 -0.49723762 0.034300506 -0.21980728 -0.40562317 0.18238007 0.03781236 -0.1899941 0.17480862 -0.24240577 -0.18304522 -0.20816469 -0.12045418 0.05251349 -0.16636637 0.5864759 0.15081929 0.5936291 -0.09784943 -0.11342186 0.16603953 0.2734205 0.09875262 -0.28591734 0.07879357 -0.17682502 0.21656527 0.35218564 0.1381441 0.010370327 -0.021438912 -0.07627361 -0.031212058 -0.22080426 0.010922066 0.114116676 0.007491198 -0.09620158 -0.29994702 -0.047741853 -0.1733105 -0.07117962 -0.32107735 -0.06902845 -0.14824362 -0.16385476 -0.13433707 0.35930073 0.031002654 -0.19887358 0.0063829995
于 -0.45084682 -0.053248025 -0.2808141 0.013266539 0.025420874 0.18788663 -0.18387395 0.023529988 0.31726834 0.22844625 -0.45089212 -0.07311342 0.27609983 0.10308217 0.0011824878 0.15317743 0.46688172 0.117109284 0.18398243 -0.058121867 0.396106 -0.08088463 -0.1657762 -0.13292752 -0.43148378 0.30179363 0.08070805 -0.11121772 -0.11814293 -0.12780616 -0.043243606 0.40182322 -0.06877258 -0.17949894 0.16852798 -0.057380203 0.18886894 -0.14366826 0.33209747 -0.26396593 -0.037744094 -0.06807335 -0.010905641 0.33985022 0.055493724 0.3737338 0.23288168 -0.16658112 0.092669815 0.15004997
矣 -0.2317481 -0.092626534 -0.093540475 -0.23149736 0.45153517 -0.03620041 0.06060572 -0.064872056 0.32434878 0.13731268 0.12676367 0.16115327 -0.32006317 -0.080348775 -0.21596818 0.07878567 0.67329246 -0.17142563 0.27929446 0.1484091 0.028824814 -0.0038723024 0.03513453 0.3736422 0.16457164 -0.29260117 0.013418597 0.059536386 0.04514632 0.006264384 0.08989967 -0.1986178 -0.09254081 0.23359424 -0.017562548 -0.048586924 0.43007383 0.26247615 0.13291052 -0.2619323 0.021072548 -0.37613738 0.6854634 0.26853475 -0.033564728 -0.053587843 0.07963963 0.40843 0.13177805 -0.015907824
为 -0.5288117 0.16758655 0.16826187 -0.038670763 0.14475901 0.053167216 0.014962933 -0.13907443 -0.3454282 -0.04926897 0.21285641 -0.025819192 0.3830113 -0.10376927 -0.22334968 -0.1664888 0.48376292 0.53718215 0.3173997 0.027502222 0.04049035 0.18206868 0.23007736 -0.24142602 -0.124836504 -0.058450554 0.17599948 -0.3035448 -0.053990163 0.24799189 -0.27184886 -0.17977074 -0.18267801 -0.101924494 -0.083005555 -0.3441671 0.14049047 0.054750577 0.2749203 -0.45810536 -0.39318156 -0.037510764 -0.27499667 -0.049077846 -0.11528126 -0.3372675 0.037913978 0.51274186 0.057752125 0.06998528
君 -0.42275107 0.2633806 0.012536629 -0.05686051 -0.058319908 0.5498095 -0.44965622 -0.17611519 -0.095876716 0.16523638 0.13397375 -0.0458058 0.294466 -0.19312865 -0.05593873 0.032388844 0.68320036 -0.34829518 -0.1574662 0.056412373 -0.006306679 0.19374412 -0.09872866 0.007603463 0.00694853 0.050435588 -0.46224642 0.09631222 -0.32272643 0.37851056 0.042984948 -0.12649293 0.10074822 -0.19466117 0.03149144 -0.040541623 0.26853272 0.006149075 -0.008609195 -0.2686692 -0.06690209 0.15657137 0.076195 -0.32885066 0.19984226 -0.14584765 0.13075608 0.3261532 -0.2589229 -0.6798575
乎 -0.4202678 0.11326334 -0.051805556 -0.2645971 0.20409125 0.11706382 -0.022760093 0.16961455 0.048108768 0.059342258 -0.60582143 -0.11295545 -0.079900615 -0.2637626 -0.16962054 -0.23793884 0.77134717 -0.22266985 0.21930806 -0.08748043 0.14006975 -0.042321637 0.19210322 -0.03682287 0.20557278 -0.38973847 0.022438755 -0.23280437 -0.3135883 0.5056821 0.19012058 0.22148947 0.05553739 0.06011009 0.33685434 -0.074218206 -0.2768798 -0.0063223024 -0.07261618 -0.31148252 -0.10283789 0.13827315 0.13730113 0.29547796 -0.2748059 0.34970978 0.10026309 0.21953997 -0.062817134 0.046337914
可 -0.9387016 -0.40208405 0.023312524 0.07383355 0.19956674 -0.24122201 0.20259824 -0.17767206 -0.14462735 0.23191643 0.037246514 -0.11676499 -0.20629829 0.062512815 0.11603182 -0.42930362 0.23935907 0.30176216 0.10404252 -0.27943927 0.0052345702 0.27003798 0.28113446 0.27248904 -0.11541235 -0.06411463 -0.45672837 -0.0072157765 0.37707806 0.35635656 -0.097080156 0.2333663 0.07966291 0.5414443 0.11736758 0.15700316 0.5588455 0.12394166 0.12084031 0.038668606 -0.24572873 0.22378919 -0.07467046 -0.23615526 0.1183582 -0.095873944 0.08031999 0.064435184 0.075387426 0.24868648
如 -0.7496115 -0.053762536 0.3944496 -0.22549643 -0.022455918 -0.30869502 0.006030319 0.010456864 -0.024022857 -0.12508465 0.0802097 0.109797165 0.042170662 0.15491994 -0.448137 0.30468544 0.4411546 -0.3280937 0.054107353 -0.19800006 -0.023620611 0.3702905 0.547137 -0.114105724 -0.1950135 0.20902792 0.049034636 0.28304216 -0.23554398 0.20859008 0.095908396 -0.024514312 -0.1351458 0.36231932 0.023018474 -0.40478957 -0.014684881 -0.3190563 0.012775831 -0.31046677 0.21775669 0.07344432 -0.062302016 0.17002715 0.047255546 -0.29959664 -0.30434692 -0.2791988 -0.22223367 -0.19451863
与 -0.6142399 -0.09678007 -0.0019744465 0.4020328 -0.2174525 0.13905816 -0.010396448 -0.023730248 -0.1062675 -0.006141749 -0.36652783 0.14425533 0.21287736 -0.66155267 -0.2112228 0.39776787 0.41827103 -0.17158657 0.07767967 0.013410681 0.11244784 0.46277657 0.20206533 0.1666531 0.07972992 0.040354576 -0.27044228 -0.10846772 0.28991088 0.013959921 -0.6507978 -0.115217544 0.11508634 0.31306463 -0.05534779 0.048465896 0.19280477 -0.06575761 -0.46648863 -0.122942924 0.04637889 0.11419188 -0.49226853 0.44248697 -0.13512091 -0.108557105 -0.04730863 0.0054266592 -0.2202392 0.53521967
； -1.4369897 -0.100347176 -0.18260792 0.15468806 -0.047940638 0.34509587 -0.15154463 -0.19793813 0.17150117 -0.01866207 -0.16230917 0.3424133 -0.02573809 -0.30576017 -0.15704258 -0.17612915 -0.03329186 -0.11968469 0.11179949 -0.09210533 0.3254156 -0.22598264 0.02143584 -0.2996125 0.033565693 0.21040684 0.049208924 -0.00460237 -0.20342587 -0.19697301 0.33723816 0.028436169 -0.13690206 -0.07895847 -0.15242423 0.025855815 0.10773786 0.560956 0.2870093 0.62679195 -0.1222844 0.26150084 0.4086537 -0.13626215 0.20048203 -0.08506403 0.010464184 0.12453871 -0.14558083 -0.24214737
言 -0.76880956 -0.10071422 -0.33431357 -0.26676115 0.01096547 -0.034504946 0.08988819 0.33608916 0.20240149 0.02290751 0.019744184 0.004652765 -0.19582446 -0.5015847 0.19026706 -0.07011278 0.27655792 0.118521884 0.05079758 0.11110105 0.25688636 0.18532911 -0.0076682866 -0.22483833 -0.11763669 -0.2109982 -0.4152767 -0.20095119 0.19528575 -0.19242415 -0.3348715 0.15932745 0.17263012 0.1843788 -0.5217494 -0.046121713 -0.20179564 0.3013177 -0.16327262 -0.20313428 0.09515465 0.09434176 0.061023846 -0.087537445 -0.30944657 -0.120531246 0.13067433 0.1498226 -0.33643928 0.3424299
无 -0.98557526 -0.14588366 0.06059301 -0.4956162 -0.15259486 0.041786745 0.29892367 0.11380417 0.028091745 0.04086658 0.18501738 -0.17284791 0.1716991 -0.27772504 0.57164955 0.0005977907 0.27995595 -0.046591114 -0.0023304666 0.14724734 0.09578189 -0.37192085 0.15042765 0.25179526 -0.08930661 0.24294707 0.07682783 -0.22013089 -0.1445637 0.06527205 -0.44433284 -0.018524466 -0.09058049 -0.09084786 0.0093251895 -0.14073025 0.115738876 -0.11961725 0.1040989 -0.10892061 0.029403996 0.13087843 0.36162502 -0.099707425 0.3757738 0.24076183 -0.009710285 0.5014935 0.034781776 -0.00869281
则 -1.002465 0.032725066 0.07225168 -0.085670695 0.41202885 0.291066 0.2184983 0.04635242 0.018518863 -0.25318697 -0.14938135 -0.09688255 0.008986023 0.15637271 -0.24335434 0.3630724 0.11592527 0.22163019 -0.3399419 0.018060215 -0.2937148 -0.030910697 -0.10114009 -0.011502202 -0.055106003 0.20420672 0.10568841 0.27380222 0.2424898 -0.37690693 0.047615837 0.2314148 -0.22773147 -0.16400304 0.2517123 -0.32359833 0.14103666 0.099724635 0.0103150355 -0.40049407 -0.14921194 0.2830494 0.0002665324 -0.18761578 -0.0017698109 0.07755322 -0.2640958 0.39159617 0.10640272 -0.15145357
！ -0.361138 0.36399323 0.27833787 0.19824766 0.20190923 0.131479 -0.31376857 0.5594227 0.25354183 0.17028457 -0.47978583 -0.27401364 -0.15562247 -0.55860966 -0.18106247 -0.094137885 0.9585629 -0.03241919 0.1841842 -0.05846706 0.0683439 0.32919952 0.107110016 -0.014697135 -0.0815158 0.085482255 0.4292295 0.0065556616 -0.24843803 0.14361961 -0.15439713 -0.102401584 -0.24172519 -0.27796188 0.12678537 0.31675783 0.08800225 0.2342224 -0.09176186 0.38385233 -0.30115172 0.3703206 0.08835244 0.15137014 -0.16815011 -0.036998544 0.24322045 0.21800476 -0.1299978 0.0005223055
问 -0.018898884 0.05356539 -0.49512136 -0.060702216 0.24329907 0.2557362 -0.23511207 0.018797908 0.48006624 0.21635789 0.07441374 0.43068543 0.2002768 0.024676077 -0.036892436 -0.079056785 1.1354853 0.2806492 0.09961152 0.06287146 0.0052079777 -0.024794884 0.15781099 -0.16870525 0.05381595 0.35387492 0.2416524 -0.20821191 0.05484982 -0.17977852 0.17108625 -0.3576815 0.13326682 0.23663548 0.13693492 -0.30250242 0.35892898 0.14583808 -0.2146032 -0.6090126 -0.23577344 -0.1813521 -0.10801778 0.036686502 -0.3646496 0.57952464 -0.06306291 -0.12185823 -0.22930123 0.2181241
知 -0.6948269 0.16911183 -0.25491872 -0.2508303 0.20063819 -0.20715709 0.16490534 0.20276052 0.081535 0.03769038 -0.02181286 -0.025599314 0.030764757 -0.32555756 -0.10412341 -0.40492675 0.3671949 0.12441543 -0.1276195 -0.27230626 -0.45564702 0.10529525 0.068597935 0.074197546 -0.314974 -0.1960157 -0.04763444 -0.09459465 0.0017809138 0.15882544 -0.6356463 -0.2094699 0.04451852 0.06763354 0.252296 -0.44462302 0.28662667 0.016890775 0.1601562 -0.04636112 -0.13081786 -0.06901223 -0.03735029 -0.2381268 -0.20487581 -0.20474616 -0.23620847 -0.23801246 0.19451913 -0.13235536
何 -0.5108284 0.17040087 0.16953714 0.025502853 -0.057703108 -0.62295777 0.09743559 0.2573244 -0.18296577 -0.08730338 0.2932914 -0.14027166 -0.051394537 -0.47278857 -0.41914153 -0.0773161 0.7388468 0.09752295 0.112348296 -0.02934177 0.02946749 -0.43305367 0.19663353 -0.10860722 -0.16032715 0.30281472 0.22038095 0.23439625 -0.5833858 0.5043937 0.20194456 0.0031936958 0.14033772 0.28944865 -0.032609332 0.17855872 0.28153396 -0.07811665 0.051543854 -0.22641349 -0.020546434 -0.08323527 0.14507705 -0.02694512 0.051471233 0.031629488 -0.09484859 0.14872605 -0.18258479 0.2764306
吾 -0.460946 -0.02241541 0.28439233 -0.04517739 0.1895554 0.31208724 -0.07108078 0.4150552 0.17456375 -0.45947453 -0.2212409 -0.05142769 -0.24927615 -0.3871204 -0.31339493 -0.36720172 0.39901498 -0.19781676 0.04145406 -0.007085581 0.16865811 -0.21778046 0.31390828 0.33885777 0.30338797 0.49292064 -0.15458527 -0.030063212 0.24706385 -0.07264633 -0.20290847 0.3609802 -0.13872229 -0.21439756 0.074174136 -0.008848474 0.30585405 0.024165016 0.07276687 -0.0065698526 0.35016787 -0.22418989 0.19401798 -0.069690995 0.018166129 -0.3465123 -0.2101012 0.16587618 -0.023446541 0.050435137
仁 -0.53024644 -0.0006340871 0.024162034 -0.35316116 0.14969495 0.2379741 0.03763366 -0.05608975 0.07005966 0.06056423 0.46286017 0.0076467292 -0.06456306 -0.26483554 -0.075308405 -0.63890225 0.49600685 0.0565096 0.30633736 -0.2624919 0.059876908 0.062214524 -0.09746827 -0.07930136 -0.40482593 -0.34083992 0.35644537 0.3237122 0.034700368 -0.15929683 -0.29012954 -0.2610171 0.017126087 0.027002273 0.18590778 0.2493415 0.4280041 -0.09129757 0.05355136 -0.27906135 -0.098160535 -0.55344754 0.07438903 0.05472535 -0.36260504 0.4077165 -0.16751805 0.029063039 -0.17307723 -0.052885763
夫 -0.3757192 -0.04068985 0.024625653 -0.18195732 0.029044347 0.31488514 -0.14611085 -0.37201473 0.02069705 -0.24117884 -0.3802453 -0.042783782 -0.13559334 -0.31961745 0.028618308 0.14372844 0.78096044 -0.4002226 0.041046534 0.08392277 0.09037663 -0.08274876 0.26484486 -0.34196487 0.5120109 0.1565144 0.021219505 0.13218631 0.30204287 0.102623686 -0.40797597 0.06963202 -0.12447472 0.4556809 -0.31371802 0.14193167 0.45474526 -0.32689685 0.30167687 0.3071213 0.12539619 0.1987824 0.054836195 -0.09354766 0.28012672 -0.039212402 0.122383825 -0.09010548 0.23412387 -0.37033397
、 -0.80643594 -0.41263607 0.43765703 -0.4551584 0.33572394 -0.16047277 -0.6555209 0.6584669 -0.14398713 0.01051298 -0.41224363 0.45554194 0.44306374 0.060228024 -0.14812855 0.29549566 0.7195371 0.31239182 0.050112553 -0.3684053 0.7538237 -0.22737435 -0.07030955 -0.1331587 0.47467318 0.0691883 0.24982014 0.1438782 0.29447722 -0.30286148 0.32638422 -0.7796992 0.39807406 0.08011964 -0.6192567 -0.09525122 -0.25514185 -0.07253153 0.163431 -0.08297653 -0.16571555 0.30797789 -0.077141106 0.2804019 -0.02233088 0.03340466 -0.3018692 0.08216322 0.32231492 -0.057681013
道 -0.7034626 0.1440092 -0.08553195 0.027130172 0.026388528 0.03731589 0.10308969 0.36543465 -0.37470093 0.027343739 0.17529002 0.3480843 0.18042159 -0.43739977 0.4651894 0.41114232 0.31327817 -0.13903919 -0.31038693 -0.23806588 -0.29705086 0.32677197 -0.08495902 0.04292121 -0.19242771 0.47823274 -0.2698287 0.05429606 0.30721414 0.29325762 -0.04681183 0.18989581 -0.29162532 0.0577356 -0.035854846 -0.07355922 0.03512199 0.23836376 0.33419856 0.032719098 -0.11347264 -0.10013913 -0.25182575 0.006283626 -0.24815887 0.1016882 0.35295364 0.39807653 0.04807579 0.0562806
焉 -0.7195793 0.105161 0.08444658 -0.45783645 0.07384824 -0.014199442 -0.19853157 -0.4827502 -0.5328509 0.3978053 0.12783322 -0.23995024 -0.0046855593 -0.40436238 0.095215015 -0.03292018 0.45720282 -0.15218453 -0.35672075 -0.18628235 -0.2368268 -0.5862723 -0.12515323 0.14534928 -0.08182861 -0.2871912 0.03757912 0.18618123 0.1146184 -0.32574958 0.27636877 0.034903355 -0.18300508 0.3178178 0.7084877 -0.11015026 0.2279982 -0.54536635 0.020586357 0.06799646 -0.10483187 0.21397792 0.118990004 0.05019942 -0.20978194 -0.21861476 0.15690085 0.14571759 -0.17808828 0.40649742
行 -0.5511776 0.11973897 -0.0010025104 -0.29779005 0.25769338 0.4224384 -0.3493377 0.57225144 0.19207105 -0.030916497 0.21684837 -0.14044689 0.41759905 -0.17488252 -0.035568 -0.17789707 0.3246959 -0.15943302 -0.3339004 0.040269777 0.1600509 -0.094808154 -0.29736698 -0.25510836 -0.010702987 0.19006354 -0.24754445 -0.295712 0.2202656 0.058478825 -0.097431004 0.06906916 -0.21402235 0.48611975 0.05488817 0.2646999 0.45944396 0.195804 -0.46950415 0.02659053 0.10077839 -0.10115713 -0.07686192 -0.27230093 0.40925178 0.42093235 0.07960781 0.027362132 0.0033501056 0.18027492
谓 -0.38795918 -0.003917937 -0.077523485 -0.049778257 -0.32283014 -0.28201708 -0.19195917 -0.20133515 -0.2570356 0.012047541 -0.3160277 -0.2002545 -0.05561793 -0.1940366 0.24293809 0.12917982 0.91708004 0.5450642 -0.4854896 -0.26752844 -0.0829545 0.38166073 0.2563085 -0.030679617 0.01613843 -0.02864046 0.0036901834 0.02924667 -0.1282893 0.045476936 0.03671504 -0.3862098 0.047982614 0.7054076 -0.11358422 -0.32242134 0.5342725 0.14484312 0.14133057 -0.23396039 -0.05184831 -0.19578426 0.7362039 0.22822864 0.13860375 -0.26380226 0.21054687 -0.2789016 -0.2320335 -0.069513105
必 -0.8564862 0.2674908 -0.17883745 -0.6490302 -0.30920103 -0.23554583 0.16546336 -0.3257124 0.32317147 -0.010922465 -0.052739006 0.26549372 0.6316669 0.22500056 -0.05626748 0.13098317 0.26867095 0.24093555 -0.15731473 0.2803601 -0.0812714 -0.019380385 -0.72253346 -0.024029154 -0.11466858 0.16816396 0.23391105 0.4544147 0.241863 0.087109186 0.01985478 0.10717824 -0.036889814 0.42775658 -0.019918093 0.4629127 0.07375932 0.112037264 -0.017578328 0.07851972 0.04235797 0.19764014 0.060959656 0.23121609 0.0650094 -0.03238648 -0.05704051 0.024939118 -0.1308526 0.14576675
礼 -0.7678482 -0.16093324 0.023781449 -0.17766015 -0.1287531 0.6337435 0.23643921 -0.0026200078 -0.09055095 -0.07277334 -0.31335622 -0.41751957 0.21912113 -0.011696882 0.35743827 -0.32078663 0.18529944 0.056760337 0.3586789 -0.611535 0.035477057 0.35838917 -0.21948032 0.29898927 0.046642434 0.31906044 -0.2105171 0.047163524 -0.10063269 0.0047396673 0.40393153 0.12028582 0.07196166 -0.028152468 0.06814632 -0.38923633 -0.0486508 -0.07326581 0.28152025 -0.7194407 -0.5790993 0.28977108 0.21260048 0.12054854 0.061998017 0.08189603 -0.35446888 -0.09038047 -0.013985087 -0.076746896
孔 -0.16668239 -0.21888287 -0.33800372 0.33261555 -0.2800931 -0.11409057 -0.058121357 0.2388391 0.14531815 0.115718484 0.05714012 0.07934771 0.05788896 -0.74199367 -0.1577983 0.37500829 1.2344892 -0.041583505 -0.31173065 -0.19409251 -0.40503737 -0.24426465 -0.2226969 0.4426239 -0.4026834 0.15395144 -0.33487725 -0.31862938 0.40641487 0.2248438 0.037990794 -0.3023382 -0.04092647 -0.4229137 0.17127934 -0.3802955 0.5444556 -0.5851773 0.29199037 -0.2016891 0.28677192 -0.41158736 0.40174508 -0.093620256 -0.087291434 0.22520636 -0.037930306 -0.36082986 -0.07820396 -0.14983067
斯 -0.6728959 0.07639093 -0.113677256 -0.26154888 -0.040623467 -0.017170526 -0.21760248 -0.28856972 -0.10350244 -0.07589874 -0.26646182 -0.04910399 -0.49587956 0.025449676 -0.048013605 0.07489621 0.47691375 -0.49619046 0.29054862 0.19116631 0.071579374 -0.047957934 0.13546127 0.27049276 0.081697606 -0.09676408 0.4263798 -0.09749638 0.31785223 0.54584795 0.32795137 0.069856115 -0.2844275 0.48345473 0.08367322 0.2658896 1.0522789 0.09143547 -0.33943078 0.023247944 -0.18525122 -0.3126188 0.050945964 -0.53941023 -0.10548548 0.20544483 -0.26631078 -0.17539491 0.028728684 -0.09043027
三 -0.6757346 -0.09093136 0.40122095 -0.13165787 0.3300411 0.13367708 0.16574092 -0.05697448 0.22074956 0.47457913 -0.020297429 -0.3084244 0.21670279 -0.033151988 0.16488154 -0.03928882 0.5814894 -0.4272116 0.3615205 0.00087900046 -0.36307582 -0.36747643 0.20666361 0.1662373 -0.24942555 0.2823512 0.32491904 0.3438716 0.47402644 0.4983985 -0.20431148 0.20306042 0.38691875 -0.08804685 -0.24777982 -0.019083565 0.0538092 0.3316881 0.29077792 -0.22366527 -0.27617815 0.08231121 -0.24796288 -0.41097432 -0.18358766 0.036558256 0.5909128 -0.45466498 0.12930958 -0.21767204
能 -0.782125 0.07835378 -0.004116172 -0.24922052 0.16010241 0.19783847 0.31328583 -0.20848092 -0.21189483 -0.25845563 -0.052929595 -0.3110329 0.11196857 -0.33182058 -0.17807761 0.061022107 0.21051562 -0.37015703 -0.23739207 0.05069561 -0.28849205 0.12010803 0.13166355 0.2068789 0.11148081 0.036595542 -0.17843999 0.020542683 -0.24554944 -0.4536763 0.5565063 -0.26185974 -0.19429475 -0.053265844 0.33728504 0.068846 0.09869341 0.10343967 -0.16203345 -0.37821445 0.0041751876 0.17911154 0.08547012 -0.20920329 -0.42346752 -0.0021943757 0.14916162 -0.15590446 0.14051911 0.20217134
见 -0.70079756 -0.24801105 0.25277412 -0.34159678 0.31929427 -0.30950323 -0.1355133 -0.3024426 0.11674169 0.30352443 -0.2585879 0.15591878 -0.10481426 -0.59401685 -0.22493717 0.02157776 0.44452843 0.069295846 -0.15164216 -0.022281773 0.27278307 0.39970735 0.14520372 -0.11398466 -0.24378818 0.5477962 -0.028676152 0.064488895 0.14052066 -0.37846193 0.05113359 0.061881877 0.59263015 -0.6592475 0.63455284 0.09735472 0.24949743 0.25248784 -0.29468682 0.15156901 0.5366369 -0.55958176 0.12307479 0.14531766 -0.18142995 0.36621484 0.2485909 0.0204049 -0.3404669 -0.30213767
学 -0.62062764 0.09452264 0.30721107 0.18959703 -0.5389703 -0.06647044 -0.03322137 0.26088956 -0.18314745 0.47678977 -0.24309462 -0.32603434 0.24998079 -0.28450498 -0.17275679 -0.03567296 0.36241356 0.07420114 0.20303337 -0.22349063 0.04132258 0.5716976 -0.28167173 -0.21685205 -0.26399323 -0.40944406 -0.14713693 -0.069000185 0.19965339 -0.59192556 -0.2019121 0.26241347 -0.5751241 0.08755536 -0.11949149 0.26984447 0.26938504 0.04327403 -0.25400722 -0.29374945 -0.46656618 -0.304583 0.3681205 -0.5186355 0.053545285 0.19267143 -0.43675008 0.093181446 0.19363807 -0.45618522
事 -0.63537884 -0.07862981 0.2562406 -0.20572583 -0.1970682 0.5284602 -0.4289675 -0.56190246 -0.6986546 0.06616427 -0.026770217 0.4682337 -0.107998125 -0.19730282 0.08738292 -0.19698577 0.4326802 0.25009757 -0.31886673 0.55168 0.102305844 0.0030021754 0.11223196 0.06805908 0.023930334 0.4804642 -0.3035659 -0.42308214 0.043838385 -0.14982294 0.54289 0.10362519 -0.157698 -0.0941064 -0.0764556 -0.46693933 0.37726524 0.26127318 0.2702292 -0.22906668 -0.15892479 -0.3159367 -0.32302713 0.47298422 -0.22601521 0.44709125 0.072669595 0.2956049 -0.23941967 -0.07058983
是 -0.5706415 -0.33364508 0.036536213 -0.09919489 -0.12524179 -0.13813202 0.39637062 -0.042816676 0.27060023 -0.1139876 0.34826744 -0.37970683 0.08525229 -0.3213163 0.20835051 -0.00431242 0.58296967 -0.029417017 -0.20856586 0.28911087 -0.21270612 0.18382312 0.2506316 -0.0950511 -0.44059017 0.11854106 0.08507207 -0.12690493 -0.11368693 0.07839539 -0.016090602 0.44315067 -0.39021972 -0.25679502 -0.14044398 -0.06038773 0.384041 -0.17161706 0.55947083 -0.03599451 -0.26205328 0.051948167 0.2474699 0.44901264 -0.4308866 -0.32458082 -0.023963023 -0.0015039078 -0.26054984 0.82107717
哉 -0.33218196 -0.17697261 -0.13891317 -0.35136908 0.61922145 0.22700126 0.013396054 0.33789983 -0.2858976 0.20532408 -0.12628487 -0.58056915 -0.08149963 -0.36648577 -0.34412247 0.24973463 1.1380707 0.087430246 0.23373465 0.20513244 -0.20288211 0.16390945 -0.0729016 -0.30390522 0.4663278 0.34062898 0.08498874 -0.1661345 -0.13392167 0.15088712 0.02133836 -0.072284564 -0.5736112 0.0031621507 0.26490602 0.14532883 -0.066990435 -0.13930446 -0.15831617 -0.16590057 0.07057611 0.35684016 0.30330124 0.007905967 -0.3398626 -0.041099418 0.18352394 0.16903473 -0.19433762 0.5226565
闻 -0.42524865 -0.34181476 -0.29299787 -0.38031334 0.12349949 -0.048822477 0.28043482 -0.1324025 0.09335177 0.02431744 -0.048697226 -0.1224336 0.46083125 -0.38355005 -0.41109744 0.24540828 0.58848685 -0.4989849 -0.28669494 0.085503295 0.4762932 -0.136234 -0.047437124 0.37633124 0.39886343 -0.00031954338 -0.1209993 0.08696849 -0.021688253 -0.11938022 0.05588676 0.3894502 0.32926172 0.19034933 -0.08808265 0.21008821 0.36465037 0.3910455 -0.48239785 -0.23724405 -0.5153221 -0.5600424 -0.073482975 -0.924102 -0.24628782 -0.1965916 0.02508652 0.21195889 -0.46073517 -0.06294102
未 -0.39686987 -0.08993869 0.26200497 -0.4520075 0.02855715 -0.07400705 0.26879063 -0.28080225 -0.0073086857 0.27686545 -0.39959407 0.2345649 0.31055647 -0.30816758 -0.30035743 -0.23597297 0.40717107 -0.062027816 -0.40140676 0.013433313 -0.13677852 0.19474575 -0.33469698 0.47851998 -0.26581052 0.47145572 -0.117040075 -0.1601042 0.48065487 -0.056721553 0.16683488 -0.08430622 -0.48945007 0.12669809 0.08039577 0.061149385 0.3132311 0.38856632 -0.09299356 0.024534162 0.19208965 0.07621614 0.30489385 -0.01692808 -0.3691212 0.39333642 0.22401808 -0.10122862 -0.2552218 0.079997264
公 -0.22185408 0.42279586 -0.20313956 0.3670324 0.20865601 -0.32438353 0.061473075 0.08659752 0.47268367 -0.16484742 -0.049511053 0.414878 -0.123641975 -0.0651794 0.016779723 -0.102567494 1.0151359 0.36645034 -0.37054592 -0.13651562 0.44478258 -0.24718721 -0.5030889 0.18060586 0.18847339 0.2355909 -0.60997313 -0.2687166 0.34858233 0.11758141 0.7384771 -0.17923263 0.052992117 -0.30415493 0.18212399 -0.0947147 0.39011583 -0.43057576 -0.29461482 -0.515467 -0.45276257 0.18097411 -0.050700676 0.18335228 0.31967422 -0.17919359 0.13639984 -0.7126853 0.22178431 -0.1793638
好 -1.0692254 -0.06395281 0.652233 -0.09995986 -0.22197087 -0.1740139 0.3039006 -0.10626082 -0.26155773 0.18073404 -0.058507327 0.0036643695 0.4578192 -0.20900546 -0.2337169 0.011171314 0.26286042 -0.051846713 0.06583017 -0.08055708 0.02819162 0.57653904 -0.1241333 0.028529493 0.3238185 0.088631816 -0.06555845 -0.26137602 0.031828903 -0.27585432 0.14029554 -0.49375778 -0.49128512 -0.19694722 0.71522266 -0.17365456 0.32412705 0.463683 0.28796607 -0.11741737 0.27843994 -0.14509475 0.32996657 -0.35081843 0.23412298 -0.35536346 -0.1778357 -0.18043645 -0.15386027 -0.06349756
我 -0.41889817 0.013916443 0.5913966 -0.43755633 0.1385727 0.537166 0.6842915 -0.069908336 -0.042672697 0.05084316 -0.26331633 -0.11331161 -0.15093973 -0.39351922 -0.424801 0.3168125 0.6760746 0.16922389 0.18302123 0.12645848 0.13748999 -0.093252026 -0.070104346 -0.3821227 -0.16824605 0.33720273 0.33293426 -0.53229064 0.335545 -0.13058552 0.005731312 0.16978711 -0.17758127 0.17079577 -0.12841477 -0.12508157 0.07701977 -0.5668297 0.3213796 -0.045564875 -0.08394679 -0.19614857 -0.06397024 -0.10867365 -0.18360385 0.027785406 -0.12387011 -0.08537466 -0.047428705 0.0393768
路 -0.07714547 0.028910676 0.043055147 0.19050093 0.28825235 0.18734652 -0.12421473 -0.20758851 0.087236166 -0.16312672 -0.43417355 0.05193858 0.615129 -0.335124 0.2639717 -0.23308982 1.1480284 -0.5696447 -0.5210354 0.3848495 0.15424494 -0.52093273 -0.024207046 0.21222937 0.17353249 -0.21108337 0.26508704 -0.13184811 0.5479142 -0.09448852 0.120481625 -0.13183793 -0.5205382 -0.09566556 0.026832383 0.014230624 0.9195248 0.0003171952 -0.13763683 -0.20178722 0.14690469 -0.020457191 -0.6884948 0.36321592 -0.048487358 0.14517134 -0.13179262 -0.06538445 0.38442358 -0.21470155
在 -0.7941268 0.33082908 -0.19080323 -0.3260006 -0.011020354 -0.3492219 -0.3631411 0.50870836 -0.29112482 -0.48160908 0.44121563 0.22474232 0.15164521 0.23097983 -0.24425523 0.3210037 0.30581096 -0.16801497 -0.31257644 0.11535578 0.70229536 0.31435177 -0.3843819 0.13180672 0.23340279 0.17331742 -0.08635535 -0.025989853 -0.18098167 -0.21999969 0.07496193 0.65907514 0.076919205 0.067959525 -0.16526732 0.27686685 0.3528891 0.056851935 -0.10412796 -0.15513492 0.40048447 -0.034486435 0.47591838 0.21312825 0.049078893 0.03880232 0.25883928 0.2954468 -0.45930234 -0.19936173
已 -0.64578587 0.18403755 0.4300991 -0.39929378 -0.43138248 -0.49542165 0.114478305 0.10273539 0.080452375 0.7865062 0.18595871 -0.07363177 -0.37574697 0.01868576 -0.10528175 0.12958619 0.8472518 0.030509239 -0.33330685 0.06667949 0.66672266 0.4403937 0.04252511 -0.16073924 0.5992201 -0.46382454 -0.061078526 0.2595679 -0.22223367 0.459732 -0.07558311 -0.039212614 -0.4400272 0.11142358 0.20460027 0.060864575 0.8068558 0.18566687 -0.6967896 0.0012595223 -0.5430854 -0.12264061 0.56776655 0.053840086 -0.14946409 0.07963046 0.45550412 -0.22895241 0.37262523 -0.13865963
得 -0.67738706 0.53037536 0.052158795 -0.21866512 0.18912657 -0.131909 0.12835419 -0.054949675 -0.05152495 0.33565265 0.013181701 0.06846085 -0.13311079 -0.30783722 -0.13903573 -0.5973395 0.24682254 -0.29264474 -0.47015303 -0.3602295 -0.07371482 -0.01979183 -0.026658732 0.08439967 0.37664118 0.32933974 0.11564844 0.35319957 0.44618222 -0.2693837 -0.39506114 0.081144415 0.14213462 -0.10795142 0.1288124 0.033326764 0.26474372 0.3788123 -0.27949455 -0.023081748 -0.19692601 -0.1483707 0.15680699 0.108512275 0.21938787 0.4020578 0.047310427 0.64446837 -0.048218865 0.12392192
所 -0.91266763 0.065078646 0.2796009 -0.5468729 -0.22567725 0.025230737 0.5336673 0.14638415 0.033653572 0.16601709 -0.3497871 -0.2089605 -0.0874872 -0.051305797 0.42332298 -0.35802782 0.12708876 -0.5242363 0.5476751 -0.21311744 -0.34563443 -0.27249452 0.12425703 0.27465215 -0.06320766 -0.0017191154 -0.1998754 -0.007407463 -0.23721571 -0.11719898 -0.36058134 0.19086587 0.18978827 0.023267962 0.21696052 -0.106882505 0.42503005 -0.19167407 0.2413256 -0.04082488 0.2046447 -0.09208956 0.30732933 0.13335615 0.15703979 -0.21050692 0.27341703 -0.0038256429 -0.3173083 -0.14806175
民 -0.98092633 -0.20691259 0.2003448 -0.3345952 0.28636375 -0.12208267 -0.08074216 0.7117674 -0.6359747 0.4933862 0.21268834 -0.31540135 -0.35644788 0.053071197 0.252425 0.16884235 0.17154986 -0.103421085 0.24430847 0.18484798 -0.43097305 0.17329334 0.15523331 -0.32054973 -0.17070602 0.1797533 0.027239202 -0.19226629 0.027481645 -0.23249894 0.4116659 -0.09794738 -0.41240075 -0.3422662 -0.24192259 0.09341039 0.6474132 -0.14805399 0.48301005 -0.10286578 -0.15673666 0.30366293 0.33705404 -0.13937373 -0.20270295 0.8699753 0.28160363 0.097055614 0.27375636 0.08886725
小 -0.8029075 0.20342124 -0.26456186 -0.2707846 -0.1728022 -0.22868168 -0.42706794 -0.5131195 0.29164517 0.1853572 0.051301572 -0.2560038 0.02502132 -0.48262286 -0.16456898 0.24135607 0.4970271 0.09282742 0.11358961 0.073447526 -0.30415022 0.29024777 -0.079222985 -0.04705962 0.3864605 0.535963 -0.03837108 -0.7298821 -0.12028304 -0.057280116 -0.5472572 -0.22333448 0.26207653 0.07892485 0.22042122 -0.086015426 -0.2550578 -0.20655419 0.21821931 -0.21392637 0.03076636 0.2944455 0.1627012 -0.17772248 0.28995022 0.102449514 -0.3371388 0.370028 0.2832847 -0.25378194
天 -0.890231 0.65108687 0.15074274 -0.11024832 0.72530115 -0.0054510133 0.03682211 0.43755132 -0.3969297 -0.21275036 0.1050166 0.08934033 -0.47848025 -0.44810623 0.5074358 0.28909454 0.536753 -0.38110495 0.054811183 -0.3359175 -0.31209517 0.24368209 -0.3810746 -0.20188653 -0.37511942 -0.054797012 0.17421028 -0.2556132 -0.012975197 0.56821096 -0.47045046 -0.05620985 0.43402678 -0.13678896 -0.4794274 0.22109886 0.31550047 -0.2990352 0.08186907 -0.19024856 -0.046691313 0.22125126 0.16390683 0.57105815 0.18129387 -0.116128765 -0.116303205 -0.09049539 0.45459294 -0.13305041
乐 -0.76975226 -0.61555976 -0.14698379 -0.46881056 -0.17212355 0.29671913 0.44511616 -0.07368761 0.0074762353 -0.26231948 -0.022069467 -0.3774916 0.5544987 -0.19488165 -0.54281414 -0.47599322 0.3073998 -0.24371186 0.08499307 -0.45903674 0.29915977 0.27698267 -0.5738743 0.32969356 0.36764166 -0.045466155 0.41008106 0.13600522 -0.075361766 0.46350634 -0.032734115 -0.2164817 0.08528269 -0.072323374 -0.2848566 -0.099371865 0.16623949 -0.27668738 0.20530131 -0.5163462 -0.26182467 0.44876114 0.53442633 -0.014173346 0.051043574 -0.19012554 0.38495016 -0.10420196 0.38392484 0.13257425
邦 -0.7807468 0.05169098 -0.64819866 -0.45399877 0.17216393 -0.21461973 0.05864885 0.28146067 0.27044016 0.2158474 -0.21832387 -0.17922391 0.33897126 -0.23581415 0.37977943 0.3359398 0.28638723 -0.41060746 -0.38705274 0.29427525 0.31155407 0.15421596 0.24162406 0.34021103 -0.18685867 0.2856237 0.021956714 -0.38168874 0.012848316 0.13083775 -0.092403956 0.27507707 0.5413496 0.08222692 0.032920197 -0.006831134 0.1276218 -0.16219343 -0.32222015 -0.3639395 -0.65510976 0.09297739 -0.24160033 -0.13616711 0.59935206 -0.1285126 -0.36001223 0.8337797 -0.080019064 -0.55152035
亦 -1.1184745 -0.078232326 -0.3368487 -0.3102605 -0.023932137 0.27166355 -0.04087314 -0.3518971 0.019641344 0.50153434 -0.47687876 -0.40822962 -0.29975697 -0.29087362 -0.2071191 -0.018215101 0.27461758 -0.009507258 -0.16004725 -0.20158716 -0.26423988 -0.26136914 -0.15772243 -0.38955793 -0.15665528 -0.40437087 -0.097010404 -0.20173359 0.15054463 1.079825 0.47752422 -0.09673363 -0.39480653 -0.2752086 -0.40764576 0.25983492 0.15643579 0.017113639 -0.13627005 -0.57251984 -0.13804224 -0.08229044 -0.38860977 -0.11941099 -0.096434996 -0.5490899 -0.2461578 0.76465887 -0.289816 0.08307427
使 -0.847476 -0.4288472 -0.01993442 -0.42058057 0.52385235 -0.4959535 -0.08651981 0.07905137 0.11659848 0.2591819 0.036502123 -0.5880622 0.24732332 0.06995929 0.11678895 0.4463271 0.33226016 0.37702754 0.2809077 0.23240605 0.13837878 0.08003497 -0.017076427 -0.52512467 0.14095804 0.3043893 -0.4178752 -0.16340822 -0.4430776 0.16709122 0.5844622 -0.49641043 0.3077509 -0.06729548 -0.12812243 0.3884419 0.8220967 0.20582147 -0.043006238 -0.18772392 -0.18183789 -0.08415515 -0.6166237 -0.24770707 -0.12864475 0.4570732 -0.24887942 -0.009037527 0.063986406 -0.008405922
大 -0.5376998 0.3329291 0.2422335 0.008239559 0.462487 0.09548675 -0.3056847 -0.31497255 -0.026203942 -0.20690681 0.27365714 -0.33275756 0.2145205 -0.28414467 0.0038430342 -0.21291555 0.210901 0.5296647 0.6662475 0.24767247 0.34827614 0.11583276 -0.23360792 -0.08189028 0.569116 0.78939205 -0.35096648 -0.10234206 0.19631706 0.044681706 -0.27175075 -0.07951735 0.3287795 0.07637544 -0.0188548 -0.3521853 0.6494676 -0.13600129 -0.04580981 0.03808102 0.29802802 0.34421387 0.2082628 0.24150643 -0.16571 -0.12878746 0.06635326 0.3987251 0.055653762 0.19008443
下 -0.9593475 0.11414398 0.08658375 -0.32922393 -0.06310724 0.08966402 -0.34351844 0.244179 -0.31691858 -0.052488126 0.17930938 0.23540094 -0.20146659 -0.096916206 0.631021 0.5535211 0.3015262 0.025336567 0.8210819 -0.3765419 -0.31966045 0.22864243 0.23440437 0.0020418814 -0.4543063 0.37297243 0.27038035 0.18450476 0.32595646 0.352985 -0.13088211 0.21583985 0.061065014 -0.30495715 -0.029749298 0.18390389 0.4828612 -0.47214457 0.15679286 -0.11032322 -0.18838124 0.12121541 0.31662545 0.4573715 0.2164926 0.06611763 -0.0013095373 0.09178523 -0.22391532 -0.20030412
贡 -0.06814395 -0.16814145 0.18509504 -0.39442483 -0.32148245 0.10496585 0.09639808 -0.3350438 -0.14469118 -0.056421835 -0.021765895 0.071690366 0.38010746 -0.15287222 0.36074683 -0.11323338 1.6081942 -0.23505965 0.3993456 0.4466905 0.50933564 -0.32310066 0.5494242 0.13960475 -0.055602953 -0.08399842 0.2068823 0.29928657 -0.032942377 -0.24419521 0.013381366 0.33926955 -0.058378946 0.45870167 0.13708042 -0.04457898 0.7651959 0.011181637 -0.1445759 -0.44487882 -0.505076 0.69678074 0.006299451 -0.25139913 0.38385865 0.25834852 -0.052354254 0.08794146 -0.43704093 0.19051966
欲 -0.69061524 -0.16871384 -0.48056048 -0.46004543 0.09634356 -0.10964573 -0.05216449 -0.31893042 0.35312545 -0.3226678 0.3092602 -0.14489017 0.083392575 -0.33464774 0.15519765 -0.44285297 0.37993526 -0.5280774 -0.23879294 -0.7596431 -0.1597656 -0.05156522 0.46376467 -0.21889815 0.3581177 0.14104818 -0.13256349 0.2959911 0.123776324 -0.5264982 -0.037148386 -0.23498383 0.14774655 0.17693998 0.32222065 0.10639612 0.022706319 -0.326486 0.19251443 -0.039618086 0.1365893 -0.0997769 0.30107787 0.5305478 -0.15752111 0.50654775 0.2986496 -0.0016951783 -0.3538419 -0.24752723
诸 -0.38273773 0.4461387 0.6690293 -0.56809324 0.13085276 -0.321027 -0.6048102 -0.32348466 0.2723159 -0.5599754 0.3556964 -0.1741786 0.009573276 -0.5199259 -0.25492957 0.17039046 0.85514253 -0.14067726 0.0022344266 -0.41199246 -0.57970136 -0.6419069 0.13244545 0.49751756 1.0493402 0.46292815 -0.14912479 -0.5327656 -0.15982945 -0.3650807 0.2597571 0.69773054 -0.08097889 0.08010331 0.32113552 0.063237906 0.20766276 -0.04101741 -0.35871035 -0.13630563 -0.50364095 -0.45233318 -0.19074833 -0.06482463 0.3145957 -0.22076313 -0.057000846 -0.015033285 -0.0038843849 0.026660655
从 -0.5598118 0.10149962 -0.20813245 -0.32461715 0.020737518 0.4083372 0.17177872 0.0718152 0.024158765 0.11956086 -0.11165991 0.1038991 0.13996711 -0.06965782 -0.62572783 -0.028959092 0.24564902 -0.0016337917 0.61239535 -0.100031495 0.008432309 0.22847025 -0.102440834 -0.18875703 0.05815605 0.45710808 -0.23937483 0.04289947 0.5834805 0.6323607 -0.17174844 -0.20325497 -0.36491972 0.011697872 0.22110687 0.06219417 0.7378591 0.08599575 0.46388045 0.045510694 0.3604242 -0.22673939 -0.09936759 0.089056194 -0.25239837 0.54497427 -0.046177186 0.32743928 -0.46831024 -0.0005469378
文 -0.36079496 0.33268836 0.6146909 0.25615618 -0.37487525 -0.05243291 -0.1137576 0.41349086 -0.071597844 -0.66829205 -0.5626398 0.5317396 -0.3225807 -0.51465815 0.07860897 0.53881073 0.6938358 0.17115395 0.08006866 -0.07196177 -0.3176077 -0.21063873 -0.33753708 0.2277035 -0.35015908 0.46262062 0.099604495 0.10877544 -0.20390697 -0.08302223 0.32433343 0.19836481 0.22506268 0.15453964 -0.48643768 0.078319736 0.6007168 0.51229066 0.45843706 -0.4757823 0.06413353 0.20223816 -0.15592906 -0.24141268 -0.020634152 -0.085425615 0.020738356 -0.10848042 0.19779424 -0.07099692
政 -0.2789871 -0.12958823 -0.6039296 0.2630117 -0.27127925 0.123369485 0.26182622 0.09919121 -0.5495062 -0.06462547 0.15046823 0.11158329 0.18867053 -0.35992077 -0.3309871 0.13250616 0.62953573 0.19043376 0.58406806 0.19109182 0.30594352 0.14813252 -0.45495164 -0.33820647 0.06483274 0.35481027 -0.3329372 -0.029755533 -0.2089289 0.24689057 0.18631686 -0.0510914 0.14351395 0.411968 0.17690839 -0.20737474 0.7088254 -0.22788441 0.24984843 -0.31137988 -0.03789909 -0.6383957 -0.68463475 0.030494351 0.22945718 -0.10310257 0.080120385 0.2099629 -0.17672585 -0.023263859
食 -1.0339924 0.352814 0.3957905 -0.6358224 -0.17203066 -0.4852811 -0.47673896 0.007695694 -0.08046091 0.017256377 0.3146415 0.75467455 0.08443533 0.06625989 -0.1356634 -0.1409328 0.4563301 -0.40182617 -0.11044603 0.100227654 0.18022333 -0.51712376 -0.44239247 0.07877221 -0.43754625 -0.25805882 -0.2198748 0.32549027 -0.10850026 0.33308744 0.1340323 0.07162502 0.22203487 -0.7629561 -0.14448869 -0.075359866 0.2717663 -0.17953995 -0.325166 -0.25543407 0.20505747 0.3441683 0.34700677 -0.4063963 -0.500642 0.1227003 0.3056055 -0.16597766 0.43639925 0.306085
善 -0.5820072 -0.42106178 0.2033127 0.033117794 -0.006241516 -0.34076312 -0.07989061 -0.061342657 -0.18524273 -0.5881408 0.1915666 -0.4908838 0.21802612 -0.45119542 -0.52906436 0.24616204 0.5094515 -0.735879 0.3345365 -0.37992963 0.13630849 0.26212525 0.28268135 0.020510256 -0.030679218 0.035294447 -0.36645082 -0.55710477 0.24063668 -0.26610357 0.3747667 -0.2529627 0.15001354 -0.2667194 0.20192145 0.3596911 -0.15694371 0.22150815 0.4022944 -0.42463025 -0.114002004 0.21968482 0.18539362 0.05367436 0.27754307 0.20465884 0.40731013 -0.12173927 0.08849271 -0.025359139
后 -0.611932 0.5927311 -0.12615749 -0.16268127 0.14670148 0.12400175 -0.12659498 -0.617772 -0.41278523 -0.113806635 0.44601914 -0.12443849 0.12710461 -0.34390625 -0.25680372 -0.28798005 0.52100253 0.03192893 0.25269863 -0.07524234 0.04334823 -0.28655764 -0.26087606 0.14219885 -0.14729342 -0.08949757 0.1310289 -0.236521 0.11043508 -0.009891231 -0.25740275 0.3249834 -0.28680044 0.32980108 -0.54389787 0.16695307 0.4369638 0.47035182 0.029486349 -0.26653367 0.25182664 0.46597573 -0.30516765 0.28735697 -0.365191 0.38728797 -0.047836334 -0.056346368 0.81294906 0.19137569
德 -0.62389594 -0.049502246 0.17590027 -0.22418325 -0.16465579 -0.27525532 -0.10920936 0.41776142 0.26264 0.38896814 0.1080931 0.40471023 -0.17268266 -0.27775562 0.14881392 -0.34597993 0.48058143 0.072849415 -0.3728522 0.52075386 -0.5611785 0.5172331 0.31815648 -0.22779278 0.2456832 0.28757304 0.37287274 -0.21376364 -0.08782013 0.0029689607 0.1337705 -0.3174292 -0.08150453 -0.025434704 0.20284528 0.10733442 0.14645395 -0.040225618 0.37419647 -0.07629585 -0.7500221 0.00016330415 0.09415975 0.09227875 0.31579682 0.091638364 -0.08665371 0.031022673 -0.33651653 0.46632296
求 -0.49865484 0.1294553 0.08632372 -0.18134126 0.09580796 -0.4095761 -0.2983824 0.13440411 -0.0915184 -0.078178674 0.38222182 -0.29027402 0.62468785 -0.16040592 -0.27464098 -0.18407579 0.49627072 -0.020911774 -0.005181966 0.1186229 0.3358689 -0.11954801 0.058404196 0.2108499 -0.18417656 0.36836782 -0.53293216 0.10236604 0.25641885 0.020147312 -0.39860985 -0.101347305 -0.1711552 0.19625798 0.3905139 0.024365656 0.31535637 -0.44285572 0.330875 0.14042272 -0.7005216 0.45641303 -0.30308968 -0.15948871 0.023372903 0.043084078 -0.108180426 -0.17519788 -0.27288786 0.21255665
对 -0.26942658 -0.3153852 -0.15188521 0.027816113 0.19046882 -0.30041012 0.53501153 0.14693229 0.029094508 0.013822724 -0.081914514 -0.4820243 0.24399742 -0.414248 0.005805151 -0.5858403 1.497175 -0.024219107 0.096825905 0.16392942 0.0022514146 -0.037591428 -0.30350125 -0.12415093 -0.14440215 0.6342901 -0.06234743 0.3682219 0.14313477 0.21328889 0.058530863 0.75733054 0.13977295 0.22410251 0.46998477 -0.37681407 -0.38720596 0.1836092 -0.4962857 -0.4150712 0.4431495 -0.25901827 0.27271387 -0.34154814 -0.12711404 -0.12821424 -0.48487616 0.048903707 -0.054469194 -0.09602295
恶 -0.8668766 0.0103814285 -0.25616747 -0.82624257 -0.09685301 0.11337693 -0.53108436 -0.1708595 -0.36781394 0.08661676 -0.37700322 0.45320925 0.74200827 -0.37365043 0.14235376 -0.41240242 0.24793416 -0.58675796 0.14756507 0.021072136 -0.6009475 0.12608202 0.16309066 -0.8193576 -0.23589581 -0.26711974 -0.29713282 -0.1433745 -0.29743308 0.27614912 -0.0812426 -0.17292042 -0.19671561 0.11837955 -0.35456797 -0.15222111 0.15858768 -0.49235055 0.16395847 0.11407487 -0.31387782 -0.33043516 0.37423614 0.07840309 0.31177455 0.34166083 -0.1977499 -0.18831219 0.017630028 0.3271187
信 -0.85543007 -0.20893173 0.57357186 -0.45214987 -0.25096262 0.2385889 0.1611189 0.05235754 -0.3071119 0.09194532 0.44540623 0.31265822 -0.055161104 -0.4235608 0.0014422223 -0.022953121 0.24761632 -0.63990253 0.2915788 -0.06804567 0.24054153 -0.13606861 -0.060587097 0.09021337 0.17595412 0.09557039 -0.381407 -0.13118556 0.5841194 -0.3707187 0.73614097 0.12704782 -0.6016294 -0.31385246 0.3546296 0.10256257 -0.3239706 0.39957693 -0.08570822 -0.3346766 -0.39792615 0.2931743 -0.110026374 0.19802126 -0.28743413 0.023657061 -0.059471365 0.08860062 0.042269908 -0.19296664
死 -0.66560876 0.49780712 -0.19411817 0.044836342 0.47255063 0.4249423 0.2014437 0.31713155 -0.09315822 0.27786994 -0.11144552 -0.61492765 -0.4782857 -0.72622615 -0.05120416 0.23474772 0.30162257 -0.21598782 -0.34683418 -0.20740621 -0.15777667 0.037588257 -0.13320932 -0.33347264 -0.091028675 -0.12544209 -0.030731937 0.38439178 0.13486041 -0.99742985 -0.10763892 -0.08226682 -0.10475061 -0.07415761 -0.09188588 0.08091978 0.253947 0.48285043 0.62967485 -0.43781596 -0.09803743 -0.24070953 -0.02695244 0.39286876 0.21937878 0.045693 0.14568381 -0.17873402 0.47008836 0.5089719
然 -0.39181077 0.31249213 -0.46229923 -0.20658572 0.030877216 -0.36066216 0.18702523 -0.48456573 -0.30785596 -0.04517092 -0.11607577 -0.5813595 0.09382225 -0.73040444 -0.2809566 -0.43079352 0.71892726 0.20324819 -0.08056195 -0.06802681 0.5346702 -0.2348349 -0.5205794 0.07717744 -0.04339158 0.37955856 -0.09480163 0.12589943 -0.13904537 -0.54358214 -0.76210064 -0.026959827 0.04748241 -0.371871 -0.4124149 -0.13098371 0.32500938 0.17645428 0.48025844 -0.2280007 0.27458456 0.03504188 -0.08129934 0.18470751 0.3946733 0.037000448 0.06376899 0.031484954 0.33211243 -0.0077141123
《 -0.5944572 -0.29072 -0.2537614 -0.07521664 -0.21958621 -0.4605177 0.35110196 0.91965866 0.14398384 0.23550665 -0.6809176 -0.64702684 0.16354151 -0.16889717 0.1771338 0.0302038 0.810151 0.09808533 0.055598833 -0.73445725 0.48221532 0.20317951 -0.12489832 0.34783873 0.21325707 -0.35618556 -0.1021477 0.9617182 0.40811977 -0.044397086 -0.17887063 0.49467465 0.5026691 0.5259966 -0.6009921 -0.17730822 0.43812627 0.3924734 0.11071309 -0.7507243 -0.54555064 0.26038733 0.15777153 -0.03151771 -0.1344608 -0.24956629 -0.1442451 -0.11781311 -0.12732098 -0.6665395
》 -0.8413884 -0.5452899 0.08841832 -0.21979044 0.031332053 -0.20624863 0.3897872 0.67340976 -0.33225805 0.5723676 -0.7084188 -0.6725575 0.06503614 -0.21180612 -0.090986565 -0.024246095 0.6379339 0.42441782 -0.13507348 -0.40185156 0.32182994 -0.60571164 0.040300827 -0.022895182 0.40100244 -0.3536218 -0.25508752 0.44868478 0.15283583 -0.12169444 0.18838134 0.6581658 0.27383664 0.000114888564 -0.8401224 0.013174242 0.5726127 0.4651639 -0.14088677 -0.63850325 -0.558717 -0.24402851 0.2977209 0.3244728 0.016293097 0.03268154 -0.04356169 0.11523727 -0.048868053 -0.20191845
由 -0.49106118 0.010955311 0.028914282 -0.24545164 0.11719895 -0.015455391 0.14466456 0.027127098 -0.306061 -0.13724302 0.30095196 -0.24873938 0.021293607 -0.47688618 -0.5572519 -0.006364922 0.84423476 -0.17981832 0.33880982 -0.1796459 0.044092637 0.20578395 -0.5356867 0.06072857 0.2566556 0.16129005 -0.114058554 -0.21584365 -0.14917563 0.0022392229 -0.5814888 -0.19285324 -0.34696394 0.14543062 0.43405923 0.49736902 0.5446125 0.1224909 0.3211728 0.00059219095 -0.306143 0.44683397 -0.26037562 -0.48454827 0.08433653 -0.0018460248 -0.3268843 -0.7614112 -0.11035539 0.067208394
仲 -0.38913503 -0.070874505 -0.16406544 -0.119052246 -0.13207622 -0.15742916 -0.133649 0.029698731 0.091326706 -0.07569967 -0.11026368 0.0123614995 -0.07582855 -0.49190545 -0.41900012 -0.627465 0.9093136 0.50635844 0.085434966 -0.109534934 0.57259786 -0.11319781 0.39293358 0.4215047 -0.23668168 0.30972743 0.23350216 -0.56289434 0.14432353 -0.69624335 -0.190805 -0.651735 -0.08532125 0.3361786 -0.52890944 -0.16247025 0.42173383 -0.24235448 -0.5349121 -0.3097568 -0.34333754 0.8476251 0.32514948 -0.38120362 0.0049281777 -0.030585438 0.34438527 0.044576813 0.22067948 0.10188549
非 -0.7558106 0.51672894 0.17091587 -0.5210335 0.07160518 0.23411304 0.062551215 -0.0067348257 0.19911467 -0.3812529 0.40655506 0.27235004 0.45075506 -0.48052484 0.25667098 -0.5034626 0.718749 0.448492 -0.48962668 -0.30919567 -0.387962 0.50042915 0.32490268 0.30888042 0.08568396 0.17987211 -0.06399847 -0.3398391 -0.042946275 -0.24979514 -0.3289333 0.42732868 -0.39326617 0.6533348 -0.18674375 0.14578177 -0.29736465 -0.13997915 -0.28114876 -0.23188877 0.16355684 0.1899469 -0.6270487 -0.5385899 -0.14861935 0.5747783 -0.22039753 -0.63266814 -0.57779485 -0.45699883
出 -0.5675965 -0.25916538 0.57225776 -0.3961396 0.7481459 -0.014739862 -0.37218466 0.6026556 0.3295491 0.12406277 -0.060605228 0.48569506 0.3788527 -0.06851526 -0.115847334 0.26066807 0.46863887 -0.08416131 -0.10002603 0.26971984 -0.6269158 0.32682002 -0.028521392 0.33126765 0.13542682 0.07904101 0.2683816 -0.8363892 -0.29465625 0.49931967 -0.03293216 0.38124913 0.3121544 0.5284143 -0.3236716 -0.454823 0.5179553 0.017828481 -0.0800394 -0.1275801 0.7035239 -0.23276189 -0.32419446 0.24324843 -0.15811186 0.02683407 0.1448878 -0.39924264 0.4839025 -0.08784299
过 -0.52616566 -0.08204546 -0.34516546 -0.04666917 -0.49676707 -0.5034289 -0.39258206 0.19336432 0.3769399 -0.51943755 -0.15589345 -0.8178374 0.118572414 -0.62560594 0.37775344 -0.061679788 0.350489 -0.14030364 0.4911768 0.31133497 0.124424055 0.3340878 0.24649158 0.063874535 -0.10070747 0.28122935 -0.2450747 -0.08806615 -0.028681483 -0.5160816 -0.23775843 -0.03146525 -0.005494283 0.29068652 0.28372207 0.12061424 0.113781765 0.17038465 -0.05492577 -0.11163664 0.18717727 -0.62706494 0.1832494 -0.049660634 0.088442 -0.5079252 0.3882803 0.21829268 0.08097255 0.5846396
一 -0.95730275 0.64332217 -0.18701926 -0.28729713 0.15917845 -0.065319195 0.18417065 0.3333519 0.12627475 0.07047705 -0.06979841 -0.12577358 -0.39135137 -0.1493837 0.57949245 -0.70258504 0.22835074 0.33821267 0.55440253 0.0529902 -0.11816031 -0.58253163 -0.4243288 0.47131115 -0.20246078 0.21236089 0.09422861 0.14691575 0.21885288 0.13095044 -0.013273876 0.6725509 0.043504894 -0.42630193 0.01315112 -0.060247578 0.37894467 -0.18307878 -0.5770725 -0.26932493 -0.2097883 0.05428834 -0.41576675 -0.031034322 0.1943049 -0.6076343 -0.39061236 -0.3763412 0.03108384 -0.039525397
虽 -1.1367801 0.08702991 -0.29797578 -0.08684335 -0.105231844 -0.07203795 -0.3696376 0.44640118 -0.095487066 -0.1249797 0.28480235 0.16938658 0.508554 -0.018000433 -0.13835554 -0.16956468 0.15063648 -0.47231537 -0.3238616 -0.017610993 0.06389458 -0.44597286 0.019730937 0.089587964 0.07744172 0.060096826 -0.3433285 0.31712872 0.275629 -0.105304435 0.2957861 0.21822378 0.21020907 0.13161747 0.2298411 0.08601094 -0.16391373 -0.10795753 -0.11620107 -0.4785961 1.0810012 -0.41098276 -0.79357284 0.14883372 0.1763816 -0.49285564 -0.19304553 -0.21943472 0.21578182 0.5680226
足 -1.0642364 -0.67201465 0.7079597 0.063206896 0.19074188 0.16078041 -0.22230132 0.1375508 -0.5629043 -0.061532095 -0.2070787 -0.43398193 -0.29749155 -0.0056224973 -0.009146623 -0.3898726 0.33401582 -0.7626478 0.39118066 -0.0147980545 -0.50090784 0.49508837 0.5339 -0.4427686 -0.2176732 0.4528133 0.03569481 0.25088876 -0.30200467 -0.27847084 -0.06813393 -0.5490502 -0.3140333 0.33903676 -0.5978785 -0.2647564 0.7018478 0.06908109 -0.9106358 -0.26571357 0.29064953 -0.1937234 -0.0024537314 -0.0630394 0.10767231 -0.32861108 0.06695015 0.25725102 0.07783063 0.5411462
居 -0.81042784 -0.28755105 0.107518844 -0.09534853 -0.33414733 -0.43367973 0.34205428 0.31050473 0.0066574486 0.15029153 0.5715541 0.39023197 0.22663721 -0.13087668 -0.14463636 -0.72886723 0.42321008 -0.2657458 -0.084646605 -0.4312717 -0.12878662 -0.012021264 0.6045382 0.06816864 -0.41152358 0.41692266 -0.1638754 -0.5643873 0.049865186 0.17661895 -0.17091364 -0.21559861 0.38166517 -0.76454484 -0.52487546 0.0128491605 0.35801253 -0.41194904 -0.78218925 -0.13401355 -0.10713614 0.19749409 0.14021273 0.21292801 0.15699112 0.32237732 0.1781798 0.22414297 0.023677701 0.067035854
尔 -0.599977 0.35209846 0.23350237 -0.47512317 -0.09714955 -0.17852293 0.19540341 0.33899015 0.5619672 -0.31051108 -0.0009779457 0.17064826 -0.8138287 -0.49973488 0.038142804 0.2418491 0.855707 0.082019575 -0.54297054 -0.6241141 0.13858059 -0.15273638 0.058542095 -0.051649444 -0.06566461 0.20490445 -0.44732478 0.15283279 0.43871826 0.32300293 -0.5927415 0.78179365 -0.25187832 0.71595156 0.26618418 0.109308116 -0.21076654 -0.5996373 0.17321698 -0.25886166 0.35569018 -0.1625938 1.0093064 0.43136272 0.015984958 0.058078498 -0.21890295 0.03616722 -0.4775113 0.004531087
夏 -0.08729439 -0.409937 -0.021184372 -0.37203145 -0.38620073 0.17616668 -0.14392759 0.44068795 -0.067972876 0.09441349 -0.5655237 0.08867647 0.6155233 0.17886367 -0.19811088 -0.5922017 1.2907028 0.020336453 -0.9280942 0.2271288 -0.21671659 -0.32414073 0.14384784 0.117263556 -0.103640646 0.35024938 -0.027702827 0.3714824 -0.15591966 0.014904105 -0.009828707 0.12018143 -0.30973122 -0.31231156 0.082297675 0.4349303 0.7210247 0.012142115 0.37968493 -0.18656296 -0.07585608 0.22954077 0.35059583 0.21850336 -0.35943836 -0.42301187 -0.015791487 -0.04542465 0.080268905 0.04921789
父 -0.8358526 0.37486714 -0.008071583 0.22092669 -0.3766328 0.4489397 0.1918454 0.13068716 -0.35515523 -0.19446066 -0.047646254 0.11275629 0.13872112 -0.3911698 0.29415905 -0.079918854 0.6482622 -0.31228948 -0.23221307 0.38878715 0.7566278 0.42585263 -0.119275615 -0.44835064 0.2710068 0.28371963 -0.20952892 0.34338263 -0.76580316 -0.030627988 0.37930387 0.17750765 0.40868464 0.2176504 -0.5611708 0.4205622 0.38211527 0.3200933 0.61357075 -0.7007353 0.63621265 0.5494564 -0.04297991 0.10805631 0.2933755 0.6813978 0.11264305 -0.22315526 -0.5065203 -0.3136511
及 -1.0307714 0.28360474 0.31888935 -0.27723593 -0.6773898 -0.16985793 -0.011332692 0.1775386 0.8010247 0.33506384 -0.12763079 -0.47404152 -0.18857343 0.05030633 -0.28507355 -0.1032122 0.08487577 -0.23203108 -0.092068195 0.52064383 0.04690951 0.84313774 0.31807557 -0.04286741 -0.4775504 0.39101785 -0.24282202 0.21733251 0.4776293 -0.27976438 0.058290306 -0.44513735 0.38503382 -0.30707717 -0.07555957 0.2558173 0.17031837 0.7382027 0.37491286 -0.2196177 -0.116214655 0.38212788 -0.54790705 -0.0489073 0.5078825 -0.09098 -0.22908965 -0.09108043 0.07291921 0.2521658
己 -1.0658448 -0.2645433 0.19909054 -1.0399526 -0.18175924 -0.11844773 0.1673294 1.0546784 0.23825556 -0.071706265 -0.27818975 -0.2014665 0.19538264 -0.28172103 -0.19262548 -0.36170837 0.1453372 -0.2566186 0.4281125 -0.11692485 -0.81397915 -0.6583453 -0.012773168 0.11159315 0.23326582 -0.24923803 -0.49024686 -0.16024584 -0.18903749 0.008844666 -0.60203123 -0.65018433 -0.30141312 0.08366356 0.1835575 -0.15191226 0.14309172 -0.015559466 -0.23187003 -0.15801756 -0.11175621 0.28801277 -0.71982664 0.1042781 -0.59483576 -0.43009722 -0.5334412 -0.2656798 0.032421738 -0.360459
予 -0.6800964 0.5778768 0.024049932 -0.19081293 0.03777098 -0.45357084 0.76304466 0.5956236 -0.22360103 0.28892285 -0.36482215 -0.50158364 0.14149074 -0.12500201 0.30614415 -0.14592534 0.44804844 -0.18166092 0.07588286 -0.0192102 0.21609378 0.28972897 -0.025023365 0.1445861 0.23486646 0.3584149 -0.3206516 0.6530949 -0.027575161 0.1003061 -0.6383009 0.058656484 0.33982915 -0.2953803 -0.7332225 0.044064183 0.23918292 -0.55911577 0.09578984 -0.155433 0.2731702 0.37883008 -0.591133 0.17649157 -0.45461354 -0.16612996 -0.30955496 0.054669876 -0.1380495 0.42360583
色 -0.84990454 0.2600982 0.44018131 -0.6479835 -0.19153865 -1.0397238 0.13992819 0.20653374 -0.06981179 0.32650578 0.063933805 0.28743857 0.05932197 -0.042992074 0.45701158 -0.1982713 0.32548964 0.019642929 0.6464863 0.20166464 0.16180137 0.5143298 -0.4600504 0.15611628 0.26078674 -0.05668735 0.42159894 0.099377915 -0.05350593 -0.24933381 0.38634065 -0.43203562 -0.0050809504 -0.12568986 -0.4533462 -0.43699408 0.34969968 0.7832581 -0.51472735 -0.25738218 0.20570675 -0.2377419 0.30732086 0.0065990663 -0.1390117 0.11117381 -0.3166881 -0.36807784 -0.52959645 -0.33800182
友 -0.8054837 -0.8724444 0.33655277 -0.27019343 -0.47229105 0.2941774 0.54117984 0.15932392 -0.544956 -0.7250432 -0.0068856743 0.41717967 -0.19137919 -0.4067467 -0.9578168 0.051558524 0.38561407 0.107472956 0.63228405 0.5624315 0.21717212 0.15387632 0.16792564 -0.16306622 0.48230916 -0.12715158 0.46750736 -0.015892737 0.5297817 -0.6974775 -0.046436846 -0.021397123 0.3936783 0.29498646 0.17860214 -0.33545798 0.42153388 0.45345128 0.3119235 -0.40868676 -0.5865722 0.22474945 0.28185692 0.2669494 0.23742938 0.32061806 0.44467238 -0.097452186 -0.41208583 -0.26024768
成 -0.5873964 0.31539893 -0.87097365 -0.30851135 -0.022305554 0.25399196 0.43300304 -0.5022968 -0.24129368 -0.032436796 -0.30135897 0.4995465 0.5489065 0.045754626 0.038536023 -0.35405552 0.37161636 -0.18207717 0.6915591 -0.53669024 -0.5154459 0.23781684 -0.68328553 0.09577708 -0.103023626 -0.1255386 -0.38718045 -0.057015214 -0.28418663 -0.039906833 0.1567739 -0.4739854 -0.015433419 -0.12069278 -0.10401975 0.054320075 0.5015377 0.5373409 -0.03754457 -0.46621174 -0.08574782 -0.33426872 -0.038428053 -0.32607323 0.06288169 0.2263082 0.42628223 0.36839932 -0.027972061 -0.17787023
远 -0.7735427 -0.02615268 0.07464814 -0.30579257 0.29314792 0.26886982 0.015659863 -0.3706911 -0.345293 -0.19272768 -0.18822515 0.41669422 0.7326669 -0.1992597 0.11472992 0.41816044 0.29097146 -0.6042926 -0.066681564 0.49906334 -0.5185614 0.4710962 0.18378432 -0.25393784 -0.06590862 -0.57359326 -0.11895071 0.634713 -0.52680564 0.07204011 0.22027744 0.18699434 -0.48203298 0.29299685 0.22380978 0.18787839 0.7111216 -0.21780376 0.22724167 -0.34201184 -0.031531144 -0.21605568 0.5108639 0.3854165 0.4475841 -0.1674492 0.49531525 0.4648258 0.38621333 0.3493041
上 -0.970686 -0.36449397 0.50122404 -0.40480426 -0.2779861 0.34306327 -0.33941013 -0.12149736 0.37257218 0.327273 0.12292444 0.33379617 0.24370442 -0.24865614 0.07198607 -0.31704065 0.4466466 -0.27161047 -0.22279035 0.48139977 -0.25020367 0.9727253 -0.18232413 0.46518743 -0.15857561 -0.4923332 -0.09208782 -0.3080428 0.20996067 0.62275517 0.017103741 0.773751 -0.30628437 -0.29754448 -0.06621331 0.3019675 0.28508502 0.4723995 0.5015438 -0.19908784 0.019994488 0.6298291 0.20643516 0.19690996 0.16326821 0.27724385 -0.94995844 -0.45820522 -0.030274073 -0.068210535
立 -1.1841434 -0.23762517 0.19822404 -0.37910128 -0.18109998 0.3397762 0.40293023 0.62798214 0.21240446 0.033966392 -0.96287084 0.18861845 0.09416282 -0.8807394 0.30044487 0.5073304 -0.08288016 -0.3025973 -0.07716692 -0.41428888 -0.83940434 -0.07677371 -0.08600389 -0.23205943 -0.61556256 0.05711225 -0.5776468 0.14137715 0.08343029 -0.40482548 -0.24382228 0.1849007 0.44408402 0.6182703 0.031729944 0.38854498 0.44752496 0.44849753 -0.73236495 0.09494914 -0.23721978 -0.6368022 0.1190558 0.40034184 0.1597323 0.67558306 -0.16131383 0.26588693 0.19633564 -0.01112872
今 -0.71017784 0.5654973 -0.6062576 -0.27014688 -0.3665077 -0.2292631 0.30938473 0.6444789 -0.1617866 -0.34582788 0.06941805 0.40719545 0.023550143 0.023467584 -0.45798543 0.37417912 0.39581117 0.17805384 0.269515 -0.12652197 0.06659995 -0.20289066 0.5718326 -0.43806362 -0.050196916 0.2459883 0.1307604 0.15996088 0.23329882 0.29790625 -0.35731316 0.3460689 -0.42556953 -0.25586668 0.8681964 0.019770175 0.9844538 0.4049964 0.48709735 -0.006956537 -0.33697405 0.27999637 -0.28038046 -0.054426238 -0.50824225 0.01592295 0.41827455 -0.1558042 -0.05227439 -0.48625338
张 0.01245902 -0.017244702 -0.08563976 -0.19617303 -0.13501641 -0.50348055 -0.026115738 0.30169398 -0.35999283 0.52498066 -0.19704881 0.33758938 0.23599364 0.06479522 -0.3844494 0.35806528 1.4608558 0.033340245 0.34534243 0.18085976 -0.46177304 0.3267866 0.4768567 0.40835825 0.06469435 -0.09054371 0.40593 0.0032968244 0.46203327 -0.052486394 0.12610592 0.09157713 -0.07753749 -0.5229897 -0.059109036 -0.038333543 0.6436037 -0.235436 -0.36705187 -0.2844026 -0.63682204 -0.20801055 -0.3353378 0.19207586 0.4555866 0.76409984 0.100739464 0.0068744277 -0.47728425 -0.13625208
中 -0.9199496 -0.28580105 -0.8410229 -0.057356674 -0.14445342 -0.12206248 0.3356237 0.49105376 0.10553096 -0.26798323 0.16417849 0.31334403 -0.013336417 -0.08333088 -0.14427398 -0.056662545 0.23794478 -0.2970144 0.16782725 -0.044214014 -0.33286968 0.53415936 0.60957235 0.5686319 -0.021508029 -0.19991598 -0.15332323 -0.056928784 0.2507225 -0.57904965 0.4409012 0.25454623 -0.48906326 -0.330311 -0.4689546 0.21464849 0.63932556 -0.15522985 -0.46559846 -0.1646414 0.54655236 -0.5146699 0.03294196 0.023074914 0.9241452 0.15437075 0.09948168 0.28836158 -0.19242302 0.31471708
季 -0.09757784 0.21307927 0.1258742 0.116341464 0.31731316 0.46085167 0.5219007 -0.043197457 0.39528012 -0.09713057 -0.33974367 -0.17042921 0.35686404 -0.10620611 0.008079155 0.008054493 1.1280034 -0.18985824 -0.37461314 0.046959475 0.50006753 -0.26596627 -0.34880987 -0.12251086 -0.55116224 0.49509728 0.68644655 0.7164607 0.19406042 -0.48849833 0.08178207 -0.7738823 0.5784401 -0.05545386 0.19340438 0.15888137 0.80499107 0.084902175 0.44433278 -0.4838868 -0.54242975 -0.15587711 0.014948623 -0.17922069 -0.1122847 -0.11315706 0.16247296 0.423465 1.0068421 0.24157722
臣 -0.75182444 0.2637462 0.01625898 0.4259646 0.52265626 -0.3241344 -0.022785265 -0.10859989 0.11792768 -0.11975431 -0.53864074 0.25879344 0.19804782 -0.57763135 0.3512956 -0.06666 0.21345966 -0.43515393 -0.009961626 0.35950497 0.40004194 0.5665057 0.6354072 0.44671273 0.099672996 -0.02354323 -0.21304299 0.26469624 -0.41317335 0.31013525 0.10027477 -0.44512457 0.30056274 -0.46226245 -0.6834702 0.2780516 0.53898996 -0.4152696 0.5878299 -0.6295705 -0.5103978 -0.5842044 0.28760004 -0.0026938957 -0.24327189 -0.3869953 -0.09373926 0.5657881 -0.0915046 -0.43219742
贤 -0.31199607 0.38763204 -0.24600284 -0.41997218 -0.05443581 0.21672791 -0.29415548 -0.28982174 -0.3083778 0.3244697 -0.46667495 -0.4753346 0.4251872 -0.7779103 -0.30492324 -0.27570152 0.64536905 -0.03210312 0.9307391 -0.36281592 -0.09264659 0.28999552 0.1961263 -0.043950334 -0.010810798 0.3348373 -0.20927902 0.1841263 0.377313 -0.032855455 0.35112256 -0.08288744 0.21241046 -0.30342904 -0.15716666 -0.1648832 0.286076 0.16683018 -0.16979255 -0.30000237 0.8674551 0.22260165 0.5716369 -0.19402026 -0.22585258 -0.39851853 -0.7480121 -0.75171936 0.24901398 -0.34775957
思 -0.96584296 0.47883245 0.12643784 0.6674088 -0.019530844 -0.18191142 0.2561095 0.19874425 -0.30677277 0.92482525 0.22693259 0.054680604 0.4775094 -0.17638166 0.1216034 -0.41300043 0.51884216 0.047164474 -0.053020183 0.5348856 0.1712708 -0.07696851 -0.036419984 0.35269818 0.020837924 0.23721367 0.044543426 0.1070255 0.50700444 -0.63109297 -0.036053047 0.10970448 0.03248566 -0.6872095 0.4989709 -0.44977134 0.10172214 0.2927883 -0.6653754 -0.59511185 0.2430274 0.35543746 -0.19083437 0.2538944 0.36667976 -0.08283115 0.1344072 -0.3393968 0.010612658 0.050986614
齐 -0.39305335 -0.23479022 -0.24067308 0.104550555 0.29764396 -0.40486228 0.019201364 0.039054047 0.21930979 -0.1574366 -0.23599766 1.1186631 1.0897417 -0.39012825 0.020197365 -0.1172206 0.651215 -0.29825315 0.39792523 -0.395968 0.21068949 0.026944933 -0.14045788 0.7033342 -0.08195892 0.5332585 0.7622782 -0.3535919 0.10693122 -0.16554604 0.1516028 -0.050513554 0.35709682 -0.58483624 -0.41802275 -0.12133671 0.35554764 0.07978841 -0.4949159 -0.32102877 -0.44625065 -0.15451857 0.08918011 0.16773078 0.24916123 -0.7199774 -0.03520328 -0.49644223 -0.40360442 0.210037
义 -1.0250789 -0.26630732 0.23718002 0.28994247 0.36055323 -0.14883561 -0.056357745 0.4671709 0.34360304 0.5569078 0.71337855 0.019559678 0.4153944 0.002763467 -0.36863723 -0.040912494 0.21416414 -0.29253602 -0.22297508 -0.22634037 0.059110813 0.23644517 -0.47059068 0.449159 0.31876242 -0.17798531 -0.3490013 -0.3460996 0.289842 -0.22737294 -0.2876055 0.3652048 0.15843268 -0.47984385 0.52841675 0.11763738 0.4925954 -0.034638364 0.9256688 -0.03538605 0.012903528 0.6783999 0.123769835 -0.32550105 0.051792063 0.2322461 0.047188785 0.08730777 -0.3720053 0.057376843
正 -0.74533314 -0.10839908 0.2823154 -0.5644158 -0.43254134 0.027429476 0.095690094 0.0856399 0.17314215 -0.23170057 -0.46709928 0.32097453 0.3314242 -0.5175333 0.06551924 -0.74765944 0.4628749 0.104980655 -0.052223954 -0.53327674 0.9050146 -0.051130924 -0.03785976 -0.4624947 -0.10200877 -0.27546844 0.2928962 -0.09434319 -0.45460075 -0.17043306 0.18980372 -0.16744651 -0.13171972 0.28648078 0.60186344 -0.27255005 0.10451158 0.71914893 -0.51972306 -0.4999619 0.055109642 -0.10974383 -0.6373623 -0.089799285 0.23691878 -0.48659787 0.79629064 -0.072221905 0.35994825 0.92952293
命 -0.7209406 0.2864667 0.21293947 0.07610785 1.0412045 0.15477988 -0.3119817 0.28747407 -0.100822635 0.54899174 0.29917142 0.35233173 -0.5175407 -0.2578421 0.49030954 -0.4616965 0.46402723 -0.43877366 -0.03841082 0.14781013 0.45813036 0.3814014 0.13972254 0.06658224 -0.20077956 0.08148297 -0.2845643 0.3076061 0.20993042 0.18626522 -0.40198433 0.04001305 0.6630971 0.43257657 0.6309739 -0.03604611 0.27746448 0.039946005 0.07515647 -0.13379227 -0.24911474 -0.6855388 -0.26427796 0.83198684 0.10892295 -0.3812711 0.014268674 0.06677736 0.10023853 -0.3915978
曾 -0.12476541 0.3795879 -0.20992795 -0.058310967 0.3867281 0.17310663 0.11847132 0.4027451 0.012594466 -0.10756513 0.4329718 0.70522285 0.2459331 -0.2171818 0.0022345944 -0.31223655 1.5461524 -0.15053016 -0.16772656 -0.12784064 -0.07561836 -0.04473353 0.31244457 -0.0018214307 -0.3202479 -0.19184016 -0.138285 0.13225034 0.24470077 0.09994555 -0.079491645 -0.7598472 -0.41844994 0.27003607 0.120571874 0.6024547 0.41698268 -0.19867781 0.15116015 -0.023234718 -0.21257593 -0.09799758 -0.28750414 0.4010442 -0.3822598 0.3737257 0.3924726 -0.56216794 0.40318137 0.37576288
伯 -0.24918653 -0.5213982 -0.29721996 -0.20208405 0.49869615 0.21895152 -1.1825979 -0.08044073 0.007373902 0.26187184 0.1811699 0.5736233 0.008941988 -0.43311927 -0.12935609 0.17478552 1.0908207 -0.05549977 0.024081916 -0.7152643 0.36256975 0.15957311 0.21020089 0.42955244 -0.5106566 -0.13554634 0.1896371 -0.5080025 0.54269814 -0.24284412 0.7085519 -0.07682691 -0.47881246 -0.01526152 -0.09551623 0.674781 0.7273182 -0.3125736 0.40199256 -0.33399847 -0.6281671 0.5777284 -0.5709291 -0.31121647 0.23158796 0.11379734 0.59594727 -0.34193873 -0.079498984 -0.1415263
门 -0.68765867 -0.39866304 -0.5863702 0.31364813 0.3075896 0.21541044 0.067278825 -0.24107204 0.5957585 0.51969194 0.2907693 -0.19688602 0.27182192 -0.53000057 -0.24652116 -0.12044982 0.7863642 -0.15560359 -0.77546155 -0.11272228 -0.2169156 0.44561753 0.32633552 0.060918123 0.2545128 0.26736248 -0.29950482 -0.31788412 0.19486202 -0.5607076 0.054350704 0.069644906 0.55311877 -0.2741982 -0.01200459 0.22428386 -0.115676865 -0.7765128 0.5069074 -0.29295933 0.12032731 -0.8613495 -0.7603482 0.012475047 -0.3046089 -0.08946732 -0.5591742 -0.39959964 0.12630516 0.05152726
敢 -0.758019 -0.063643925 -0.16851245 -0.4350259 0.5541226 -0.5866061 0.12689854 -0.36909983 -0.12000597 0.37844747 -0.53596467 0.638973 -0.3980282 -0.6246603 -0.35479915 -0.15322828 0.6263019 -0.15499303 0.07657109 0.16634324 -0.0822467 -0.16855352 0.066136986 0.81036204 -0.8038984 0.16228893 -0.23534907 0.4452898 -0.53105104 -0.49527258 0.0010083272 -0.048152175 -0.48543614 0.15660661 0.34354946 -0.29213563 0.27090666 -0.27881467 0.5558835 -0.41762283 0.07909924 0.31112027 -0.9437469 -0.474434 0.6551663 0.7514372 0.19024119 -0.1725954 0.9670073 0.07798911
犹 -1.0721325 0.48813155 0.52644044 -0.5961785 -0.5164197 -0.3813265 0.33966377 -0.032155655 0.31007618 -0.1902877 -0.7463296 0.013481557 -0.3321014 0.007558839 -0.022287354 -0.09418905 0.32346445 0.029606944 -0.1983197 -0.028857196 -0.009373493 0.3355956 0.77736795 0.09581713 0.56123984 0.039232254 0.024534445 0.08047182 -0.2725122 -0.21585254 -0.12511614 0.19668387 0.07116826 -0.09297603 -0.6821969 1.1436031 0.6538819 0.062769175 -0.10817439 -0.27727017 -0.14560555 0.36902425 -0.20274527 0.0077266535 -0.5672176 -0.31180713 -0.13162713 0.25203988 0.5070291 0.0881708
生 -0.6133385 0.45212093 -0.30218518 0.0069414163 -0.06378001 -0.14733148 0.030887552 -0.08342285 -0.19109413 0.71584797 -0.2766826 0.0041060518 -0.39865756 -0.28629303 0.19458081 -0.76667285 0.546286 -0.46303332 0.060067378 -0.30054978 -0.37543485 -0.24031234 0.005811842 -0.20980805 -0.105850294 0.01766587 0.16035472 -0.35630113 0.4080676 -0.3078269 -0.3194987 0.37447062 -0.29905158 0.025699867 0.16302377 0.5428254 0.04654463 0.060526725 0.124732934 -0.02608579 -0.30472386 0.16930877 0.15671661 -0.08426665 0.301248 -0.22825268 0.35844624 -0.17384654 0.24851467 0.5617781
日 -0.7283379 0.5143802 0.9969441 -0.6174544 0.5289966 0.2666246 0.9377987 0.36905083 0.38643986 0.64392096 0.029385418 0.052090414 -0.4175922 0.11611928 -0.22224526 -0.51456606 0.3595857 0.40476564 0.40870377 -0.3716407 0.24033713 -0.4834669 -0.14859097 0.12067175 -0.10625785 0.6156975 -0.53320366 0.5995796 0.026383357 -0.22515173 -0.0128185805 0.1759767 0.24561682 -0.09617186 -0.14453115 0.16355354 0.49071336 -0.5791505 -0.43250832 -0.1640461 -0.07356064 -0.45890635 0.06393689 -0.2764398 0.17220005 0.035319384 0.36390167 0.10072006 -0.24141333 0.117175296
敬 -1.1590122 -0.110299714 -0.26728824 0.24795115 -0.25918815 0.000771365 -0.44233313 0.594339 0.18056083 0.45445243 0.44926995 0.4739241 0.18071875 0.025477018 0.31179282 -0.474617 0.102892995 -0.2897059 0.048921943 -0.15761344 0.00060602237 0.22635825 0.4449781 0.32386583 0.20959751 0.27493176 -0.23395145 -0.020540988 -0.14574787 -0.19989459 0.39630517 -0.4207431 -0.040815625 -0.25707284 0.31742656 -0.31632262 0.14171696 -0.13540584 -0.28185293 -0.76041055 0.037463076 0.30917272 -0.35252017 -0.095651075 -0.4839176 0.7300939 -0.4494896 0.029517474 0.30947235 -0.3497266
难 -0.68209386 1.148804 -0.33545917 0.09565802 0.48033187 0.30508906 -0.26270327 -0.1680622 -0.31798196 -0.078982316 0.09535291 -0.09717625 0.4292898 -0.30139354 0.2782246 -0.58511436 0.40714052 0.3251952 0.3831285 0.4346989 -0.34385112 0.21711496 0.32356063 0.0434008 0.14174986 0.12143927 -0.62706065 -0.6850071 0.18455711 -0.11862976 0.10175382 -0.48829582 -0.5597493 -0.2286256 0.13923544 -0.112107195 0.8224077 0.16689764 -0.15171804 -0.41651165 0.49817553 0.2565062 0.57148427 0.54655296 0.14969309 0.055371415 -0.033560544 -0.13603519 -0.5603821 0.1308815
直 -0.6671691 0.118120775 -0.1899054 -0.3739022 -0.4155137 -0.35241008 -0.512571 0.33733073 0.14549711 -0.2110729 -0.14434145 -0.16506651 0.667024 -0.738826 -0.32058126 0.3673685 0.4651342 -0.25987193 -0.5159854 0.11626659 -0.9469473 0.19705154 0.1766239 0.74980843 0.10295844 0.3562836 0.61428636 -0.17688277 0.26832685 -0.059945624 0.045222394 -0.18188366 -0.2252839 -0.541602 -0.18290202 -0.1054937 0.08330322 0.36405116 0.711364 -0.22009633 -0.4217608 0.3116215 0.39866707 -0.3387051 0.3603168 0.3491338 -0.7939067 0.23493579 0.019590732 -0.41479704
丧 -0.68200195 0.8931521 0.6455256 0.42900422 0.49569276 0.046371188 0.36790282 0.102332614 0.061342448 0.29678944 -0.11292109 0.09988012 0.4276318 -0.12441693 0.367851 0.14193887 0.43933252 -0.727924 0.31096148 -0.45830268 0.37523812 0.29339638 -0.5301692 -0.3818601 -0.2854099 0.38397822 0.2028206 0.680306 0.14742605 0.4100991 0.010100964 0.06864113 -0.28585577 -0.08705905 -0.53069335 -0.45865753 0.09114925 -0.06811778 -0.408752 -0.39999253 -0.44696578 -0.1863184 0.28742892 0.5348781 0.13814877 0.629309 -0.197108 -0.05704267 -0.33169746 0.43941942
说 -0.6879806 0.4899353 0.07331567 0.20758669 -0.118412286 -0.11421922 0.26215366 -0.07554077 0.017703949 -0.306827 0.39277935 -0.21186094 -0.3094338 -0.22344567 0.95581234 -0.38031876 0.53448117 -0.23518533 0.119176134 -0.011299219 -0.30169094 0.68087953 -0.23151374 -0.30375522 0.15528554 0.27406597 -0.13581531 -0.4455942 -0.09043789 0.48189974 0.121166706 0.045193046 0.35263348 0.30169314 0.13620132 -0.43982273 0.645628 0.59075177 0.12009691 -0.30261365 -0.12193169 -0.44532663 -0.6354191 0.26942158 -0.4745706 0.32642013 -0.2684603 0.2856413 0.15411086 -0.6130819
自 -0.54715717 -0.43291923 -0.08681075 -0.7171655 -0.5886042 -0.24734499 -0.19294319 -0.28242245 0.09759969 0.33736145 0.06313521 0.21093193 -0.43112814 -1.0445377 0.33293602 0.20473768 0.6909545 -0.03933239 0.12886883 0.22633791 -0.14427723 0.23743814 -0.98228765 0.43519858 0.5279017 0.029501759 0.11659513 -0.08924138 -0.13667019 0.30707163 0.70649064 0.29705286 0.34694666 -0.31826636 -0.26509154 0.46859545 0.3470999 -0.5934021 -0.24093638 0.46472964 -0.08607961 -0.25571573 -0.12726042 0.077243164 -0.002978168 -0.03414336 -0.6549355 -0.101863764 0.6895162 0.5817215
用 -0.74731624 0.17841268 0.29357225 -0.2505332 0.40174407 -0.48831788 1.0122086 -0.26400778 0.27375448 -0.40499452 0.7646582 -0.6980834 -0.0020180428 -0.061853644 0.09748526 0.06689642 0.5848586 -0.110457994 0.29771438 -0.022050325 -0.29977104 -0.68185335 0.29338613 0.30389208 -0.36133754 0.67896205 -0.10650986 -0.252048 -0.01986489 -0.22291546 0.22594234 -0.18392213 -0.74067837 0.6821616 -0.23666285 -0.20183986 0.1971928 -0.6153329 -0.050096836 -0.51577014 0.4978908 -0.35755607 -0.33896235 -0.22498003 -0.119682774 0.42697203 0.41533864 0.2485454 -0.2065177 0.15509112
周 -0.5367921 -0.24082741 -0.3113812 -0.32350662 0.33463016 -0.19032502 -0.20352271 -0.055620596 0.4015412 0.18156387 -0.34539944 0.036808576 -0.121170886 -0.07071391 0.30477017 -0.07254709 0.5528063 0.13057067 0.2826244 -0.46626168 -0.03356676 0.19504192 -0.14160965 0.28950313 -0.25227687 0.24307151 -0.28201616 0.16643143 -0.023780765 0.1499392 0.16684501 -0.021345655 0.68689835 -0.8708465 -0.26852652 0.11839051 -0.01338553 -0.34832528 0.14606524 -0.6330057 -0.22320545 -0.07465015 -0.5829498 0.5435866 -0.30250347 -0.5272905 0.13035163 -0.30790097 -0.10890526 -0.59334373
颜 -0.3628345 0.59541786 0.073735535 -0.5502631 -0.03597315 0.11374653 0.35635406 0.29405487 -0.12619871 0.72293836 0.24983469 -0.064362615 0.04681045 -0.93890864 0.26012442 0.26249972 0.77603245 -0.19197263 0.236504 0.2263645 0.18078016 0.43388635 0.048899665 0.81599396 -0.0075350697 -0.14941914 0.6077472 -0.16308533 0.02830761 -0.9083772 0.25455755 -0.32333925 -0.3520986 0.36789683 0.22613324 0.3890975 0.08042297 0.3766855 0.20331179 -0.7349364 0.18883209 -0.26537636 -0.1419257 0.22184199 -0.0870473 0.15059784 -0.43988988 -0.29755294 0.25599235 -0.09453409
年 -0.8298138 -0.16832702 -0.3280967 -0.30211142 0.4147649 0.23482531 0.3641939 -0.05407963 -0.2564611 0.27336976 -0.11473169 -0.39799663 0.19147652 0.14715308 -0.16950902 -0.008883553 0.5736475 -0.67302597 0.14006862 0.21559933 0.32994074 -0.1600288 0.17460719 -0.629401 -0.75469124 -0.023567865 -0.27864745 -0.4154207 0.12684132 0.5897388 0.42207408 0.22369725 0.24321014 0.30938694 -0.22588609 0.3437317 -0.111885466 0.15651345 1.0981195 -0.82603717 -0.4062525 0.3695176 -0.45816442 -0.40704 0.2495819 -0.24549606 -0.01760188 -0.33389938 0.3494906 -0.9814262
告 -0.35972956 -0.031110296 -0.28980803 0.44816637 -0.33092088 -0.12924615 -0.44911295 0.4396614 0.8901782 -0.44075525 0.78509986 -0.5342216 0.110055685 -0.61481315 0.33644572 -0.45708182 0.76324487 0.1516178 -0.17187314 -0.04461963 -0.40589225 -0.043882895 -0.0037234914 -0.5656775 0.25152975 0.18947512 0.067691796 0.22267051 0.67873687 0.24030043 0.52700347 0.5146843 -0.049200043 0.25906214 -0.3874653 -0.46841636 0.68511844 0.6921364 -0.24238777 -0.19830538 -0.22206338 -0.26865375 -0.4692761 -0.2725134 -0.15737145 0.53090924 0.039908696 -0.33066568 -0.094218366 0.48262882
十 -0.84890807 -0.21483478 0.10647104 -0.16362242 0.5876298 -0.50634027 -0.40045917 0.3923356 -0.006706196 -0.22011957 -0.11444679 0.056320593 0.20916694 -0.2862494 0.30946618 -0.36330524 0.61268497 0.4132222 0.6378034 0.2820428 0.582927 -0.015663275 0.5760519 -0.14606987 -0.29446748 0.3830281 -0.7801887 0.63828874 0.49504203 0.39706546 -0.065289564 0.1762562 -0.36032477 0.051586393 0.1060236 -0.12056054 -0.33878034 0.017093133 0.009219078 -0.10625463 -0.8206448 -0.64208543 0.08027072 0.08624413 0.6849682 -0.04046691 -0.26860815 -0.844275 -0.13167797 -0.43600318
怨 -0.53171057 -0.08791455 0.49181202 -0.506076 0.39515495 -0.30291983 0.4834393 0.08673919 -0.51120216 -0.25070176 0.6747505 0.0568508 0.061037026 -0.6383253 -0.05147961 -0.031841308 0.35141873 -0.34673944 0.6291938 -0.08845938 -0.05808812 0.40462175 -0.101975694 0.23795922 0.38350427 -0.2692799 -0.19206938 0.31867963 -0.041328017 -0.14909829 0.5297657 -0.24037562 0.71844923 0.18201499 -0.2164662 -0.11525103 0.21677725 -0.33549863 0.7741219 -0.54663754 -0.3360371 -0.48743495 -0.019397924 0.029793048 0.8191588 0.31257224 0.054334328 0.8610843 -0.3473547 0.32709023
达 -0.43734387 -0.5429873 -0.27100357 -0.8042155 -0.0015184672 -0.26546115 -0.4964159 0.13410595 0.5421812 0.34226543 0.3783175 0.021420639 0.27371594 -0.6363349 0.15426852 -0.029182041 0.47754347 -0.0011532361 0.41915143 -0.32624614 0.16445842 0.050611444 0.14651163 0.28898948 -0.2964482 0.03419053 -0.15922567 0.051814515 0.22628447 -0.10815463 -0.010997954 0.41669533 -0.16586596 0.17806058 0.622525 0.34549245 0.43935174 0.52229524 0.43084675 -0.066107996 0.044279564 -0.15470774 -0.031228775 -0.079736054 0.322142 -0.009298912 -0.6044648 0.29368833 -0.2684634 -0.05966436
孝 -0.1275692 -0.04446972 -0.4742873 -0.25280726 0.02997084 0.48447803 0.106072284 0.096479684 -0.20720626 1.0748322 -0.29692852 0.7589131 0.24599683 -0.6454 -0.04924305 0.06403866 0.6728322 0.16567446 0.6276655 -0.1960864 -0.8089807 0.1914499 -0.10293934 -0.3760923 0.42730904 0.041300286 0.34569553 -0.16680811 -0.13021103 -0.34453833 0.27909783 0.31580752 -0.13893759 0.4399829 0.20334728 -0.43084422 0.79526263 -0.25193 0.41407943 -0.39034766 0.075716764 0.14977656 0.6055201 -0.3144618 0.37209988 -0.16003986 0.037262775 -0.2817618 0.12077489 -0.21043204
弟 -0.5158338 0.48071316 0.07803049 -0.40670052 -0.4877036 0.18873608 0.8477711 -0.44162303 0.047851257 0.35513517 -0.2985623 1.0772212 0.31990343 -0.89209354 0.55616134 0.15316972 0.69781095 -0.1715302 -0.3745425 0.55388784 -0.37926394 0.31489846 0.14316717 -0.29674822 -0.26491457 -0.40070602 0.07916665 -0.7222107 -0.029617077 -0.68008286 0.48698574 0.36369732 0.31467795 -0.08667285 0.49276856 -0.9416746 0.28350607 -0.46114817 0.55648696 -0.2559016 -0.115714304 0.2997016 -0.3502446 0.43111697 -0.272422 0.016333817 -0.29246995 0.13850541 -0.19089995 -0.5957193
至 -0.83502245 0.6208618 0.064330935 -0.30564564 0.53355074 0.1640641 0.3796354 0.24617285 -0.20132065 0.5508947 0.11985535 0.17594858 0.3588494 -0.13829878 -0.4273828 0.1956317 0.14754634 0.27514994 -0.013293186 -0.30220008 0.08822186 0.13583446 0.23696783 -0.18800117 -0.20679547 0.39144734 -0.35567012 0.11941427 -0.22976424 0.024760272 0.37883815 0.92102927 0.32271847 -0.11704161 0.6150803 -0.08305304 0.6738688 0.4081215 -0.21021046 -0.19163996 0.4031879 -0.48227885 0.7746649 0.010312727 -0.40029958 -0.7769944 0.3868872 -0.18844745 0.47133762 0.061841488
先 -0.6246338 0.41415846 -0.22405913 -0.4543368 -0.53708994 0.85768676 0.047896873 0.013237332 -0.5471961 0.32084236 -0.0729525 0.09891861 0.5236324 -0.23431134 0.010981731 -0.5876712 0.73403025 -1.1182364 0.1443642 0.104039095 -0.14098535 -0.15009543 0.053713765 0.7885552 -0.10480598 0.2771576 1.0301592 0.35760593 -0.44450882 0.23719335 -0.4104351 0.07131579 0.0082040895 0.21580198 0.33986458 0.12701751 0.2674912 0.12482079 -0.13404782 -0.435628 0.47826257 0.1453762 -0.9021054 0.14005497 -0.39397553 0.1462558 0.28318396 0.32080093 0.06426747 0.62239814
师 -0.3303113 -0.34076756 -0.5546173 -0.21421918 0.054860596 0.15429713 0.5372086 -0.31181154 0.03491601 -0.028020112 0.05793534 -0.10247113 -0.32598805 -0.16594179 -0.2723326 0.19018398 0.78510886 -0.18840422 0.30828738 -0.23940845 -0.15805279 0.09435749 -0.18167321 -0.11470667 -0.074107625 0.4142582 0.66029066 0.6794416 0.43222114 0.21467787 0.6600563 0.3310151 0.5582621 0.70614016 -0.2845779 0.35659227 0.78351575 -0.10587716 0.26728383 -0.12160879 0.15548988 0.825817 -0.06116901 0.4424803 0.2697774 -0.5243064 0.16445534 0.13789554 0.07683196 0.14914136
女 -0.44330144 -0.50438064 -0.24863572 -0.29024974 0.18270262 0.3939191 0.53413326 -0.01545902 0.30118072 0.2900928 0.18893526 0.26175523 0.10663428 -0.8374098 -0.010303552 -0.21440321 1.0252709 0.49277112 -0.118080474 0.45540968 0.4283415 0.055173043 -0.11727431 0.49561748 0.55634016 0.004470942 0.0816007 0.65648204 -0.38713396 -0.42742229 -0.5612697 -0.021336466 -0.3175238 -0.3400422 0.32482317 0.07418171 0.50696945 -0.5749384 -0.07842889 -0.044851962 -0.6282661 0.3701115 -0.5340713 -0.46358767 -0.6278213 -0.5597656 -0.16873558 0.032885708 -0.5927467 0.0010512393
多 -0.5200412 0.15281607 -0.48671278 -0.13444217 0.23423247 0.2531064 0.09846437 -0.50969535 0.24847634 -0.051115513 -0.28363264 -0.48348352 0.5758911 -0.33125675 -0.79915345 -0.16679578 0.11362575 -0.34352958 0.31159872 0.8618839 0.10162589 -0.08006703 -0.18793659 -0.59887844 0.64249355 0.4700204 -0.55423254 0.91361976 0.3319346 0.21963647 0.1641556 -0.18515043 0.30060032 -0.562183 -0.40421107 -0.5895576 0.8140677 -0.10938615 -0.23562549 -0.40941477 -0.13816427 0.2472777 0.1824815 -0.24785702 -0.25341284 0.23364949 -0.6813588 0.01823059 -0.4195444 0.24849127
忠 -0.6300366 -0.13598396 0.09271694 -0.42154872 -0.18731214 0.17518152 0.028917724 0.04890633 -0.592762 -0.38897642 1.1280025 0.29606274 -0.107144944 -0.34202018 0.2520694 0.057410136 0.79282594 -0.35837072 0.09349265 -0.09049697 -0.27507633 -0.00074439356 -0.14116496 0.081711076 0.5362057 0.05941827 -0.5549047 0.6359076 0.7942627 -0.010581426 0.4515002 0.05144498 -0.83657074 -0.020469304 0.12169968 0.017280828 0.24450411 0.38695544 -0.18253285 -0.68740666 0.25340837 0.8129278 0.25699413 0.18062715 0.07985424 -0.009733628 0.036980104 0.1432525 -0.42113066 -0.34251782
四 -0.6097105 -0.45275626 -0.424773 -0.12150697 -0.46813777 -0.28014913 -0.2969645 0.5199553 -0.42693874 0.26108515 -0.14954518 0.5628259 0.31279352 -0.30159265 0.1491088 0.39785782 0.42114705 -0.17577176 0.37881207 0.10114173 0.41935077 -0.10204015 0.23516782 -0.46076843 -0.10792696 0.055982593 -0.28048667 -0.06232977 0.15576474 0.04496581 0.52425015 0.12695192 -0.51259464 0.7175703 -0.4710396 0.47423607 0.5155824 -0.48451826 0.0972384 -0.23879436 0.05362162 -0.43557572 0.15524746 -0.5156339 0.014890339 0.56366676 -0.27682367 -0.12736629 0.07581121 0.26454842
疾 -0.55490756 0.5780981 0.30904645 -0.7573223 0.031142281 0.16781023 -0.2882857 -0.37811792 0.7022931 0.43315545 0.90893507 0.10573238 -0.08260398 -0.2977962 -0.1807133 0.5736036 0.5795076 -0.34807026 -0.12966901 0.23975219 0.11014316 -0.018760672 -0.16783273 -0.6050547 0.3687646 -0.1205038 0.11498734 0.82035464 -0.15545328 0.16661327 0.33882302 -0.49447328 -0.5608173 0.028704127 -0.67328763 -0.4750583 0.4922865 0.24791755 0.7602228 -0.23807222 -0.3153749 -0.19694358 -0.16402459 -0.10565769 0.6758209 -0.37639076 0.5636639 -0.1282285 -0.4495729 0.17373893
服 -0.969078 -0.40601674 -0.21539772 0.0056081535 -0.21510214 0.36401644 -0.80626196 -0.33697325 0.04547411 -0.45778778 -0.5313123 0.34437838 -0.11181516 -0.18017903 0.2318112 0.14122948 0.27987936 0.13355999 0.7228823 -0.53633726 -1.1959629 -0.27668497 -1.0256969 0.089381434 -0.14550123 0.09508189 0.25918627 0.19060965 0.2778254 -0.94023514 0.65964395 -0.5901817 0.5319942 -0.2903576 0.6997442 0.17219295 0.46682814 -0.050159372 0.42495653 -0.683932 -0.028570605 -0.66835845 0.036099724 -0.7243377 -0.14967576 0.31967658 -0.17647988 0.5110694 0.29681474 0.070197955
氏 -0.5089796 0.28393567 -0.8827808 0.26219526 -0.4415604 0.4398419 0.1468295 -0.17904861 0.18013427 -0.34813517 0.4847312 -0.909778 -0.08088514 -0.16001046 0.23301306 -0.105827756 0.9425135 0.36068183 -0.65868443 -0.5069392 0.22402404 0.3631354 -0.079733685 0.6650091 -0.21739371 0.48934904 0.5957762 -0.31403494 0.47717258 0.5157964 0.4348198 -0.6015655 0.56914043 0.2085799 -0.38629168 -0.021433042 0.7595695 -0.41658634 0.17300054 -0.2513545 -0.44877404 -0.3566658 -0.59970725 0.24536996 -0.0984977 -0.654064 0.73856074 -0.016047977 0.7072738 -0.1011382
冉 -0.31013307 0.12986413 -0.25861287 -0.006547889 -0.18261278 -0.6764141 -0.20554164 -0.15642689 0.15290456 -0.4020481 0.17989099 0.13562803 -0.3198116 -0.88089854 -0.39551136 0.6415999 1.2151092 0.38758305 0.014455397 -0.3210134 0.41899577 -0.5929479 -0.45680183 0.44924656 -0.16073966 0.59650975 -0.15930673 0.35880476 0.39617008 0.12939581 0.38186145 -0.96559227 -0.09804865 0.45966214 0.025257276 0.6141215 0.6393227 -0.25313935 0.18043934 -0.23814027 -0.21921499 0.05786843 -0.14279366 -0.45588538 -0.08598923 -0.22848743 0.12296482 -0.42327163 -0.5386974 -0.30513388
将 -0.55468076 0.34531295 -0.016924176 0.33070338 0.2099232 0.31660405 -0.21231289 -0.37308705 0.38210297 0.38630524 -0.07013618 0.13388288 -0.7506046 -0.9138341 0.24269345 0.12185585 0.41043368 0.076841764 -0.46608597 0.54599816 -0.048064344 0.09171812 0.07008469 -0.017690465 -0.13944727 0.57223946 0.35784492 0.12182845 0.7821957 0.036549177 0.19485734 0.031288296 0.11233057 0.13041903 0.3096078 0.46639022 1.0191026 -0.5254264 0.21832316 -0.17280412 -0.05508038 0.2737359 -0.22084638 -0.053586196 0.14102627 -0.5273797 -0.12018432 0.67669284 -0.106820144 0.17086326
士 -0.3046086 -0.5679073 -1.051657 0.13880308 -0.6016998 -0.14747204 -0.2635849 0.5449857 -0.118166424 0.123943806 0.06409576 -0.0132474955 -0.336171 -0.7677916 -0.37501696 -0.16269659 0.8001474 0.05062936 0.5280903 -0.35968128 -0.098311424 0.52764124 0.5744592 0.10834745 -0.3037117 -0.08296663 0.2839129 0.4268985 0.42617247 0.8731849 0.14119394 -0.3694395 0.35495955 0.5961791 0.08236466 0.022211274 0.55456805 -0.42688432 0.4027039 -0.34741032 0.24958557 -0.05047822 0.14085774 0.22318709 0.74302304 0.07812727 0.9108617 0.10071378 -0.122017086 0.0051701874
丘 -0.817141 -0.23164059 -0.061852124 0.009333726 -0.6785616 0.3830349 0.32045504 0.15728481 -0.69135636 0.38941103 0.27814764 -0.8491909 0.6039817 -0.029422913 -0.22716358 0.17983668 0.9647437 -0.25739193 -0.22016378 0.22621176 -0.3215198 0.90163976 -0.45477894 -0.039680295 -0.005619861 0.21648978 -0.49952212 -0.43362442 0.26388317 0.2858195 0.26213875 -0.33131853 -0.45818686 0.47520518 0.20781252 0.35931087 0.20462883 -0.108324826 -0.5455267 -0.33317533 0.45346865 -0.59023255 0.28634477 0.5201554 0.388322 -0.9019307 -0.7587143 -0.39948365 -0.23399906 0.044299453
身 -0.8291032 -0.20922814 -0.38672882 -0.57413596 0.47626403 -0.025273457 0.37606066 0.3784348 0.74077463 -0.2087209 -0.0104014585 0.26501295 -0.45806274 -0.31214887 -0.38454258 -0.63912576 -0.08667861 0.053778596 0.24895738 0.26822615 0.12533431 -0.25400513 -0.47812107 0.015591091 0.03921125 -0.392565 -0.023800107 0.5269973 0.40592766 -0.34492984 0.61628675 0.2540499 0.20479393 -0.0503616 -0.35746068 0.6131275 0.43964228 -0.5474266 0.07324149 -0.3923313 0.2927757 -0.010957558 -0.16585264 0.052579783 -0.34806558 0.19361478 0.20894407 0.22584085 -0.3631011 0.04310319
入 -0.7985636 -0.7874671 -0.57891065 0.09465154 0.58940977 0.012630299 0.5053125 0.13927208 -0.13086621 0.48789904 0.14379384 0.46089974 0.11967209 -0.31561315 0.01285331 -0.020811325 0.62561524 0.18144488 -0.4881255 0.6145877 0.6311631 0.7770103 -0.5978921 -0.38874057 0.15897994 0.18622929 -0.10209506 -0.4383023 -0.20733511 0.3956132 0.32977352 0.6214022 0.3883796 -0.6018103 0.3739798 -0.416016 0.97524863 -0.18748549 -0.037724815 -0.45954156 0.32822648 0.0044471533 -0.100662485 0.36814076 0.4118066 -0.33539477 -0.07470047 0.187345 0.08136746 0.28216165
志 -0.5707689 -0.07831204 -0.309111 -0.0494417 0.2453243 -0.08975148 0.2861301 0.6278905 0.29875147 0.20144837 0.35431367 0.13765076 -0.36224017 -0.41907603 -0.45696333 0.24343258 0.66608596 -0.3873998 -0.05992934 0.17051432 0.5526129 -0.17446606 0.19389239 -0.5616183 -0.19778259 -0.85183066 -0.18842043 -0.14290306 -0.006073803 -0.27218378 0.4190457 0.5648826 -0.26140702 0.40583497 -0.087254025 0.18607222 0.7141345 0.77182686 0.25993562 -0.40201434 0.33671892 -0.004041729 -0.9688458 0.5059868 0.6195521 -0.095188476 0.16059 -0.38120583 0.1688163 -0.36568207
耻 -0.9115915 -0.05698855 -0.27750143 -0.28668082 -0.26364142 0.7364488 0.07994321 -0.12826551 -0.43360764 -0.03459174 0.34031376 -0.004699829 0.8209722 -0.12225714 0.4130104 0.031125229 0.19903962 -0.39884514 -0.1597645 -0.11124355 0.40282664 0.5637539 -0.48761111 -0.05668699 -0.17694528 -0.52842605 -0.5081136 -0.24838218 0.1651113 -0.19839281 -0.040640563 0.28286156 -0.06668114 0.3201112 -0.1934267 -0.32920668 0.37915188 -0.29764766 -0.2998065 -0.19782309 -0.69922286 -0.5814642 -0.2761923 0.4836409 -0.0093456255 -0.3952693 0.3312276 -0.53479964 -0.39103368 -0.29793534
失 -0.9940516 0.37748203 -0.4989817 -0.2871635 0.028291471 -0.38792557 -0.17939897 0.2573861 -0.12441299 -0.4121317 -0.57084835 0.2105057 -0.26611164 0.38304952 0.78558487 -1.028435 0.12617776 -0.64723927 -0.047890756 0.12142523 -0.36177245 0.43331632 -0.6492196 -0.5121163 0.32381576 0.123032406 -0.6374422 -0.49877712 0.208554 0.29231814 -0.4043808 -0.18789794 0.01070682 0.06960668 -0.20648435 -0.19484386 0.8493834 -0.07030062 0.45630398 0.21038018 0.2514597 -0.1860303 0.24547431 0.18687083 -0.3920141 0.5017523 0.44709754 -0.2923072 0.2516086 0.38395268
安 -0.7504565 -0.27719864 0.31835228 -0.44686243 0.17428607 0.56641185 0.13424699 0.87997216 -0.27863076 0.019486059 0.06694599 -0.09743259 0.3783001 -0.5823047 -0.32738167 0.03771585 0.16224399 -0.45043457 0.026842644 0.24509116 -0.17907381 -0.3715268 -0.0058065737 -0.20635779 0.32469723 -0.23390426 -0.5076497 0.49476704 -0.098914616 -0.74661165 -0.7891363 -0.6821054 0.18774182 0.09923808 0.043747522 -0.51971495 0.43197846 -0.5171927 -0.4304727 -0.51880324 -0.48030365 0.09665813 0.256573 0.58626676 -0.20667437 -0.07976972 -0.3176566 -0.22751871 0.02916441 0.19500291
富 -0.68134 0.42560396 -0.520024 -0.4523983 0.4369839 -0.17329961 0.05854747 0.440209 -0.02259031 0.10016337 1.0245866 -0.32508463 -0.24987648 -0.9037031 0.25746816 -0.39065847 0.54799277 0.39004114 -0.7843417 0.30269268 -0.42046872 0.11741088 -0.8781347 0.09644669 -0.23497203 -0.17126358 -0.60423595 0.15769239 0.44311085 0.44418645 -0.08028677 -0.3016127 0.55913293 -0.18665771 0.3759513 -0.049587302 -0.24293716 -0.17532651 0.032604583 -0.403432 -0.57333994 -0.011566091 0.1411495 0.531844 -0.25991836 -0.108120084 0.46263057 0.59049064 -0.38441318 -0.5359049
赐 -0.10285027 0.4692086 -0.5050269 -0.705124 0.3211641 -0.30953586 -0.72693294 0.18598475 0.07913837 0.23548354 -0.5810687 0.28598478 0.38496935 0.25985622 -0.5211638 -0.7618016 0.8845523 -0.67659 -0.66855764 0.6963876 0.6357141 0.7754476 0.42271248 0.013304318 -0.034159128 0.70431054 -0.5217962 -0.14395125 -0.108497776 0.47831544 -0.2146149 0.6107851 -0.29998407 0.36713642 -0.014359405 -0.46904588 0.21206501 0.07108517 -0.38582438 -0.04131114 -0.2086978 0.2071756 -0.6696395 -0.010204014 0.20157494 -0.5390323 -0.10548359 -0.23387523 0.1767872 -0.10259103
患 -1.2292216 -0.1681539 0.15712966 -0.2875124 -0.7835643 -0.054422494 0.6024005 0.5826383 -0.2384622 0.23779227 -0.056674413 0.66353816 -0.4054789 -0.4897711 0.23876634 -0.5135689 0.32484084 -0.40866148 0.05885043 -0.011598292 0.32947943 -0.45956552 -0.12713666 -0.9274501 0.40367827 0.016106479 -0.5686472 -0.10072305 -0.052062817 -0.26963985 -0.837585 -0.7796866 0.33345133 -0.36718097 0.25359696 -0.19038957 0.36982885 -0.53896683 0.062255844 -0.07024622 -0.0852699 -0.432066 -0.35780463 -0.2588918 0.10118841 0.5136304 0.31130365 -0.07191115 0.49651605 0.03223975
百 -1.3927258 0.1565351 -0.3576006 -0.37100357 0.16137056 0.04834276 0.08105732 0.1920955 -0.07365434 0.43436587 0.17545524 -0.0015081207 0.6704343 0.46930933 0.0212924 -0.059920058 0.5593543 0.42632356 0.21131939 -0.7129017 -0.8971707 -0.6766373 -0.123139195 -0.6558306 0.4324522 -0.22929972 -0.46313676 1.1545556 0.50634557 0.07025823 -0.44866723 -0.57380134 0.263067 0.36207634 -0.76831377 0.6919538 -0.30653247 -0.15631695 -0.5992002 -0.7129385 -0.09493806 -0.44523227 -0.54300374 -0.7776909 0.016863987 -0.41629237 0.3847121 0.07398026 -0.44220927 -0.19817926
回 -0.6771442 0.65205115 0.5638475 -0.12694298 0.7814182 -0.26225787 0.041161425 -0.021565683 -0.32288507 -0.36825848 -0.057032496 -0.31508622 -0.112601176 -0.83335096 -0.43183422 -0.46497604 0.981372 -0.5274148 -0.606596 0.056236524 0.21481076 0.2832467 0.1381107 0.08969779 0.019900361 0.25581735 0.22876239 0.5668465 0.34156078 0.0030963798 -0.3830202 -0.2536956 -1.1074398 -0.19985268 -0.55011445 -0.529727 0.061203722 0.62875575 -0.26094496 -0.08296638 0.30760393 0.46361226 -0.4593802 -0.2262384 0.080179855 -0.67178583 -0.059012365 -0.19587779 -0.74040073 0.38098195
宰 -0.42740473 0.08715469 0.37617028 0.7027716 0.0124075115 0.2912259 0.54914284 0.41895062 0.35412946 0.7526118 -0.35046712 -0.6364641 0.09140446 -0.33756822 -0.16294494 -0.14829679 1.233318 0.3457061 0.0127333 0.7837496 0.30512756 -0.20242539 -0.37626863 0.05793618 0.017440679 0.41068363 0.52895194 -0.65068185 0.3859191 0.42492104 -0.17173798 -0.5214656 -0.19216393 0.23832871 -0.29178616 0.21656615 0.73859775 -0.49738127 -0.091012955 -0.8755868 -0.13713206 0.14824572 -0.5933727 -0.27820724 -0.42385808 -0.0043710396 -0.13755114 -0.49136198 -0.73742515 -0.19149658
朝 -0.47506288 -0.3224389 -0.3850494 -0.08382205 0.09782439 -0.15594901 -1.0435122 0.04169424 -0.007377994 -0.015784606 -0.38663974 -0.07702303 -0.056744847 -0.4040599 -0.38802508 0.58413273 0.8241728 0.1478371 0.13538265 0.015847955 -0.86753047 -0.7391556 -0.51807505 0.1060095 -0.28847736 -0.012533016 -0.14346746 0.04314734 0.5380711 -0.17169075 -0.13784881 0.8981131 0.9920248 0.5850249 -0.044091392 0.26367354 0.41030675 -0.095049836 -0.82008433 -0.21007615 -0.19667502 0.071745 0.06014156 0.17426173 0.011935121 0.30802682 0.5554825 -0.42176583 0.07848002 -0.28753203
莫 -0.92576045 0.38006818 0.6498272 -0.326519 0.24064687 -0.017361993 -0.18816502 0.39965507 -0.026417112 -0.09920808 -0.42487434 -0.95778775 -0.22879197 -0.40330744 0.15276219 -0.21117967 0.28736657 -0.36670366 -0.118648976 0.28380468 0.05335973 -0.012555811 0.29828855 -0.48468938 -0.20611292 0.4230731 0.10127061 -0.2554437 -0.37170815 -0.111681595 -0.12211362 -0.20526403 -0.26780143 0.015783185 0.40644214 0.112179644 0.473378 0.2927863 0.31534243 0.13253318 -0.47197667 -0.3568785 -0.50037056 -0.1491597 0.40764216 0.4657628 -0.45736405 0.34526506 0.5078468 -0.110405296
若 -0.44984394 -0.26923394 -0.4664755 -0.24826667 0.84994155 0.6510244 0.42038035 -0.36906022 -0.36740884 0.2644751 -0.006189336 -0.1546688 -0.18796766 -1.1012996 -0.39213997 0.058741 0.9935715 -0.005670561 0.13523686 0.08501041 0.5642047 0.33302218 -0.254943 -0.07944478 -0.40643597 0.8184066 -0.62583643 -0.18534042 -0.23492841 0.26292622 -0.53833216 -0.976504 -0.08842161 0.0024275002 -0.22154877 -0.23401842 -0.021161621 0.6396495 0.605924 -0.13779736 0.17368695 -0.3022743 -0.038488533 -0.003993846 0.32172954 0.11115438 0.54676175 -0.1157324 -0.1348994 0.37873715
云 -0.40054622 -0.9465104 0.36586642 -0.023511067 -0.11464479 0.009544777 0.60710394 0.28892657 -0.10214212 0.26708096 -0.32524484 -0.6616704 0.046719268 -0.4880741 -0.9565967 0.24348603 1.236391 0.264063 -0.09865144 -0.28189328 -0.0061237854 -0.19318494 0.35312873 -0.19171944 -0.08755943 -0.06974042 0.45057818 -0.022108477 -0.1888877 0.4973022 0.22649007 1.0397047 -0.089212 0.44719046 -0.04747445 -0.28686544 0.3923167 -0.25398493 -0.35522765 -0.6357158 -0.1623758 0.16176908 0.47215536 0.0731932 -0.3928972 -0.3238146 0.4205034 0.40219888 0.49732116 -0.5904017
孙 -0.36088488 -0.48802873 -0.061812513 0.19363974 -0.36908382 0.49663222 -0.21650004 0.44211197 0.8411355 -0.41128105 -0.15678824 0.40400624 0.06626353 -0.7780498 0.13647738 0.16482152 0.5646589 0.10690329 -0.1479195 -0.08567184 0.15845813 0.022961942 -0.27120978 0.08423384 -0.10958781 -0.067700274 0.5211699 0.0687516 0.39219844 0.15291923 0.59728384 0.42837363 0.21368095 -0.17506309 0.28475562 -0.59176534 0.9313894 -0.76812375 -0.11288783 -0.080300346 -0.09539754 0.16716145 -0.17657678 -0.6025427 -0.34782338 -0.32291222 0.20072159 0.18111064 0.02374977 0.7761494
或 -0.32901785 0.4483918 -0.21404725 -0.26218992 0.41920897 -0.3078613 -0.34081674 0.24475308 -0.6123446 0.4456562 -0.06854649 0.08202854 -0.03077175 -0.186375 -0.32857975 -0.1763941 1.1229848 -0.15765858 -0.9635021 0.2875759 -0.3471904 0.29144546 0.1893457 0.37540838 0.6468222 0.41669548 0.22497454 0.18097839 0.13046636 -0.48108655 -0.43962628 -0.48202807 0.083827145 0.045869317 0.44911408 -0.6865696 0.5586627 -0.12145113 0.17251447 0.24130447 0.09490437 -0.20951442 0.26228732 0.3510498 0.25477672 -0.47652936 -0.288169 -0.41764703 -0.5057399 0.529209
